tree
version=v4
num_class=1
num_tree_per_iteration=1
label_index=0
max_feature_idx=38
feature_names=Column_0 Column_1 Column_2 Column_3 Column_4 Column_5 Column_6 Column_7 Column_8 Column_9 Column_10 Column_11 Column_12 Column_13 Column_14 Column_15 Column_16 Column_17 Column_18 Column_19 Column_20 Column_21 Column_22 Column_23 Column_24 Column_25 Column_26 Column_27 Column_28 Column_29 Column_30 Column_31 Column_32 Column_33 Column_34 Column_35 Column_36 Column_37 Column_38
feature_infos=-1:1:2:0:4:10:6:5:3:8:7:12:13:9:14:11 -1:1:10:3:4:23:13:2:7:9:8:6:11:37:51:5:24:0:38:14:12:47:29:48:28:49:31:26:16:19:50:41:60:30:25:27:63:55:22:39:18:64:76:92:45:15:42:44:73:33:46:62:66:81:65:67:20:17:35:36:95:78:61:21:70:43:52:32:75:89:100:83:85:58:59:68:77:90:99:40:84:108:109:114:34:69:71:72:87:91:97 -1:2:4:1:5:0:3 -1:5:3:1:2:0:7:4:8:9:10:6:13 [0:198699995931] -1:0:3:1:5 -1:0:2:8:11:4:3:1:6:13:10:5:9:16:12:14:15:19:7:18:17 -1:0:2:6:3:5:4:1:7:12:8:13 -1:0:3:2:1:19:13:18:4:5:7:14:85:223:100:56:155:8:108:99:24:133:156:53:66:148:157:181:338 -1:0 -1:0:2:12:1:4:10:3:6:18:24:19:28:5:22:11:23:33:17:14:7:21:9:20:13:8:36:27:29:16:30:41:25:31:51:15:39:48:92 [123123123125109:126550508236076] -1:0:4:1:3:2:5:7:6:8 -1:0:1:39:63:83:3:17:5:57:71:14:44:35:42:19:24:11:75:58:36:56:80:85:8:22:82:2:4:9:38:40:59:72:6:29:41:55:86:7:21:26:37:12:54:68:20:27:33:45:70:91:15:23:79:43:47:50:84:10:13:18:25:34:61:66:64:73:102:28:89:30:51:16:32:65:53:98:31:52:62:69:78:81:88:90:92:48:87:74:93:94:46:60:67:76 -1:2:1:0:5:6:4:3:8:12:11:13:16:7:17:24:22:9:14:25:27:23:29:37:57:40:39:62:41:15:26:31:42:43:44:20:54:10:52:59:34:33:19:71:28:97:21:68:67:30:35:65:45:63:18:32:38:56:49:55:64:74:98:99:48:81:46:58:87:88:95:36:73:76:60:72:85:79:50:78:83:84:104:110 -1:0:6:11:14:107:28:74:16:90:3:100:60:79:85:43:15:29:12:54:17:48:2:103:89:13:65:23:44:66:7:58:50:165:26:87:175:9:4:81:80:25:62:1:63:94:232:99:117:67:69:124:222:52:146:32:241:84:185:8:10:30:33:77:164:37:221:138:19:51:112:129:168:144:267:55:190:113:281:134:329:110:255:261:82:72:132:36:334:170:78:76:173:296:305:97:45:386:307:271:18:105:245:111:38:247:93:342:102:166:312:345:251:135:125:151:196:262:524:47:167:250:131:474:415:59:172:194:298:443:590:201:139:254:325:116:64:128:303:162:308:70:101:286:252:239:408:120:299:121:127:147:53:186:335:169:140:235:744:106:304:338:199:184:257:313:378:136:141:270:290:430:5:149:202:317:358:109:195:269:42:86:445:406:56:234:197:337:488:154:83:148:354:115:152:413:114:225:551:1091:464:178:400:108:410:685:277:374:388:451:27:273:401:440:356:432:73:322:182:336:692:98:282:319:380:583:123:361:389:142:567:669:57:294:465:156:366:508:639:49:283:575:122:238:316:92:130:205:513:210:242:412:468:498:559:689:256:437:455:879:163:171:381:424:585:365:479:576:605:198:292:728:34:119:133:339:394:414:40:193:280:351:404:157:160:189:434:463:617:192:444:570:223:403:929:75:268:285:456:563:542:1048:39:96:297:347:21:41:68:150:433:497:573:810:71:253:330:390:391:647:88:137:188:228:506:233:265:278:360:363:373:480:616:644:807:836:302:462:476:531:543:594:678:95:376:485:515:619:642:895:219:362:384:558:613:707:724:971:1011:104:180:556:586:654:740:925:35:209:220:264:393:425:520:580:589:607:829:986:237:310:383:816:1010:206:291:439:562:569:579:734:24:176:529:568:609:618:676:696:952:1132:1162:1211:1221:1274:1354:1533:181:213:240:435:447:452:499:521:571:679:815:865:1017:1168:204:375:525:601:608:677:686:727:781:880:987:1008:1438:1465:230:248:295:448:460:522:544:547:597:637:638:712:736:747:770:784:835:844:1218:1448:1507:179:207:349:409:428:530:582:593:634:635:704:722:768:838:918:973:1023:1049:1170:1231:1449:118:200:214:217:279:327:328:421:461:471:482:532:621:650:675:688:842:932:944:1031:1045:1059:1216:1226:1249:1284:1375:293:323:332:344:426:517:599:620:680:684:690:715:778:866:949:966:970:991:994:1195:1202:1397:276:367:422:438:453:511:534:537:604:625:636:659:668:708:713:733:823:930:1064:1128:1163:1346:1373:1424:1445 [0:1] [0:1] [0:1] [0:1] [0:23] [1:7] [0:26.015061966031109] [0:2] [0:263] [0:109446146335] [0:109446146335] [0:7] [0:287] [0:688959311700] [0:229653103900] [0:12] [0:815] [0:912511417337] [0:45625570866.849998] [0:15] [-0.99999917666958349:0.85913800415778196] [-0.99999916802517719:0.9826204477989452] [-0.99999916668571853:0.55436341532419586]
tree_sizes=12449 13322 13239 13324 13261 13255 13222 13302 13328 13308 13249 13309 13310 13295 13304 13310 13346 13306 13281 13331 13301 13267 13319 13391 13297 13316 13373 13352 13397 13414 13482 13488 13412 13400 13418 13410 13431 13446 13448 13410 13453 13417 13436 13454 13479 13508 13548 13362 13437 13400 13479 13503 13460 13509 13457 13469 13438 13330 13391 13439 13366 13362 13459 13433 13480 13421 13451 13583 13459 13508 13400 13436 13363 13414 13413 13468 13419 13492 13451 13451 13460 13379 13361 13377 13420 13429 13417 13414 13389 13445 13402 13417 13417 13535 13362 13351 13476 13377 13498 13382 13446 13351 13384 13431 13371 13459 13458 13414 13367 13415 13359 13524 13447 13502 13469 13449 13444 13431 13381 13452 13401 13423 13433 13513 13399 13376 13470 13404 13382 13424 13514 13402 13364 13433 13486 13424 13414 13460 13442 13407 13330 13378 13605 13378 13559 13475 13353 13403 13317 13439 13242 13216 13444 13410 13491 13368 13457 13472 13448 13433 13254 13569 13368 13490 13400 13517 13621 13529 13366 13597 13502 13541 13518 13545 13389 13426 13447 13640 13670 13538 13624 13339 13631 13562 13668 13455 13587 13295 13589 13523 13321 13621 13578 13610 13631 13483 13676 13537 13452 13361 13452 13710 13629 13691 13620 13419 13749 13673 13741 13607 13680 13425 13545 13631 13637 13470 13574 13489 13702 13733 13756 13781 13690 13726 13743 13349 13541 13585 13604 13836 13499 13447 13748 13419 13504 13920 13922 13668 13794 13806 13539 13467 13509 13515 13783 13906 13796 13388 13764 13771 13521 13948 13812 13568 13956

Tree=0
num_leaves=120
num_cat=0
split_feature=36 36 26 34 24 22 22 22 34 34 34 11 11 18 32 21 22 22 32 32 26 33 11 26 11 20 18 27 11 11 20 22 22 35 22 34 32 22 26 21 35 24 34 32 32 24 34 20 29 22 22 34 20 22 29 11 11 22 36 11 34 33 22 29 34 22 21 26 22 26 22 20 11 32 11 33 29 22 22 34 24 34 24 26 17 26 29 11 20 36 29 11 34 21 32 24 20 11 33 11 26 24 20 11 22 22 33 24 11 22 22 22 22 33 22 36 11 20 22
split_gain=47.1556 17.206 7.85051 12.094 7.17922 5.7604 6.24687 5.3572 3.92487 3.45259 4.13853 2.76227 6.46028 3.08796 2.82914 3.09899 2.66666 2.4719 4.65437 2.21548 1.82582 1.91143 1.98517 2.59848 1.84479 1.71961 1.70151 1.60791 1.55401 3.69656 1.44651 1.58726 2.88761 1.40933 1.37425 5.23217 1.40785 1.3008 1.21222 1.17996 1.15816 1.13177 0.913295 0.802272 3.4803 0.752314 2.35271 3.41745 3.70909 1.5496 1.27851 2.44496 0.745039 0.696476 0.674322 0.657682 3.69047 0.93986 0.651756 0.625161 1.1363 1.43578 1.37383 0.42595 0.368965 2.09435 1.05882 0.366022 1.2055 0.297591 1.01966 0.287972 1.83175 1.44 0.211414 0.188078 0.177326 0.951724 0.147181 1.67454 1.74746 0.638389 0.127183 1.16707 0.0939228 0.247988 0.681485 0.0949353 0.458299 0.091014 0.129767 0.0631648 0.0617943 0.161517 0.0556506 0.0515611 0.0900366 0.363326 0.608519 0.10465 0.045087 0.0445654 0.0915895 0.12433 0.0453013 0.053916 0.044271 0.0403109 0.0372595 0.0628965 0.493397 0.0396673 0.312584 0.0352339 0.0324478 0.0296224 0.0283041 0.0274951 0.483073
threshold=1.0000000180025095e-35 -0.91859903288927802 2684804.8750000005 779989.2045454547 6.5000000000000009 11.517619431041529 10.817746219912467 14.605045292045604 36024.148888888893 36024.148888888893 34555.90214285715 125408046047985.02 125502535590840.52 1.0000000180025095e-35 12.500000000000002 1.5000000000000002 13.586895187634626 14.094919651084146 86.500000000000014 74.500000000000014 1300990.0000000002 128955602.50000001 123251972677412.52 24763748.600000005 126533327195507.52 9.5000000000000018 1.0000000180025095e-35 1.5000000000000002 126267039246203.52 126292809112424.02 20.500000000000004 8.624252247564586 8.5262520309943586 3.5000000000000004 12.200243187051697 479647.85784313729 82.500000000000014 14.186100188494931 118521.91176470589 2.5000000000000004 4.5000000000000009 1.5000000000000002 29466723.61718386 247.50000000000003 251.50000000000003 3.5000000000000004 62547.948863636375 3.5000000000000004 2991.0000000000005 11.519255387875164 8.0625903463347761 157326.59523809527 22.500000000000004 11.517619431041529 40754580.500000007 124669312224485.02 124703671138864.02 14.407812568576675 -0.9757181905126594 123337871697489.02 144510.36775956288 650057.50000000012 16.162488251351398 5033687.0000000009 237544.07142857145 13.821046206706653 6.5000000000000009 215859.25000000003 10.815378620015156 24763748.600000005 16.117479561085847 20.500000000000004 125966391591042.02 41.500000000000007 123879037976015.52 59949840.000000007 3647615.5000000005 18.208673769712572 13.461483532517756 409316.44666666671 23.500000000000004 402645.44736842107 8.5000000000000018 18309162.250000004 1.0000000180025095e-35 9815038.333333334 36227369.500000007 126533327195507.52 5.5000000000000009 -0.99136008646681162 8256888.0000000009 126370118765204.52 577496.92000000004 1.5000000000000002 12.500000000000002 5.5000000000000009 20.500000000000004 125760233751284.52 3086346.0000000005 126078060810075.02 12749065.000000002 24.500000000000004 14.500000000000002 125949212407290.52 13.122915223859751 12.959160682835451 39168918.000000007 19.500000000000004 123269152099964.52 10.604255619919664 10.587530918767044 12.708467832653385 12.76113091964598 56726779.000000007 11.520848989769162 -0.96250780456287532 125493945114532.02 21.500000000000004 14.407812568576675
decision_type=2 2 10 8 2 10 8 8 10 8 10 8 8 10 2 2 10 10 2 2 10 2 8 10 10 2 8 2 10 10 2 8 10 2 8 10 2 10 8 2 2 2 10 2 2 2 8 2 2 10 8 8 2 10 2 10 10 10 2 8 8 2 10 2 10 10 2 8 10 10 8 2 10 2 10 2 2 10 10 10 2 10 2 10 10 10 2 10 2 2 2 10 10 2 2 2 2 10 2 10 10 2 2 8 8 10 2 2 8 8 10 10 10 2 10 2 10 2 10
left_child=1 58 3 5 30 6 25 11 -8 10 -9 17 16 14 15 -14 -13 -6 37 26 71 22 23 -22 -24 -2 -4 -16 52 -30 43 32 -32 54 35 -35 -37 -19 -7 -40 -20 -27 82 45 -45 59 47 48 -47 -49 51 -48 -23 -52 -33 57 -57 -36 89 60 61 -3 -62 95 65 -65 -67 68 -43 74 -71 -11 -73 -74 -61 -56 77 -41 84 80 81 -80 114 -84 87 106 -87 100 -89 -1 -91 -12 93 -81 -10 108 101 -98 99 -99 -66 104 -103 -104 105 -97 -86 -85 109 110 -60 -111 -113 -94 -28 -82 -18 -110 -119
right_child=2 4 19 -5 7 38 8 9 94 20 91 12 13 -15 27 -17 116 18 40 -21 21 28 24 -25 -26 41 42 -29 29 -31 31 33 -34 34 55 36 -38 -39 39 76 -42 67 -44 44 -46 46 50 49 -50 -51 53 -53 -54 -55 75 56 -58 -59 63 69 62 -63 -64 64 78 66 -68 -69 -70 70 -72 72 73 -75 -76 -77 -78 -79 79 92 115 -83 83 107 85 86 -88 88 -90 90 -92 -93 113 -95 -96 96 97 98 -100 -101 -102 102 103 -105 -106 -107 -108 -109 117 111 -112 112 -114 -115 -116 -117 -118 118 -120
leaf_value=-0.013997945586957949 -0.013050847457627119 -0.013978947368421054 -0.013999999999999999 -0.013976027397260275 -0.013869994196169475 -0.014000000000000002 0.013142857142857144 -0.013600000000000001 -0.0097735849056603784 -0.0138983666061706 0.0095398230088495593 -0.013999999999999992 0.010483720930232558 0.010410256410256412 -0.0085105333080280898 -0.013404255319148937 0.01131914893617021 -0.0069465648854961839 -0.014000000000000002 -0.011760000000000001 -0.013222222222222222 -0.013558700546799616 -0.011465635980323262 0.013999999999999999 0.0060421052631578947 -0.014000000000000002 0.011529411764705884 -0.011226781857451405 0.014000000000000002 -0.010930232558139536 -0.013794117647058823 -0.013892936204467701 0.013999999999999999 -0.013348837209302328 -0.013948148148148149 0.0098445229681978809 -0.014000000000000002 -0.013937078651685393 -0.014000000000000002 -0.014000000000000007 0.014000000000000002 -0.014000000000000005 -0.014000000000000002 0.014000000000000002 -0.013616438356164386 0.012303030303030303 0.0042222222222222227 -0.012975720297831015 -0.0080413223140495867 -0.0064992987377279115 -0.013722190240763944 -0.013658536585365855 -0.0078121546961325977 -0.012620038684719536 -0.0079219512195121966 0.013192307692307694 -0.011491773308957953 -0.0023728813559322037 -0.013869158878504673 -0.013499674373168352 -0.013771907366461075 -0.0087016011644832619 -0.0056331360946745568 -0.013497757847533634 -0.013827575409664963 -0.014000000000000002 0.013999999999999999 0.013050847457627119 0.013999999999999999 -0.005719512195121952 -0.013751479289940829 -0.013852047556142669 0.014000000000000004 -0.013999999999999999 -0.013779701022816681 -0.013078947368421055 0.013567753001715267 0.014 -0.01347169811320755 -0.0088079470198675503 0.0053103448275862051 -0.0047894736842105275 -0.012249999999999983 0.010547945205479447 -0.011652694610778445 0.0058048780487804886 -0.012465753424657534 -0.0016610169491525413 -0.013800711743772244 -0.013982393954738442 -0.01388075553043547 0.014000000000000002 -0.013433891992551213 -0.013391304347826089 -0.014000000000000002 -0.013694984791681405 -0.013557312252964427 0.008206896551724142 -0.013670588235294117 -0.0022580645161290316 -0.013609729009329188 -0.013619047619047621 -0.012727272727272733 -0.0048571428571428559 -0.013918018517053099 -0.01209467455621302 -0.013920454545454547 0.014000000000000002 -0.01394957859820245 -0.013856655290102391 -0.002 -0.0063636363636363647 -0.013702127659574469 -0.013701979623954278 0.014000000000000002 0.010123076923076924 0.014 -0.013867486985328917 -0.0071228070175438606
leaf_weight=9125173.28125 4.6093749999999991 103.90625 3.28125 91.25 403.828125 2.3437499999999991 7.6562499999999991 16.40625 4.1406249999999991 1377.5 8.8281249999999982 5.6250000000000027 16.796875000000004 9.1406249999999982 411.640625 11.015624999999998 7.3437500000000009 61.40625 2.1093749999999991 5.8593749999999991 8.4375 1214.453125 1111.71875 8.75 7.4218749999999991 2.3437499999999991 7.9687499999999991 759.609375 8.1249999999999982 70.546875 10.625 388.203125 8.046875 43.671875 126.5625 22.109375000000004 3.5156249999999991 69.53125 2.1093749999999991 1.874999999999998 12.734374999999998 2.8124999999999982 1.6406249999999989 6.9531249999999991 28.515625 15.468749999999998 14.765624999999998 241.328125 37.8125 55.703125 2307.109375 25.625 28.28125 1009.765625 32.03125 8.1249999999999982 85.46875 9.2187499999999982 33.4375 5758.125 671.328125 161.015625 26.40625 52.265625 6736.640625 2.3437499999999991 5.625 27.65625 5.703125 25.625 79.21875 59.140625 5.6249999999999982 3.75 7745.15625 11.874999999999998 45.546875 7.1875 24.84375 11.796874999999998 2.265625 17.8125 2.5000000000000027 5.7031250000000027 13.046874999999998 3.2031249999999991 11.406249999999998 4.6093750000000027 21.953125 112319.375 17831.015625 6.9531249999999991 881.015625 46.71875 48.75 1104.453125 79.0625 2.2656249999999982 6.640625 2.421875 1406.875 34.453125 6.8749999999999973 3.8281250000000009 2961.796875 26.40625 55 15.156249999999998 34056.71875 961.40625 4.9218749999999991 7.7343749999999991 88.125 1886.40625 35.625 5.0781249999999991 14.0625 495.234375 13.359374999999998
leaf_count=38939786 21 444 14 390 1739 10 96 72 23 5920 101 24 197 107 2445 49 88 394 9 29 38 5345 5602 112 77 10 96 3883 104 367 46 1669 103 195 542 255 15 298 9 8 163 12 7 89 125 190 145 1105 230 365 10039 112 174 4733 196 102 430 72 144 25446 2911 947 180 231 29097 10 72 346 73 174 344 255 72 16 33566 54 577 92 110 69 23 126 12 67 65 33 54 37 95 479832 76727 89 3911 208 208 4815 348 25 29 19 6170 151 32 27 12711 128 236 194 145832 4144 39 51 384 8220 456 59 180 2133 85
internal_value=-0.0139939 -0.0139944 -0.000797927 -0.00377668 -0.0130734 0.00194239 -0.00302788 -0.011986 -0.0102787 -0.0127073 -0.00129126 -0.0103955 -0.00947707 -0.00985567 -0.0100102 0.00102247 0.00744509 -0.0124597 -0.00855305 0.00893467 -0.0128014 -0.0122208 -0.0111682 0.000636364 -0.0113495 0.00715217 0.0106217 -0.0102721 -0.0131259 -0.00835551 -0.0133997 -0.0118926 -0.0018159 -0.0121501 -0.0103013 -0.00598196 0.00657317 -0.0106587 0.0106667 0.011686 0.0100211 0.00956998 0.0117995 -0.0134614 -0.00820264 -0.0134716 -0.0130265 -0.0102971 -0.0021349 -0.0117612 -0.0133113 -0.00712186 -0.0134279 -0.0133867 -0.013428 -0.0116063 -0.00934891 -0.0131623 -0.0139968 -0.0135849 -0.0127229 -0.0107715 -0.0134639 -0.0138722 -0.0136813 -0.0109494 0.00576471 0.0110972 0.00475229 -0.0136459 -0.0117884 -0.0137882 -0.0115735 0.0028 -0.0136603 -0.00931673 0.0126781 0.0082069 -0.0136961 -0.0134805 -0.00713125 -0.00984615 0.0124317 0.0103478 -0.0137713 -0.0125974 -0.00845989 -0.0137831 -0.0116941 -0.0139975 -0.0139685 0.011505 -0.0135928 -0.0124673 -0.0136691 -0.0139257 -0.0138101 -0.0127174 -0.00685517 0.0028 -0.0137899 -0.013834 -0.0127405 -0.00991241 -0.0138461 -0.0136576 -0.0134856 0.0130562 -0.0139394 -0.0137384 -0.0123462 -0.013789 -0.01311 -0.0136166 0.0135484 0.0086383 0.0130803 -0.0139458 -0.0136903
internal_weight=9.33152e+06 9.33119e+06 331.719 253.984 24784.1 162.734 103.672 5720.78 60.5469 3935.94 32.1875 1784.84 1235.23 1208.2 1199.06 27.8125 27.0313 549.609 145.781 77.7344 3903.75 2457.73 1136.33 17.1875 1119.14 43.125 71.875 1171.25 1321.41 78.6719 19063.3 749.453 18.6719 730.781 298.672 69.2969 25.625 130.938 59.0625 56.7188 14.8437 38.5156 68.5938 18313.8 35.4688 18278.4 3707.58 350.312 53.2812 297.031 3357.27 40.3906 1242.73 3316.88 432.109 229.375 93.5938 135.781 9.3064e+06 14570.8 962.656 264.922 697.734 51078 11188.9 60.2344 7.96875 36.1719 8.51562 13608.1 104.844 1446.02 68.5156 9.375 13503.3 43.9062 54.6094 9.0625 11128.7 2875.94 50 42.6562 66.9531 23.3594 8252.73 82.6562 14.6094 8170.08 26.5625 9.25532e+06 130150 15.7812 2825.94 58.5156 52.8906 39889.1 4228.2 90.3906 11.3281 4.6875 8143.52 4137.81 45.1562 10.7031 4092.66 1130.86 68.0469 20.8594 35660.9 1095.62 38.3594 1057.27 95.8594 2767.42 43.5938 7.34375 21.4062 34565.3 508.594
internal_count=39831762 39829012 2750 1875 112744 1485 789 27920 327 18344 262 9576 6973 6681 6574 246 292 2603 864 875 18082 11819 5829 150 5679 462 846 6328 5990 471 84824 3679 149 3530 1611 465 270 692 696 686 172 441 832 81145 214 80931 16919 1890 420 1470 15029 257 5519 14772 1919 1146 532 614 39716268 64012 4482 1391 3091 219923 48826 313 82 431 85 59530 518 6263 343 88 59012 250 677 100 48513 12726 318 236 825 273 35787 388 87 35399 132 39496345 556559 190 12408 277 231 171097 18285 421 73 44 35267 17864 210 59 17654 4943 301 261 152812 4762 183 4579 435 12131 552 82 268 148050 2218
is_linear=0
shrinkage=0.035


Tree=1
num_leaves=120
num_cat=0
split_feature=37 26 37 36 32 24 38 34 4 35 4 11 28 38 38 28 28 30 28 38 20 38 35 23 11 28 20 28 4 34 26 4 18 20 11 28 34 11 24 34 11 24 32 30 35 30 35 11 36 4 24 26 36 36 4 28 38 11 32 32 26 11 26 28 32 4 20 24 37 11 34 34 28 11 38 30 36 37 26 28 38 26 38 24 38 30 38 30 34 20 18 38 30 38 36 36 20 38 38 11 34 30 34 11 4 24 28 4 34 36 26 20 37 4 38 37 11 32 11
split_gain=61.0411 23.1912 19.2205 17.212 10.7643 7.50576 8.38143 4.73185 5.72231 9.67509 4.48069 5.1509 4.12962 3.97631 2.99497 2.95765 2.95619 2.81712 2.66711 2.63975 2.88455 3.27068 2.28863 2.23805 2.14462 2.13853 2.26869 3.35727 2.02457 1.98844 1.91056 4.93753 1.57644 1.53125 1.45145 1.32079 1.3057 3.35346 1.29011 1.28378 1.26623 1.22596 2.5224 1.20784 1.02746 1.01824 0.983434 0.742364 1.72711 1.358 0.692618 0.609706 0.499313 0.338551 1.26723 0.644029 0.304827 0.238976 0.225143 1.15093 0.218546 0.397769 0.202666 0.200426 0.151133 0.129962 0.237907 0.128807 0.120264 0.0986352 0.404063 1.43065 0.31649 0.0937173 0.139117 0.773049 0.136309 0.327466 0.0902959 0.0822234 0.0828296 0.0801143 0.12714 0.0785637 0.0773839 0.0903213 0.17336 0.782352 2.96517 0.0720632 0.0647486 0.0589027 0.0587029 0.0582294 0.124513 0.0490768 0.0366574 0.047083 0.0359306 0.0342254 0.159444 0.0288039 0.0256515 0.117591 0.025435 0.0236774 0.0215991 0.0191056 0.0291935 0.0163738 0.0185862 0.0162909 0.0159803 0.0150455 0.0195551 0.0156909 0.0144938 0.0130117 0.0128473
threshold=1.0000000180025095e-35 151895.80000000002 -0.93254555817525764 1.0000000180025095e-35 85.500000000000014 6.5000000000000009 1.0000000180025095e-35 667493.77142857155 795633.50000000012 5.5000000000000009 1084106.5000000002 124110966441131.02 38.500000000000007 -0.98481454320798967 -0.92150578783187009 52.500000000000007 20.500000000000004 1.0000000180025095e-35 121.50000000000001 -0.92150578783187009 20.500000000000004 1.0000000180025095e-35 6.5000000000000009 1.0000000180025095e-35 126533327195507.52 38.500000000000007 9.5000000000000018 53.500000000000007 5564.0000000000009 409316.44666666671 1382603.8809523813 475576.50000000006 1.0000000180025095e-35 5.5000000000000009 126086651451768.52 53.500000000000007 375807.66666666674 123320692201925.52 1.5000000000000002 142320.52727272731 125588434437939.52 5.5000000000000009 19.500000000000004 38539.500000000007 3.5000000000000004 1005459.7916666669 6.5000000000000009 125588434437939.52 1.0000000180025095e-35 504125.00000000006 9.5000000000000018 6804842.0000000009 -0.9757181905126594 1.0000000180025095e-35 627896.50000000012 15.500000000000002 -0.92150578783187009 123183253286694.02 43.500000000000007 57.500000000000007 776736.25000000012 126438837982047.52 1706494.2500000002 13.500000000000002 13.500000000000002 1.0000000180025095e-35 8.5000000000000018 3.5000000000000004 -0.99964166380461938 123234793319039.52 121422.58333333334 109238.85942028987 1.0000000180025095e-35 123131713589407.02 1.0000000180025095e-35 501979.03571428574 -0.91859903288927802 -0.99578444932560795 7523062.5000000009 121.50000000000001 -0.96313681244487837 103185.50000000001 -1.0000000180025095e-35 3.5000000000000004 -0.99065631902143281 1564856.3611111112 -0.92150578783187009 57328158.750000007 14752577.826923078 16.500000000000004 1.0000000180025095e-35 -0.99922487545179417 863999.56666666677 -0.99350390707776759 -0.91859903288927802 -0.91859903288927802 11.500000000000002 -0.98481454320798967 -0.92150578783187009 123226202586824.02 241585.97702702705 6738543.916666667 1557132.2433035716 123664289571495.52 8755.0000000000018 3.5000000000000004 13.500000000000002 795633.50000000012 8614752.7222222239 -0.99884185769827094 1513350.0000000002 12.500000000000002 -0.97561039266566174 14120400.000000002 -0.96313681244487837 -0.9656467085244308 125304966784728.02 420.00000000000006 125287787409890.02
decision_type=2 10 2 2 2 2 2 8 10 2 8 10 2 2 2 2 2 10 2 2 2 2 2 2 10 2 2 2 8 8 8 10 8 2 8 2 8 8 2 10 8 2 2 8 2 8 2 8 2 10 2 10 2 2 10 2 2 8 2 2 8 8 10 2 2 10 2 2 2 8 8 10 2 10 2 10 2 2 10 2 2 8 2 2 2 10 2 10 10 2 8 2 10 2 2 2 2 2 2 10 8 10 10 10 10 2 2 10 10 2 10 2 2 10 2 2 10 2 8
left_child=2 10 52 5 34 19 7 8 14 12 41 15 -10 91 95 -12 44 -16 24 69 25 23 -11 28 43 36 57 -28 -22 45 31 -6 50 -26 -5 39 37 -21 -36 -34 -25 -2 -43 -9 111 -13 -20 48 49 -41 -15 -38 84 62 60 63 -47 -27 83 -60 61 -55 73 -56 -23 66 -40 -17 -64 70 71 -4 -73 74 76 -76 104 -78 93 80 116 82 -67 -49 109 106 105 89 -89 -88 -91 -3 -82 -71 -95 -7 -80 -98 -48 -72 -101 113 103 -103 -54 -87 -86 -107 -109 -1 -111 -8 -104 115 -115 -75 -70 -108 -119
right_child=1 13 3 4 30 6 16 18 9 22 11 29 -14 32 17 67 -18 -19 46 20 21 64 -24 40 33 26 27 -29 -30 -31 -32 -33 35 -35 38 -37 51 -39 65 47 -42 42 -44 -45 -46 56 98 58 -50 -51 -52 -53 53 54 55 -57 -58 -59 59 -61 -62 -63 68 -65 -66 81 -68 -69 79 78 99 72 -74 101 75 -77 77 -79 96 -81 92 -83 -84 -85 85 86 87 88 -90 90 -92 -93 -94 94 -96 -97 97 -99 -100 100 -102 102 112 -105 -106 107 117 108 -110 110 -112 -113 -114 114 -116 -117 -118 118 -120
leaf_value=-0.01382329014483198 -0.013788164393297914 -0.01351095132297913 -0.013386608910651941 -0.007869544522141796 -0.013832943656725858 -0.013611630207410534 0.010880625982448886 -0.0082299898324270458 -0.010182327839554488 0.011149501596053268 -0.013833515448318703 -0.013828119979614377 0.0097115803041013127 -0.013833483563707869 0.0011603279389731647 0.013867401867946298 -0.011090896922700591 -0.010176335069761592 -0.013827078337329372 -0.0065081242333680451 0.003738806703013279 0.013838849429024896 -0.013403847553421062 -0.012441151209419365 0.013967282977002702 -0.00041252896198272325 -0.00071760726606033326 -0.013510508457512711 -0.011240643095824556 -0.013827004993667456 -0.013783067329865294 0.013830099020020928 -0.013858904627085524 -0.012929457175693158 -0.013826080616236285 -0.010308468347951943 -0.013540721817668818 -0.012696811709999527 -0.0015757774919080002 -0.01383648698609182 0.014147883499653667 0.012893790580413029 -0.0134891263762807 -0.012689905786088914 -0.012701680958865261 -0.0017932130718769316 0.014143879729516256 0.0090511174635584685 -0.013828382991983468 0.011705686371231094 0.0075823827194295085 -0.012145378446543889 -0.013793945419538415 -0.013829790585837175 -0.00060046833318944527 -0.012914492788124735 0.013763305260035856 -0.013291842240479251 -0.013861886968480813 0.011593170829800915 -0.013619048092603002 0.0019659793433723007 -0.013773814509088603 0.013829143075839549 0.0038187700366727464 0.0034561803992762805 0.013846249161900439 0.002820105296517095 -0.013614358987607137 -0.013788337066534529 -0.013765183061579006 0.014103950418147224 -0.0010517964697955174 -0.013801379690166109 -0.013830548017709693 0.0029044522225414485 -0.013763965443139381 -0.013104006427211044 -0.013332962277925901 -0.0092958117968808662 -0.011880899120131563 0.013834885140330072 0.013824720667167183 0.013411115811504715 -0.013813460345422447 -0.013775969205947074 -0.013630016945945201 0.014176564565838148 -0.013825447840880502 -0.0083679813597648776 -0.012850454439472464 -0.0084782355960470283 -0.013316233421509989 -0.013690455390055872 -0.013213083940335464 -0.01269763929130191 -0.013338277985953353 -0.01173586840223197 0.0089621141592254733 -0.0052631485208772776 -0.013827129998680306 -0.0062251097658660151 -0.013735140498947125 -0.013827211780791937 -0.01369564266185999 -0.01372943194112808 -0.013772316191682205 -0.013506557527789153 -0.013740243804571266 -0.013820102157623288 -0.013803739993229744 0.014110939043379934 -0.013490299068531037 -0.013743538594123847 -0.012834541945877359 -0.013743713439687949 -0.013382899937309668 -0.011353879473134997 -0.013557517543935322
leaf_weight=7964849.8244051188 110.56395925581455 6.8206427693367004 24.803375869989395 5.0352895557880393 19.761443883180618 338.2125419229269 2.1028271540999475 76.105073764920235 177.06490229815245 44.54247472435236 36.501977071166039 1.859487578272822 13.776761353015898 4.8824333548545837 27.876480028033257 5.2006858810782424 9.555731348693369 730.40663052350283 2.3242407739162427 110.62840101867914 11.466586440801619 6.5891018658876401 5.192523054778575 3.1792062371969196 6.3961063623428327 1.7957216799259175 63.436912842094898 41.61445613950491 306.39763083308935 4.4160416275262824 46.570967569947243 13.172649294137953 2.5605202913284293 4.3605901598930359 2.3241270184516898 3.7302208915352812 3960.8400443270802 3521.3235708475113 2.0975727662444106 2.7903708964586249 7.0803054720163354 6.8208391144871738 12.713504217565058 3293.1486579626799 1.9389442577958096 1.6350156664848352 4.7193265780806541 5.3528406694531432 4.4163389205932608 29.585512429475784 2.9784878790378571 424.75189087539911 5536.4907479211688 4.8815492689609501 1.7817628830671299 2.4032949358224869 27.415852926671505 102.61886774003506 2.3281918913125983 33.264185480773449 60.678775526583195 3.2552146986126909 1996.7925073131919 3.4867141991853714 2.5605444461107254 2.4789033532142639 2.9467968568205833 1.7206429094076154 2397.7860608026385 3718.7752977311611 142.09428940713406 2.5122797638177863 5.1436529606580734 25182.089823782444 20.224338188767437 4.0601943582296363 2301.0257043465972 1535.708365753293 155.70420636236668 5.8248528838157645 35.497210137546062 44.564716957509518 3.485957756638526 93.414716430008411 104175.36015641689 9228.1631142124534 214.84126833081245 6.1444210931658771 18.82484458386898 6.0622595101594925 11.316731713712217 4.8921875059604627 2092.7985427901149 3519.6116790398955 826.50152967870235 91.418531686067581 40.457082740962505 50.500940710306168 2.5116778537631035 3.3482015132904079 13.015781998634337 3.1909075006842604 834.16210662573576 11.388854190707205 7720.5638247802854 6148.7525356039405 17525.41251373291 1389.59422621876 1238.5684817358851 974052.33583747596 93179.757932476699 21.125167638063431 536.62413284927607 76.94552468508482 46.518977552652359 7502.1926630958915 384.56663341075182 5.3533175438642475 8.2132188230752945
leaf_count=34276005 477 30 110 31 85 1477 25 456 956 535 157 8 159 21 249 67 49 3951 10 720 112 85 23 15 82 15 523 183 1561 19 201 170 11 20 10 20 17382 16351 17 12 90 86 56 15302 9 13 60 61 19 355 32 2043 23875 21 15 11 349 458 10 403 265 30 8624 45 25 24 38 16 10470 16043 614 32 42 108540 87 38 9945 6943 693 33 174 575 45 1182 448617 39844 937 78 81 36 52 29 9326 15287 3709 425 180 249 28 23 56 21 3612 49 33521 26634 75687 6112 5361 4192677 401537 269 2363 333 214 32465 1706 27 36
internal_value=-0.0138186 -0.000245528 -0.0138192 -0.0127874 -0.000660111 -0.0128662 -0.0116516 -0.0117751 -0.0100855 -0.00516306 -0.00837151 -0.00178225 -0.0087462 0.00836844 -0.0110824 -0.00985596 0.00548249 -0.00975957 -0.0124871 -0.0132116 -0.0127778 -0.00960542 0.00858604 -0.010181 -0.0125394 -0.0129079 -0.00941676 -0.00578531 -0.0107003 0.00814198 -0.00922043 -0.00276856 0.00961854 0.00306378 0.0101543 0.010298 -0.0129991 -0.0125083 0.0117218 0.0107405 0.0059085 -0.0123601 -0.00427696 -0.0125892 0.0117753 0.0112806 0.00597809 0.0111085 0.00670356 0.00950429 -0.00571905 -0.0134056 -0.0138217 -0.0137196 -0.0113926 0.00210004 0.0128878 -0.0130703 0.0123148 0.00992809 -0.0128968 -0.00751049 -0.0137226 0.00894915 0.0110347 0.0127902 0.00743339 0.011121 -0.0135448 -0.0136484 -0.0128619 -0.00930427 0.00392153 -0.0137466 -0.0136798 -0.0110326 -0.0136835 -0.0134998 -0.0136665 -0.0134517 -0.0134566 0.013325 0.00951572 0.0131748 -0.0138223 -0.0137965 -0.0137239 -0.0128217 -0.00693473 -0.0134547 -0.0112868 -0.0114089 -0.0132923 -0.0136867 -0.0135997 -0.0134171 -0.0130068 -0.0124486 0.012344 -0.0135906 -0.0120749 -0.0137801 -0.0136238 -0.0121634 -0.0137367 -0.0137368 -0.0138074 -0.0136957 -0.0136167 -0.0138227 -0.0138187 0.0138185 -0.0136393 -0.0137867 -0.013401 -0.0137881 -0.0135824 -0.0137715 -0.012688
internal_weight=9.25283e+06 405.865 9.25242e+06 22062 142.438 21919.5 4852.78 4818.06 1428.49 240.577 208.848 78.7497 190.842 197.017 1187.91 43.4233 34.7227 758.283 3389.57 17066.8 8564.28 337.273 49.735 328.124 3380.01 8227.01 209.466 105.051 317.864 35.3264 79.5051 32.9341 185.304 10.7567 62.9334 177.443 8017.54 3631.95 57.8981 173.713 10.2595 130.098 19.5343 3369.25 25.1669 30.9104 9.55525 171.152 36.7922 32.3759 7.86092 4385.59 9.23036e+06 58300.9 76.4873 7.67177 29.0509 104.415 134.36 35.5924 68.8155 8.13676 58224.5 5.26848 9.14965 55.5739 5.04437 6.92133 6913.27 8502.47 190.918 32.4593 7.65593 51311.2 17118.1 24.2845 17093.8 3836.73 8311.55 4916.47 4910.65 50.5296 5.96486 98.7676 9.17206e+06 139977 18262.3 257.19 24.9693 232.22 17.379 11.7128 2128.3 8064.89 4346.11 429.631 246.662 90.958 7.231 158.458 16.364 34193.1 1385.37 14.5798 13257.1 18005.1 121714 8776.92 2628.16 9.03208e+06 1.06723e+06 23.228 1370.79 32807.7 123.465 32684.3 2782.35 17539 13.5665
internal_count=39831762 3433 39828329 101882 1196 100686 24085 23733 7775 1673 1248 629 1115 2185 6102 240 352 4200 15958 76601 39563 1888 558 1778 15860 37675 1179 706 1673 389 456 255 2126 102 740 2073 36496 17071 709 2053 105 619 142 15758 303 370 98 2042 386 367 53 19425 39726447 252726 387 71 362 473 1656 413 316 51 252339 60 110 699 55 83 30333 37038 877 184 74 222006 74409 125 74284 16888 36161 21709 21676 644 69 1243 39473721 603502 79135 1184 159 1025 88 59 9500 35039 18996 1902 1122 429 88 693 79 147597 6045 70 57396 77951 524367 38107 11473 38870219 4594214 294 5975 141552 547 141005 12176 75750 63
is_linear=0
shrinkage=0.035


Tree=2
num_leaves=120
num_cat=1
split_feature=38 38 25 32 25 33 4 25 4 33 25 11 21 30 25 4 26 25 18 11 11 4 32 28 33 32 28 11 32 32 30 28 30 4 33 4 21 32 33 33 33 4 21 33 4 11 32 26 28 11 11 32 11 11 38 25 31 33 11 11 25 21 33 32 9 4 11 4 32 21 27 26 33 30 27 11 30 33 17 32 32 33 28 4 25 11 11 21 28 30 4 31 32 26 32 17 33 28 38 25 33 28 4 23 32 4 30 11 30 4 30 17 33 11 32 28 30 32 28
split_gain=28.4872 18.323 10.9183 7.19825 6.94368 5.69674 4.07192 4.80533 3.95608 4.11908 4.06964 4.4207 3.87543 6.90522 3.52731 3.22795 3.0969 2.94541 2.80751 3.01747 2.77157 2.11587 1.98233 1.71492 1.05661 1.05193 1.00937 2.96727 1.77691 5.49028 2.10125 0.925059 1.15044 1.75928 2.51242 0.943503 1.19671 2.82637 2.33332 1.34307 2.96034 1.20275 0.90898 0.891932 0.766743 2.29942 2.20117 0.760111 0.751865 1.2197 2.13049 0.805129 0.633973 2.50307 0.588895 0.602326 0.557862 0.513278 0.506692 3.11514 1.57306 0.495076 1.07001 2.58954 3.81982 1.48649 0.986146 2.19709 0.479446 2.55504 0.476852 0.43451 0.531516 0.389225 0.579822 0.789308 0.350116 5.75665 0.339438 3.2569 0.322078 0.287581 0.281431 2.11929 0.272177 1.04946 0.270599 0.250929 0.227632 0.200252 0.666491 2.43177 1.90269 0.429507 0.123829 0.103945 0.188557 0.193281 0.0993523 0.137805 0.0886248 0.0883064 0.094275 0.34815 0.745792 0.242089 0.800048 0.0713333 0.119168 0.0652355 0.0726791 0.0608863 0.0584838 0.0574605 0.0454223 0.0414075 0.0772261 0.283527 0.0337931
threshold=1.0000000180025095e-35 -0.92150578783187009 119809.00000000001 97.500000000000014 501553.00000000006 509100.00000000006 40086.000000000007 99960000.000000015 20166000.000000004 59949840.000000007 4961831.5000000009 126370118765204.52 1.5000000000000002 1315517.8333333337 5019125.0000000009 80897530.000000015 495175.00000000006 121494.00000000001 1.0000000180025095e-35 125124578386345.02 126198319904559.52 10453926.000000002 141.50000000000003 9.5000000000000018 169633143.00000003 28.500000000000004 29.500000000000004 126533327195507.52 58.500000000000007 57.500000000000007 42492643.92857144 34.500000000000007 48052.291666666679 8755.0000000000018 8459836.5000000019 3172.5000000000005 1.5000000000000002 40.500000000000007 6197347.0000000009 435726.50000000006 411055.00000000006 1006.5000000000001 4.5000000000000009 496141349.50000006 504125.00000000006 124016476779070.02 70.500000000000014 15069.500000000002 46.500000000000007 124901240178779.52 124969959728841.52 70.500000000000014 126112421265286.52 126146780120177.52 -0.97481351747570477 3028992.5000000005 3.5000000000000004 3856323.5000000005 123251972677412.52 123234793319039.52 99960000.000000015 2.5000000000000004 1395914.0000000002 26.500000000000004 0 5564.0000000000009 123131713589407.02 40305.000000000007 54.500000000000007 5.5000000000000009 2.5000000000000004 50966355.727272734 128955602.50000001 110431.17500000002 1.0000000180025095e-35 123879037976015.52 8601689.2500000019 102181392.00000001 1.0000000180025095e-35 87.500000000000014 29.500000000000004 677501.00000000012 118.00000000000001 297283.00000000006 251462.50000000003 125966391591042.02 123320692201925.52 1.5000000000000002 23.500000000000004 759175.66470588243 818502.00000000012 1.5000000000000002 72.500000000000014 1706494.2500000002 80.500000000000014 1.0000000180025095e-35 212130681.50000003 30.500000000000004 -0.99350390707776759 4961831.5000000009 120012.00000000001 9.5000000000000018 1808145.0000000002 1.0000000180025095e-35 66.500000000000014 2000300.0000000002 112679.58333333336 126224089894940.52 1116374.6190476192 5032654.5000000009 1649330.9642857146 1.0000000180025095e-35 59949840.000000007 126533327195507.52 47.500000000000007 34.500000000000007 80649.125000000015 247.50000000000003 16.500000000000004
decision_type=2 2 2 2 2 2 10 2 8 2 2 8 2 10 2 10 10 2 8 10 8 8 2 2 2 2 2 10 2 2 10 2 8 8 2 8 2 2 2 2 2 10 2 2 10 8 2 10 2 10 10 2 10 10 2 2 2 2 8 10 2 2 2 2 9 8 8 8 2 2 2 10 2 10 2 8 10 2 10 2 2 2 2 8 2 10 8 2 2 10 10 2 2 10 2 10 2 2 2 2 2 2 10 2 2 10 8 10 10 10 10 10 2 10 2 2 8 2 2
left_child=1 54 15 6 31 23 7 17 9 10 11 22 13 -12 -14 18 -13 -4 19 24 21 -8 -7 -6 -2 42 58 28 29 -28 -30 35 33 -33 -35 36 37 -3 41 40 56 -39 100 -9 52 46 -46 94 71 51 -51 -50 76 -54 98 101 -38 -22 59 -10 -61 62 63 65 -65 -37 67 -64 107 -70 -68 114 -73 84 75 -75 -34 -78 87 -80 -76 -19 89 -84 86 -86 -63 -60 -83 90 -57 92 -92 -93 -36 109 -97 -98 -1 118 -21 -56 115 105 -105 106 -104 108 -59 113 -111 -101 -71 -91 -11 -103 117 -117 -100
right_child=2 4 3 -5 5 8 20 43 26 48 12 16 14 -15 -16 -17 -18 81 -20 25 57 -23 -24 -25 -26 -27 27 -29 30 -31 -32 32 44 34 47 61 39 38 -40 -41 -42 -43 -44 -45 45 -47 -48 -49 49 50 -52 -53 53 -55 55 82 -58 68 78 60 -62 73 66 64 -66 -67 70 -69 69 112 -72 72 -74 74 80 -77 77 -79 79 -81 -82 88 83 -85 85 -87 -88 -89 -90 95 91 93 -94 -95 -96 96 97 -99 99 111 -102 102 103 104 -106 -107 -108 -109 -110 110 -112 -113 -114 -115 -116 116 -118 -119 -120
leaf_value=-0.01365182963579162 -0.01366587006633278 -0.01347259072830141 0.013667592314632904 -0.013473273231239532 -0.013657321295365855 -0.01343939467916189 -0.013672072762892179 0.013255378422606687 -0.013487211059627038 -0.012979211574871499 0.0093052783276036874 -0.007977591652027315 0.0046270824026873863 -0.0089496668899664965 -0.0095502914336753723 0.013736313858009306 -0.012108296084393323 -0.0003208009528634522 -0.013663521939869739 0.0077825951883057241 -0.0044781864313554092 0.011071937039028309 -0.001788255542276296 0.013915295024378556 0.0058744518428536733 -0.013663488168255224 -0.010786537131875334 0.011132114796164225 -0.013521404843831979 0.0093570836239914648 -0.0063842167933939294 -0.013662158136319595 -0.013446860404699381 -0.012287184280099036 0.014249690149895815 -0.0039206038836199627 -0.013550354729028588 0.012314236692793658 -0.01367340558885298 -0.013636093470641004 0.011463018938755705 -0.013662213637733371 -0.013663901109559611 -0.013745728586746265 0.01337669364469091 -0.013441007795595166 -0.0070042380552053007 -0.013711988207181247 -0.0071245283693179319 0.010989630041323117 -0.013219685434868747 -0.013040957773045583 0.0069747245586402537 -0.013382707185432831 -0.013605039605334348 -0.013359053464766246 -0.007104253359685531 0.007278566959237405 -0.012364414234053702 -0.013090046810038475 0.013990016129136281 -0.012379299368242312 0.011228803533333234 0.0046449949860842303 -0.010373945916691191 -0.013167727724000555 -0.013281746617242669 -0.013685973441194918 -0.013709791454353418 0.013714254670271479 -0.0097247923129515478 -0.0072126688145218295 -0.013539359375428116 -0.0100742763991698 -0.012696592935421119 -0.012729845852951669 0.0085208859676243736 -0.013523995893935509 -0.013481420222794509 0.013231109854286785 -0.013553492567192032 -0.013543418809590741 0.013973023703064651 -0.013665909093250496 -0.013373899123520215 -0.0051467559549662695 -0.013537168016118376 -0.013363825448538794 -0.0077145919119358053 -0.013335259038557444 -0.013658577573363419 -0.013325828283282068 0.011393848518453167 -0.0034433345568093336 0.0072084552610981846 -0.012635511958790228 -0.00088385080380737194 -0.012928733607390424 -0.013640924577438675 -0.013534311485619581 0.013857416897215008 -0.01353656324043219 0.002662464735432152 -0.012937538377141676 0.0049206240849620567 -0.013430519653373862 -0.012798797112155579 0.013684421401645656 0.012618895690226254 -0.011206758535384508 -0.013061503982585796 -0.01277889516783136 0.010096598779991988 -0.011089050915721547 -0.013541983464995487 -0.013135800532348222 -0.013429876386891111 -0.0085095892999538132 -0.013595559027837757
leaf_weight=8894585.3366832137 26.054000377655033 34.591709546744823 6.533258229494094 36.191474504768848 3.4570160210132608 739.74412222206593 11.531823873519899 19.96894392371178 59.213534377515316 247.10127256810665 41.127082765102386 578.53924386948347 22.201396495103836 66.309906780719757 678.03883894532919 6.5551091507077208 361.12166120857 2.6942251473665229 147.31391279399395 3.937426805496222 2.7712435871362677 6.6888502836227408 18.3318190574646 13.7699940726161 3.896933138370513 2.7664737254381171 189.45409098267555 6.9790989682078353 507.97113128006458 18.164228677749634 56.113016530871391 24.855622053146362 478.63352779299021 12.639888755977154 8.4572176784276945 21.801302790641785 36.828152924776077 15.717751830816274 8.3035053759813291 220.20442976057529 8.3279619216918928 2.535768747329711 1.8443544209003437 1.6202660053968418 8.1048028543591482 68.807549878954887 32.610469810664654 1.6176190078258521 36.809577487409115 8.2911415100097674 9.6192224174737913 120.13290058076382 9.7884907349944097 30.306897863745689 30495.659858256578 220.90166804939508 29.716986134648323 6.8639026805758503 368.74440405517817 3.7709663733839962 8.6676510944962502 257.68135279417038 6.5245900005102184 22.160819597542286 324.55860763788223 917.70716375112534 3294.7856385186315 12.924737840890883 5.776179343461993 14.174964115023613 46.826490104198456 32.162012450397015 32.913483075797558 156.03049506247044 747.18766787648201 1130.6586582511663 15.848191261291502 171.95034119486809 48.72802260518074 6.3159956037998191 1913.0719334706664 33.146420672535896 3.9791869819164303 23.287176042795181 102.16201232373714 23.331079795956612 6110.322076484561 1860.5465641021729 10.908465072512625 3956.9387040287256 5.7620581984519985 66.030856333673 10.446458719670771 5.8659071326255789 4.7938594445586196 25.632329918444157 3.8204332292079917 2.849057637155056 168921.5503282547 15677.792105562985 11.635194331407545 10917.353102639318 4.9970128908753422 9.2276358082890493 4.1544526368379584 309.79743415862322 22.833665356040001 33.154355376958847 20.132209785282612 26.576497010886669 988.63028406351805 131.80099084973335 8.9182510003447533 14.00036560744047 607.90175833553076 153.12979276478291 1503.981872677803 18.152340181171894 22833.573589280248
leaf_count=38605704 113 152 85 159 15 3259 50 253 260 1122 474 3498 224 383 3781 85 1738 23 639 42 20 80 148 177 40 12 985 84 2225 208 369 108 2107 60 107 161 161 194 36 957 102 11 8 7 101 303 208 7 231 98 43 544 103 134 132788 978 187 75 1747 17 111 1217 77 222 1728 4117 14667 56 25 184 258 201 144 842 3457 5216 174 753 214 78 8361 145 51 101 452 162 26735 8237 67 17548 25 293 127 44 52 119 31 13 733729 68595 150 47760 46 42 41 1365 105 431 251 135 4464 606 106 72 2659 688 6627 108 99488
internal_value=-0.0136477 -0.0136481 -0.00458729 0.000801118 -0.0126629 -0.011719 0.00359537 -0.00270084 -0.0117704 -0.0109789 -0.0101963 -0.0111692 -0.00815114 -0.00196164 -0.00910079 -0.0104266 -0.00956507 -0.00834499 -0.0112288 -0.00407469 0.00788044 -0.00458849 -0.0131576 0.00838218 -0.0111235 0.00638525 -0.0126795 -0.011587 -0.0117925 -0.0090242 -0.0128114 -0.0130536 -0.0119421 -0.00691315 -0.000815031 -0.0131161 -0.0113357 -0.00687944 0.00170843 -0.0122592 -0.00820973 0.0087056 0.00956975 0.011229 -0.0122648 -0.00953992 -0.0029472 0.00893745 -0.0127697 -0.0106658 -0.00201261 -0.0116533 -0.0126872 -0.00841285 -0.0136506 -0.0135294 -0.0106717 0.0103555 -0.0130406 -0.0101424 0.00578026 -0.0131581 -0.0128576 -0.0119991 -0.009414 -0.0129531 -0.0131862 -0.00532791 0.0108173 0.0071097 -0.0132319 -0.0131695 -0.0104125 -0.0132919 -0.0130178 -0.0124078 -0.0129444 -0.0116636 -0.0131315 -0.0104163 -0.0133128 -0.0114213 -0.0131791 -0.00963235 -0.0134585 -0.0118443 -0.0134903 -0.0131985 -0.0121001 -0.0131973 -0.0123325 -0.00975867 0.00248782 -0.0125195 0.0117024 -0.0132505 -0.0112715 -0.00602916 -0.0136513 -0.0136273 0.0123214 -0.0135725 -0.0134959 -0.0129302 -0.00739349 -0.0131496 -0.0100227 0.0125968 0.0112611 -0.0132633 -0.0130129 -0.013528 0.0123172 -0.0133273 -0.0133793 -0.0135117 -0.0133497 -0.0126455 -0.0136355
internal_weight=9.17443e+06 9.17401e+06 425.078 221.075 23064.6 6752.24 184.883 74.8716 6735.01 3600.35 2505.41 1697.74 807.677 107.437 700.24 204.003 939.661 53.2824 197.448 50.1344 110.012 18.2207 758.076 17.227 29.9509 20.1834 3134.67 778.682 771.702 207.618 564.084 16312.4 868.414 52.3642 27.5086 15444 356.226 61.1487 26.557 295.078 74.8731 18.2535 17.417 21.5892 816.05 109.523 40.7153 14.8687 1094.93 174.853 17.9104 156.942 706.527 40.0954 9.15094e+06 48794 66.5451 91.7911 2355.99 71.6522 12.4386 15087.7 4647.29 1286.23 346.719 939.508 3361.06 19.4493 89.0199 28.8694 3341.61 920.079 65.0755 10440.4 3946.95 1286.69 666.432 187.799 2284.33 55.044 2660.26 46.7491 5354.72 27.2664 6493.5 125.493 6368 2229.29 44.0549 5327.45 309.007 88.1053 16.2085 71.8968 13.2511 5018.45 32.3018 6.66949 9.10215e+06 207565 15.5726 43439.3 12943.6 351.01 13.3821 337.628 27.8307 60.1505 26.9961 4986.15 1015.21 15809.6 23.0932 3970.94 855.003 12592.6 1675.26 171.282 191755
internal_count=39831762 39828712 3050 1961 107019 33274 1802 580 33082 18547 13505 8643 4862 857 4005 1089 5236 320 1004 365 1222 130 3407 192 153 212 14535 3871 3787 1193 2594 73745 4217 334 226 69528 1800 393 241 1407 450 205 200 260 3883 612 309 166 5042 916 141 775 3271 237 39721693 213571 348 1092 10664 388 128 67728 21286 6228 1950 4278 15058 133 1072 315 14925 4126 345 46442 17876 6058 3034 927 10276 292 11818 235 24001 152 28566 614 27952 9984 212 23849 1467 489 152 337 159 22382 163 44 39508122 902418 192 189570 56782 1599 83 1516 151 757 326 22219 4599 69201 290 17620 3781 55183 7423 796 833217
cat_boundaries=0 1
cat_threshold=1
is_linear=0
shrinkage=0.035


Tree=3
num_leaves=120
num_cat=1
split_feature=37 26 37 36 32 38 38 25 4 21 38 25 34 4 26 20 34 21 21 11 20 4 4 18 11 20 34 11 34 4 4 4 20 34 32 26 4 20 25 34 31 20 21 9 32 29 36 25 29 35 34 11 36 36 4 21 32 36 32 25 26 11 11 21 35 37 4 11 34 34 31 11 36 37 25 38 11 38 38 25 38 36 4 4 4 38 20 38 4 34 17 17 26 21 38 20 11 34 29 4 37 38 38 4 11 34 32 4 34 4 32 29 38 37 38 38 29 20 4
split_gain=58.4291 22.0187 18.9495 16.4005 10.2285 7.03631 5.66591 5.02478 4.29944 6.0465 3.74949 3.61043 5.8303 5.64636 3.90012 2.96065 2.58863 2.4252 1.73302 2.48374 1.5259 1.82774 1.49986 1.47757 1.38929 1.35642 1.68322 1.59269 1.17621 1.08675 2.43858 1.03696 0.998185 0.914246 0.83055 0.801452 3.3066 0.79519 0.681143 1.04937 3.42464 1.25907 0.677488 0.617821 0.510013 1.40465 0.493694 0.469671 1.11634 0.380984 1.34068 0.363753 1.55142 0.328839 1.21082 0.680541 0.29021 0.233163 1.79923 0.228556 0.214944 0.3857 0.20686 0.143111 0.140657 0.133268 0.106099 0.103656 0.374476 1.37065 0.330617 0.0933539 0.142936 0.322573 0.161546 0.0898078 0.0891414 0.0795784 0.0762768 0.121575 0.0741172 0.153157 0.170979 0.075063 0.0682625 0.05973 0.103412 0.0592782 0.0507163 0.0883326 0.0488166 0.042861 0.0421181 0.03787 0.0362566 0.0351289 0.0343197 0.147288 0.0328696 0.0294846 0.0278129 0.0457786 0.027557 0.373314 0.0269657 0.0265477 0.0873428 0.0262623 0.0250313 0.0235835 0.023013 0.0229113 0.334394 0.02285 0.023539 0.0221854 0.0209923 0.0191584 0.0185376
threshold=1.0000000180025095e-35 151895.80000000002 -0.93254555817525764 1.0000000180025095e-35 85.500000000000014 -0.92150578783187009 1.0000000180025095e-35 12904677.500000002 1084106.5000000002 3.5000000000000004 -0.98481454320798967 501553.00000000006 667493.77142857155 20214.500000000004 800600.00000000012 20.500000000000004 409316.44666666671 6.5000000000000009 4.5000000000000009 123251972677412.52 20.500000000000004 5564.0000000000009 5044.5000000000009 1.0000000180025095e-35 126086651451768.52 3.5000000000000004 48838.089473684217 123320692201925.52 142320.52727272731 3172.5000000000005 2976.5000000000005 1808145.0000000002 22.500000000000004 5149500.2105263164 116.50000000000001 1382603.8809523813 2517875.0000000005 5.5000000000000009 3028992.5000000005 292558.0178571429 1.5000000000000002 10.500000000000002 6.5000000000000009 0 10.500000000000002 2054887.0000000002 -0.9757181905126594 150032.50000000003 31072.500000000004 1.5000000000000002 504184.9444444445 125588434437939.52 1.0000000180025095e-35 1.0000000180025095e-35 627896.50000000012 5.5000000000000009 43.500000000000007 -0.91859903288927802 167.50000000000003 4961831.5000000009 776736.25000000012 126438837982047.52 125846132607697.52 4.5000000000000009 3.5000000000000004 -0.9995943580862986 1639683.0000000002 123234793319039.52 121422.58333333334 109238.85942028987 1.0000000180025095e-35 126533327195507.52 -0.91859903288927802 -0.99578444932560795 19266.000000000004 -0.96313681244487837 126060881275796.52 -0.96313681244487837 -0.99350390707776759 7534629.0000000009 -0.99702048484535155 -0.91859903288927802 238782.00000000003 1808145.0000000002 20214.500000000004 -0.92150578783187009 17.500000000000004 -0.99922487545179417 400380.00000000006 409316.44666666671 1.0000000180025095e-35 1.0000000180025095e-35 7523062.5000000009 6.5000000000000009 -0.98481454320798967 12.500000000000002 123226202586824.02 241585.97702702705 17827169.000000004 1159142.5000000002 -0.99847876744569197 -0.92150578783187009 1.0000000180025095e-35 2976.5000000000005 126464608005285.52 431291.62500000006 86.500000000000014 3424310.0000000005 7809705.84404762 20166000.000000004 420.00000000000006 46435728.000000007 -0.92150578783187009 -0.9656467085244308 -0.92150578783187009 -0.98738360650818124 12454675.000000002 3.5000000000000004 14120400.000000002
decision_type=2 10 2 2 2 2 2 2 8 2 2 2 10 10 10 2 8 2 2 8 2 8 10 8 8 2 8 8 10 10 10 10 2 10 2 8 10 2 2 10 2 2 2 9 2 2 2 2 2 2 8 8 2 2 10 2 2 2 2 2 8 8 10 2 2 2 10 8 8 10 2 8 2 2 2 2 8 2 2 2 2 2 8 10 10 2 2 2 10 10 10 10 10 2 2 2 10 8 2 10 2 2 2 10 10 10 2 8 10 10 2 2 2 2 2 2 2 2 10
left_child=2 8 46 5 24 38 11 15 29 16 87 20 13 -13 -15 49 44 35 32 -20 25 22 -22 42 -5 26 -7 -27 -25 30 -2 -23 -14 -9 37 36 -6 -30 67 40 41 -40 -12 -36 -10 -46 78 48 -26 50 -8 52 -39 59 60 -56 -53 92 64 71 61 -55 -51 -17 -59 -61 -35 68 69 -4 -71 98 100 -74 -75 -60 -18 105 -1 102 -69 83 -83 -82 -49 90 95 -3 91 -90 108 -79 104 -94 -43 -87 -70 -98 118 -47 -73 -102 110 -104 -41 106 -67 -92 115 -109 111 -80 -113 -100 -115 -81 -97 -107 -48
right_child=1 10 3 4 17 6 7 33 9 -11 23 12 18 14 -16 63 76 -19 19 -21 21 31 -24 28 47 27 -28 -29 34 -31 -32 -33 -34 66 43 -37 -38 51 39 57 -42 94 -44 -45 45 99 53 84 -50 62 -52 56 -54 54 55 -57 -58 58 75 65 -62 -63 -64 -65 -66 77 -68 80 96 70 -72 72 73 74 -76 -77 -78 88 79 85 81 82 -84 -85 -86 86 -88 -89 89 -91 107 -93 93 -95 -96 116 97 -99 113 -101 101 -103 103 -105 -106 117 -108 109 -110 -111 -112 112 -114 114 -116 -117 -118 -119 -120
leaf_value=-0.013485221314580258 -0.013497237874093604 -0.01316623960553987 -0.013064033706043383 -0.0076767853582614416 -0.013543594810104899 -0.0061135118214661723 0.0083121392410385343 -0.0076164146628412716 0.013499257897762998 -0.013500823823715272 -0.013529503138101766 -0.013461379793324168 -0.012754091857475662 -0.0087100095150355519 -0.0027068387545072137 0.013500557014498288 -0.0065157645171638658 0.013808924562923233 0.0040822323319558568 -0.01103676631038447 -0.013704942717546407 -0.010793966591774538 0.012984398967684352 -0.013554962216414229 0.011991410466060649 -0.0098262378664179077 -0.011664793183558834 -0.012785755363928532 -0.013533787877056924 -0.0134142530185078 0.012621320416056283 0.0048021577153097217 -0.0062647694278745534 0.013141081920719687 0.011300876635315571 -0.013449313599452182 0.013535541841985795 0.010607568141453997 -0.012762662893798842 -0.013168673194482689 -0.013308111415061396 0.0089386455603249638 0.0077128793390373145 -0.010715482521290428 -0.013503678865278283 0.013767650919342546 -0.013453909312766753 0.0085552590103155999 -0.012888035457423477 -0.01293892253397152 -0.011843109655040394 0.013038202288763599 -0.013514814297126455 -0.013492511543039242 -0.0073918691777810092 0.013648951954980726 0.0092715771829254643 -0.01285851289484225 0.0029458718154922671 -0.013432635003124763 -0.013280739547297088 0.0021228233072734999 -0.0049137493968998795 0.0036948127452223873 -0.011601978024769975 -0.013037740309573182 0.0050643409396457914 -0.013457557624862598 -0.013439668884143774 0.014097773345667818 -0.0012876771477364089 -0.013464823986899254 -0.013419940756852532 -0.01303624329507809 -0.012290578717545958 0.011661463281906389 -0.013520582347207221 -0.013083625198034712 -0.013472959699452187 -0.013380367540198706 -0.013386087643313633 -0.011865981175069847 -0.013072346726563931 -0.012747470704687222 0.013520536641489327 -0.013208358257155019 -0.0078626898029015846 -0.0080875608545895473 -0.0086896526097421795 -0.012732319525643231 -0.011121010494042679 -0.010876074220101964 -0.012755863037673468 -0.010429909796638681 0.013744267659305899 -0.0096083389069653372 -0.0054435448934893787 -0.013491298447851003 -0.013380227425298201 0.0098843541245037334 -0.013372364431668308 -0.012870800253631 0.0018878205361901506 -0.01342508867564924 -0.010673409477052814 -0.012614226855236724 -0.0090375688951057562 -0.012956782636205054 -0.013425432881386538 -0.010573394572425279 -0.012184440463589383 -0.013424897157465036 -0.010435897636324324 -0.013203040528844658 -0.012489882812589073 -0.013250985600057903 -0.012185094251288383 -0.013242591733247534 -0.013022203290890339
leaf_weight=8802461.6098551452 12.572117105126383 6.7092208787798882 25.77519403398037 4.9877668172121039 19.476075813174251 78.337478369474411 5.4579697549343136 3.2282530739903477 24.090181484818459 31.321789547801018 4.8082180023193359 247.93200186640024 1691.2014236152172 603.79892674833536 169.86940665543079 6.4776463955640775 3.9884139299392674 5.3409873694181433 13.481635034084318 1048.9511607810855 3.9273517429828626 252.6280609369278 7.5148954764008522 2.5218196511268607 7.9601241424679738 230.73191853612661 458.67634946852922 6442.5183956176043 1.603031501173972 108.66453540325165 6.7194551303982726 5.3325492218136779 29.544035762548447 19.799962267279628 2.6283520236611366 45.798870161175728 7.7109771072864524 30.305168882012367 3.0511574894189826 636.56409762054682 35.442987866699696 2.4867938160896292 2.9785455241799355 3.8462521210312834 3.658559411764144 5.1751527786254865 31581.595633938909 3.6847961992025366 3.0580287203192711 45.140239454805851 15.592530056834219 97.617554396390915 3.6605833172798148 4.7991019040346119 4.1384054273366919 3.4553021714091301 33.711371801793575 233.4218070730567 2.8589272946119308 1924.7374279797077 59.672225765883923 3.2498444467782983 4.3103348165750495 2.5374723002314568 204.95050204545259 43.695109479129314 2.2153207510709754 3565.1171137019992 130.94778613746166 2.5115536600351325 5.3674890324473381 4727.3015498444438 2235.4844507426023 960.07454969733953 565.58537467569113 2.9352491647005072 5.0348213762044915 1142.5108460634947 196333.65421928465 3955.865759961307 3620.484634205699 175.39743814617395 801.94818098843098 240.43929984420538 42.657403886318207 74.899350188672543 5.4723623916506758 4.8508528620004636 6.6779048144817343 776.46624153852463 12.242575414478777 10.876563861966131 465.95900256186724 8.7356710210442525 8.4858443811535818 4.5245370119810131 3.561066277325156 12.796813294291495 1641.3354536667466 4.4586727693676949 8146.2613171562552 229.18981482833624 2.0814911797642699 30.935815051198006 5.3499411493539801 60.895301349461079 7.8947307392954817 99.080813907086849 6052.6324640288949 5.3609247133135787 17.031180441379547 5031.8635870218277 46.272025004029274 523.77752885967493 63.578074142336845 2753.6179302707314 26.896923929452896 2485.2608334869146 122.31852202117443
leaf_count=38533609 55 30 116 31 85 516 60 20 310 137 21 1088 7773 3503 1305 85 26 69 133 5357 17 1310 95 11 100 1261 2255 29545 7 478 86 52 192 252 32 201 101 357 14 2846 157 28 32 20 16 67 138547 42 14 205 76 1242 16 21 26 45 388 1065 27 8457 265 30 30 25 1012 197 23 15636 575 32 43 20723 9830 4330 2675 36 22 5136 860174 17438 15954 851 3608 1105 553 334 33 29 39 3571 62 56 2139 46 110 25 24 56 7236 51 35929 1045 19 136 28 282 45 449 26602 28 81 22116 245 2336 297 12242 128 11056 552
internal_value=-0.013481 -0.000119919 -0.0134816 -0.0124491 -0.000537319 -0.0125268 -0.0119289 -0.00382677 -0.00811124 -0.00161866 0.00829882 -0.0120041 -0.0111263 -0.00886492 -0.00739193 -0.0081457 0.00640125 -0.00895751 -0.0119564 -0.0108449 -0.0124506 -0.0098644 0.00382375 0.00951562 0.0100408 -0.0125472 -0.010855 -0.0126834 0.0101761 -0.0120552 -0.00439987 -0.0104716 -0.0126427 0.00977772 0.0105213 -0.0106235 -0.00586323 0.0109984 -0.0131947 -0.0125342 -0.00751534 0.00712499 -0.005404 -0.00177799 0.0104625 0.00495899 -0.0134841 0.0115815 0.00508625 -0.0105607 -0.00661726 0.0112363 0.00800783 -0.0133817 -0.0110705 0.00218216 0.0120713 -0.0126932 -0.0120149 -0.0133847 -0.0125566 -0.00718766 -0.0122394 0.0107405 -0.0122711 -0.0131886 0.0123283 -0.0133186 -0.0124898 -0.0091588 0.00361665 -0.0134097 -0.0133424 -0.0131522 -0.0127598 0.00736107 -0.0104243 -0.013085 -0.0134847 -0.0134641 -0.0133365 -0.0132472 -0.0128558 -0.0133463 0.0131257 -0.0133603 -0.0125548 -0.0110351 -0.0129152 -0.0126978 -0.0133673 -0.0130628 -0.012963 -0.0127131 0.0126551 -0.0127963 -0.0132509 -0.0117393 -0.0134431 0.0119704 -0.0133969 -0.0133586 -0.0134708 -0.0124597 -0.0131479 -0.0132116 -0.0124256 -0.0126547 -0.0133738 -0.0128344 -0.013471 -0.0134711 -0.0133977 -0.0133132 -0.0131258 -0.0133273 -0.0118141 -0.0132276 -0.0134522
internal_weight=9.09637e+06 400.925 9.09597e+06 21724.5 140.675 21583.8 11389.2 104.76 205.684 77.7276 195.241 11284.4 3804.78 1021.6 773.668 79.5162 46.4058 78.3269 2783.18 1062.43 7479.67 269.403 11.4422 183.681 62.3481 7210.26 537.014 6673.25 175.894 127.956 19.2916 257.961 1720.75 25.2435 173.372 72.9859 27.1871 166.898 10194.6 1610.24 49.4668 14.0238 7.78676 6.4746 37.3826 13.2924 9.07424e+06 57.3604 11.0182 70.5011 21.0505 165.295 33.9658 57330.8 75.3149 7.59371 131.329 1560.78 444.166 57255.5 67.7212 8.04895 49.4506 9.01512 438.372 6459.01 22.0153 8584.35 180.96 33.6542 7.87904 50796.5 16863.9 3761.14 1525.66 5.79418 9.02324 4534.28 9.01691e+06 214452 8403.39 4838.27 977.346 3860.92 46.3422 12990.6 111.793 11.5601 1936.53 783.144 12878.8 1153.39 1116.61 474.695 10.9726 106.321 147.306 16.3579 33932.6 9.63383 13102.8 8375.45 201462 33.0173 641.914 2597.75 51.5898 116.684 12762.1 104.442 201429 201412 5078.14 2228.69 587.356 6709.48 31.4215 2546.16 31703.9
internal_count=39831762 3433 39828329 101882 1196 100686 55178 776 1248 629 2185 54402 19351 5896 4808 481 492 456 13455 5490 35051 1474 112 2126 740 33577 2771 30806 2073 619 141 1362 7965 295 2062 387 186 2010 45508 7508 309 152 53 52 444 134 39726447 709 114 371 136 2003 373 252726 387 71 1630 7199 2140 252339 316 51 235 110 2077 28839 275 38000 846 191 75 223500 74532 16835 7005 63 48 20382 39473721 940112 37154 21518 4459 17059 595 57341 520 59 8802 3610 56821 5192 5059 2185 138 487 655 80 148968 118 57697 36974 882771 155 2874 11580 242 539 56282 477 882616 882535 22361 9869 2633 29680 153 11338 139099
cat_boundaries=0 1
cat_threshold=1
is_linear=0
shrinkage=0.035


Tree=4
num_leaves=120
num_cat=0
split_feature=36 38 38 25 26 34 4 4 25 33 4 34 33 34 25 21 4 32 11 32 28 28 18 25 33 11 32 18 11 34 26 21 27 33 28 28 33 34 4 32 4 36 35 34 36 34 21 36 11 35 4 34 21 17 34 25 28 4 34 31 4 11 11 34 26 4 28 28 36 28 21 27 17 25 34 4 11 32 34 36 23 4 38 35 36 25 34 21 38 28 38 36 38 38 28 21 38 4 28 32 4 28 28 33 32 11 35 35 38 4 4 36 28 4 26 26 4 38 25
split_gain=42.0854 17.5272 8.087 7.52079 6.99225 10.7473 5.11016 5.58861 4.85112 5.04556 3.59085 3.46326 3.21774 3.1569 5.09221 8.16172 3.76865 2.53508 2.26604 1.96019 1.76549 1.60602 1.5161 1.35485 2.19063 1.41304 1.19577 1.13982 1.43555 1.21787 1.0795 1.0546 1.02906 1.02238 1.01625 0.951461 1.09732 3.2695 3.03966 1.12847 0.925917 1.2111 0.848204 0.842501 0.833678 0.764939 1.59404 1.18114 2.10982 0.744384 2.68653 0.568147 0.986836 2.28008 0.574505 0.476024 1.42446 1.79244 0.742823 1.6532 1.5877 0.416645 0.356134 0.305342 0.291114 0.979298 0.268648 1.27083 1.04039 0.264363 0.221245 0.530577 0.162208 0.258182 0.156993 0.851409 0.146188 0.279523 2.06384 0.143754 0.211829 0.346188 0.156146 0.131843 0.128322 0.17065 0.195039 0.538147 0.0914766 0.0890898 0.0837581 0.122293 0.0819768 0.0803545 0.301913 0.8373 0.0753901 0.0701102 0.0521447 0.0497666 0.0485041 0.0438789 0.0379125 0.035092 0.0345132 0.0319166 0.295339 0.402227 0.0297726 0.0373885 0.139593 0.0289357 0.0272029 0.0268534 0.0435767 0.0265184 0.0236929 0.0211247 0.0315697
threshold=1.0000000180025095e-35 -0.92150578783187009 1.0000000180025095e-35 119809.00000000001 2684804.8750000005 779989.2045454547 100469.50000000001 49897.500000000007 501553.00000000006 509100.00000000006 20166000.000000004 36024.148888888893 102181392.00000001 746633.7531866777 7013725.0000000009 1.5000000000000002 17113900.000000004 12.500000000000002 123337871697489.02 74.500000000000014 16.500000000000004 9.5000000000000018 1.0000000180025095e-35 10741971.500000002 59949840.000000007 126370118765204.52 61.500000000000007 1.0000000180025095e-35 125124578386345.02 358241.81170598918 118521.91176470589 2.5000000000000004 1.0000000180025095e-35 169633143.00000003 2.5000000000000004 34.500000000000007 102181392.00000001 11681285.895604396 1983950.5000000002 68.500000000000014 100940.50000000001 -0.91859903288927802 4.5000000000000009 29466723.61718386 -0.96250780456287532 375807.66666666674 2.5000000000000004 -0.91859903288927802 123269152099964.52 1.5000000000000002 330534.00000000006 1359950.4055555558 4.5000000000000009 1.0000000180025095e-35 1408508.8815789477 3028992.5000000005 121.50000000000001 297283.00000000006 292558.0178571429 1.5000000000000002 818502.00000000012 123269152099964.52 125141757817236.02 11362.004545454547 215859.25000000003 49779.500000000007 28.500000000000004 29.500000000000004 -0.96250780456287532 23.500000000000004 4.5000000000000009 1.0000000180025095e-35 1.0000000180025095e-35 10741971.500000002 227560.79326923078 80897530.000000015 123320692201925.52 221.50000000000003 43151.366666666676 -0.91859903288927802 1.0000000180025095e-35 397420.00000000006 -0.99558365736595278 3.5000000000000004 -0.99136008646681162 4961831.5000000009 237544.07142857145 5.5000000000000009 -0.98738360650818124 20.500000000000004 -0.99959443844961815 -0.91859903288927802 -0.92150578783187009 1.0000000180025095e-35 9.5000000000000018 1.5000000000000002 -0.98128873772527869 3938839.0000000005 15.500000000000002 12.500000000000002 892780.50000000012 13.500000000000002 34.500000000000007 1163254.0000000002 238.50000000000003 123595569967658.52 4.5000000000000009 5.5000000000000009 -0.98128873772527869 3938839.0000000005 4128201.5000000005 -0.91859903288927802 114.50000000000001 5032654.5000000009 9815038.333333334 24763748.600000005 15573.500000000002 -0.99515525502269231 4090054.0000000005
decision_type=2 2 2 2 10 8 10 8 2 2 8 10 2 10 2 2 10 2 8 2 2 2 8 2 2 10 2 8 10 8 8 2 2 2 2 2 2 10 10 2 8 2 2 10 2 8 2 2 10 2 10 10 2 10 10 2 2 8 10 2 10 8 10 10 8 10 2 2 2 2 2 2 10 2 10 10 10 2 10 2 2 8 2 2 2 2 10 2 2 2 2 2 2 2 2 2 2 10 2 2 10 2 2 2 2 10 2 2 2 10 10 2 2 10 10 10 10 2 2
left_child=1 44 8 27 5 6 7 20 35 21 13 -9 17 14 16 -16 -11 34 -19 22 32 -10 -6 25 -25 -15 89 28 33 83 -8 -32 -2 -4 -5 45 37 38 42 -40 41 -20 -37 92 84 46 47 61 -49 50 -48 -12 54 -54 -53 76 58 -58 59 60 -57 -3 103 -51 65 -34 70 68 -68 -42 97 -72 90 -74 75 -33 77 79 -79 -46 82 -82 -81 -30 117 101 87 -87 -62 98 -60 -92 -24 115 -95 -96 -88 -47 -14 -13 -29 -86 -78 -36 116 106 -104 -108 -103 112 -111 -39 -110 -98 -115 -94 -80 -1 -119
right_child=4 2 3 12 19 -7 30 11 9 10 51 99 26 23 15 -17 -18 18 40 -21 -22 -23 43 24 -26 -27 -28 100 29 -31 31 74 64 -35 62 36 -38 111 39 -41 69 -43 -44 -45 55 66 49 48 -50 63 -52 52 53 -55 -56 56 57 -59 72 -61 88 -63 -64 -65 -66 -67 67 -69 -70 -71 71 -73 73 -75 -76 -77 102 78 104 80 81 -83 -84 -85 85 86 96 -89 -90 -91 91 -93 93 94 95 -97 113 -99 -100 -101 -102 108 105 -105 -106 -107 107 -109 109 110 -112 -113 -114 114 -116 -117 -118 118 -120
leaf_value=-0.01332267558337522 -0.013331537900712344 -0.0096046179563616524 -0.01334408723703622 -0.013386673577834369 -0.013383817321827468 -0.013314883475052145 -0.013386059735426222 0.012522359510003064 -0.013332067185219393 -0.010542424918207767 -0.013285695546934735 -0.0093072375558355472 0.010260127538839274 -0.012933892115033034 0.010042880428994115 -0.008198939270376928 0.012946640594968395 0.013658611509335356 -0.012902100038777292 -0.011085966947364469 -0.012923686262274766 0.013779305108511386 0.0053722177246658068 -0.0088903223292649287 -0.012085126274375583 -0.0034402331133169223 -0.011171042400949937 -0.01334222179188113 0.0054904266945436783 -0.013395034965938701 -0.013414065263444196 -0.013410193537798168 -0.012567940454014378 0.005928375531434384 0.0083953796440505036 -0.012250799730357172 -0.01321446015729136 0.014313314986685021 0.014156320644527612 -0.012500928034308219 -0.012979759423601534 0.013699022625111981 -0.0090576284142055829 -0.013648956506292645 -0.013193838052478108 -0.013292667851104063 -0.012592947682360245 -0.0095985278918297237 -0.012273447798839534 -0.011007986857637604 -0.0053161530484013217 -0.0079299933819854673 -0.011244697250268974 0.0073456912325228366 -0.012768325672835217 -0.01334190451143397 0.013905382262674381 -0.013360952430354244 -0.013305448840081169 -0.012921084840680762 0.0028627073453673848 -0.013052917274249218 -0.00243411417745265 -0.013075638597272364 0.012776942442293682 0.013496397248104842 0.002820626984956184 -0.013215388397659903 -0.0095697175680693296 -0.0061997859113103555 -0.012192522468178214 -0.013242686872142429 -0.0015819822135722523 -0.011976252289016505 0.013027642712101044 0.013461970112788721 -0.013272977960370318 0.013647559559852146 -0.012638232799317469 -0.013262632086726555 0.00019558670908473343 -0.011367010948092312 -0.012754385755621232 0.013809955801982472 -0.013310290115725704 -0.012910713261725047 -0.013224379642242918 0.0029924369152663026 0.011888810252364495 0.0056195507299729762 -0.012953247730613349 -0.012495694532379522 0.013610831254740925 0.013012608375551652 0.013347583911393174 -0.011904014390264339 -0.013085453468455422 -0.012532045685332746 0.013636167749020144 -0.013359094528649723 -0.0096202774030492034 -0.013280854629095645 -0.013221928123002108 0.013075870391360033 -0.012947817591924055 -0.013090569972148544 0.001360886330644351 -0.012923758333249392 -0.013204413469847505 -0.0081284127123042605 -0.012900966521969972 0.0095040731289008085 -0.010625661091017856 -0.012419205085277912 -0.013014373826191378 0.010882124749519174 -0.008690221013046763 -0.013314923729098272 -0.013260410792638346
leaf_weight=8624297.3191801161 2.265973061323165 45.379185557365417 25.168860286474231 2.4997954517602947 3.1808998584747314 88.267647445201874 2.2721949666738501 7.4346311390399924 3.3990523368120167 1209.1551391929388 888.63477152585983 4.0304297357797614 7.8661736473441186 923.87229429930449 39.522713430225849 125.30073457211256 8.4257043525576574 5.8388847708702079 3.9528877139091492 5.7178756892681113 4.8535337522625914 12.593190759420395 2.2328361272811881 408.69610846787691 737.08665260672569 19.613075345754623 2.9756411015987387 103.38564714789391 4.3526750653982127 3.8649544417858133 2.0482517331838599 1.8201497346162776 2.5876511037349683 3.8935299441218367 2.3090855255723026 369.64434890449047 324.68165385723114 1.9816371276974676 7.9485904201865178 2.5757142007350922 32.703262165188789 4.4646700769662839 140.68987423181534 1.6121325790882099 6929.7787643522024 4270.3621300384402 521.1130443289876 592.37209307402372 925.6293283328414 89.09258833527565 70.567147091031075 30.646733023226261 554.77279724180698 8.2012818381190282 1579.5926992222667 5.6680592596530905 5.5180501341819737 6.3546583205461511 521.82044126838446 32.000264927744865 1.6857503876090039 793.11471974104643 2.2856425940990439 4869.4877104088664 26.698117598891258 5.5603776276111603 9.7992898151278478 243.08637387305498 54.318573899567127 8.9793496429920179 932.73926834017038 1600.7985437735915 3.9591096341609946 11.232849180698393 44.338101245462894 6.9953110665082932 14992.94022462517 3.9924087151885024 3.2530454248189917 1165.5771153196692 3.5597974285483351 29.120326951146126 2030.4004901871085 5.0299524292349815 112918.0723541081 10.809847906231878 9613.0681090429425 3.434816598892211 7.472378008067607 2.3903929442167273 2689.2876177579165 975.01062098890543 32.111037738621235 18.896349050104622 4.6114201620221129 2.4702461361885071 2760.3462706357241 153.79608457535505 19.491698428988457 47.200746238231659 4.474834516644477 17013.073844507337 60.298604629933834 13.065277025103567 40.460393272340298 667.51253079622984 4.2928043231368047 5.519462838768959 5860.7745962515473 8.0860282555222494 104.94168943911791 6.7626695707440359 5.0153761506080619 208.38060922920704 544.41468369215727 5.048812858760356 4.3548291027545929 177915.90814916044 14040.958326667547
leaf_count=38078849 10 250 111 11 14 390 10 96 15 6335 3934 23 96 4186 468 745 102 76 18 29 22 163 23 2339 3523 146 15 456 44 17 9 8 12 40 26 1752 1444 25 101 12 148 58 802 7 30854 18895 2413 3265 4381 454 477 186 2794 87 7236 25 71 28 2307 145 16 3565 18 21852 345 73 90 1081 299 59 4423 7106 31 54 577 92 66416 52 15 5167 30 145 9299 65 498971 49 42716 33 94 25 12160 4541 419 248 61 12 12376 716 254 208 25 75322 268 169 183 2992 37 25 26077 48 476 76 26 974 2452 62 25 785948 62246
internal_value=-0.0133183 -0.0133188 -0.0123503 -0.00620084 -0.000670208 -0.00353141 0.00193054 -0.00282479 -0.0124209 -0.0116183 -0.0116664 -0.00980081 0.000805453 -0.0108958 -0.00959832 -0.00382477 -0.0103799 -0.00314118 -0.00697614 0.00861957 0.00692732 0.00801695 0.0102254 -0.0117543 -0.0109456 -0.0127365 0.00998328 -0.011278 -0.00640943 0.00313946 0.0102567 0.0112298 0.00952344 -0.0107621 0.00749998 -0.0127489 -0.0116124 -0.0106302 -0.0109865 0.00763224 -0.009381 0.00120713 -0.0113705 0.0113466 -0.0133213 -0.0128129 -0.0125747 -0.011812 -0.0112296 -0.0128985 -0.0117251 -0.0125401 -0.0122352 -0.0109739 -0.0126762 -0.0131377 -0.0127948 -0.000688444 -0.0128286 -0.00844474 0.00121682 -0.0128663 0.0104565 -0.0130385 0.0110097 0.00521888 -0.0130721 -0.0120593 -0.00767607 -0.0115192 -0.0131169 -0.0128561 -0.0128775 -0.00926745 0.0121795 0.00791361 -0.013194 -0.0130909 -0.0105328 -0.013104 -0.0129111 -0.0101075 -0.0129397 0.00995046 -0.0133219 -0.0132897 -0.0131692 -0.00907599 0.0102274 0.0120993 -0.0128906 -0.0128315 0.011963 0.0121961 0.0107028 0.00453925 -0.0131737 -0.0132662 0.0126655 -0.0130403 -0.0131878 -0.0133013 -0.0132609 0.0123729 -0.0125411 -0.013016 -0.0123056 -0.00667432 -0.0132572 -0.0131901 -0.0125595 0.0105939 -0.0132022 -0.0130349 -0.0128496 0.0132401 -0.0103783 -0.0133224 -0.0133109
internal_weight=9.01866e+06 9.01834e+06 22834.4 258.993 322.255 246.373 158.105 100.631 22575.5 6549.51 6533.52 58.6658 108.823 3471.67 1382.4 164.823 1217.58 76.0989 55.9391 75.8816 41.9657 15.9922 70.1637 2089.27 1145.78 943.485 32.7239 150.17 42.31 13.2476 57.474 55.2018 37.1121 29.0624 20.1598 16025.9 854.284 529.603 520.859 10.5243 50.1002 8.41756 510.334 66.9828 8.99551e+06 15171.7 7906.76 2356.5 1518 5550.26 591.68 3061.85 2173.21 562.974 1610.24 30201.1 4260.01 11.8727 4248.14 46.8265 14.8262 838.494 17.66 4958.58 34.8461 8.14803 7264.9 307.204 64.1179 41.6826 6957.7 2533.54 4201.31 15.192 53.1536 8.81546 25941.1 10210.5 52.0607 10158.4 3228.66 32.6801 3195.98 9.38263 8.9653e+06 149050 13140.5 14.2447 9.15813 29.7483 4186.12 3664.3 65.3707 63.1379 25.978 7.08167 13126.2 4424.16 27.3579 51.2312 107.86 135910 15730.6 15.3744 48.0683 737.623 70.1109 9.81227 22991.9 5978.82 113.028 8.74431 5865.79 3513.14 752.795 37.1599 7.60787 8.81625e+06 191957
internal_count=39831762 39829012 107469 1731 2750 1875 1485 789 105738 32259 32081 327 973 17844 7650 1213 6437 583 359 875 462 178 846 10194 5862 4332 390 758 277 126 696 686 440 151 224 73479 4212 2768 2667 113 283 76 2554 832 39721543 69267 36657 11461 7646 25196 2890 14237 10303 2881 7422 134980 19472 99 19373 280 135 3815 213 22306 430 85 32610 1470 389 207 31140 11529 19093 85 677 100 115508 45770 275 45495 14641 175 14466 109 39586563 659520 58600 82 110 375 19008 16701 825 802 321 73 58518 19611 350 231 481 600920 69738 195 223 3322 330 62 101949 26627 524 101 26103 15802 3426 481 40 38927043 848194
is_linear=0
shrinkage=0.035


Tree=5
num_leaves=120
num_cat=0
split_feature=37 26 37 38 38 4 21 25 4 26 26 38 33 33 32 4 25 16 31 18 35 20 20 4 4 4 4 32 33 27 21 4 33 20 21 25 21 32 21 38 25 30 4 4 31 4 32 32 29 33 21 18 32 18 38 25 30 33 32 31 32 32 4 32 32 32 33 4 26 37 25 26 35 30 30 38 4 30 25 30 30 21 17 38 25 37 38 31 20 32 33 4 17 32 29 32 4 32 38 32 32 4 20 17 30 18 4 20 20 29 33 20 4 4 38 4 32 4 4
split_gain=56.6681 19.2611 18.6439 9.4593 6.98472 4.47305 6.55007 4.39943 4.91057 4.19416 6.27767 3.82938 3.73799 2.42085 3.22626 2.49503 2.29318 1.75242 2.04685 1.74204 1.69484 1.51236 1.41818 1.37857 1.79136 1.0359 2.14324 1.01664 2.83186 0.983606 0.955709 1.23834 0.812698 0.692622 0.875882 0.767646 0.686978 1.51137 0.679795 0.673663 0.653749 0.60799 1.58016 2.13415 1.21835 0.584181 0.571915 0.548543 0.6669 0.51742 0.485723 0.459865 0.908072 0.452159 0.442047 0.343052 0.228267 1.27558 3.32577 0.220917 1.48925 0.798121 0.211992 0.21072 0.414196 0.195057 0.879215 0.179338 0.164669 0.142677 0.135575 0.135099 0.129264 0.240454 0.106193 0.104129 0.0904385 0.0903597 0.62767 0.802413 0.154924 0.260292 0.0832443 0.073001 0.0942147 0.0718546 0.0992983 0.0997435 0.201399 0.0688985 0.0912251 0.336731 0.0674861 0.0984401 0.0579824 0.0554294 0.0533341 0.0488959 0.0475824 0.0431144 0.0428221 0.0374474 0.129399 0.0365144 0.0360052 0.0332032 0.0551454 0.0298239 0.0296473 0.0288364 0.0267302 0.0220335 0.0216914 0.0225869 0.0279152 0.0205925 0.0270898 0.0203393 0.0202642
threshold=1.0000000180025095e-35 151895.80000000002 -0.93254555817525764 1.0000000180025095e-35 -0.92150578783187009 1084106.5000000002 3.5000000000000004 501553.00000000006 4989750.0000000009 10031849.500000002 1462235.5000000002 -0.98481454320798967 509100.00000000006 34318498.500000007 68.500000000000014 4857884.0000000009 119809.00000000001 inf 3.5000000000000004 1.0000000180025095e-35 1.5000000000000002 20.500000000000004 3.5000000000000004 5564.0000000000009 5044.5000000000009 3172.5000000000005 2976.5000000000005 15.500000000000002 435726.50000000006 1.5000000000000002 4.5000000000000009 1808145.0000000002 1157935632.5000002 22.500000000000004 2.5000000000000004 3599502.5000000005 5.5000000000000009 12.500000000000002 4.5000000000000009 -0.99760374370268534 3028992.5000000005 759175.66470588243 818502.00000000012 1008904.5000000001 1.5000000000000002 1511961.5000000002 110.50000000000001 221.50000000000003 1202755.0000000002 6635576.0000000009 2.5000000000000004 1.0000000180025095e-35 27.500000000000004 1.0000000180025095e-35 -0.97481351747570477 4961831.5000000009 57328158.750000007 190720972.00000003 80.500000000000014 4.5000000000000009 167.50000000000003 180.50000000000003 50372.500000000007 24.500000000000004 36.500000000000007 15.500000000000002 8459836.5000000019 14120400.000000002 120418.62500000001 -0.99967985320042629 9033750.0000000019 20159000.000000004 3.5000000000000004 1029858.5000000001 5458480.8000000007 -0.99702048484535155 49779.500000000007 759175.66470588243 5019125.0000000009 627954.31538461556 708267.55000000016 2.5000000000000004 1.0000000180025095e-35 -0.99350390707776759 7013725.0000000009 -0.97561039266566174 -0.92150578783187009 3.5000000000000004 4.5000000000000009 25.500000000000004 19316320.500000004 3938839.0000000005 1.0000000180025095e-35 86.500000000000014 199025.00000000003 420.00000000000006 5032654.5000000009 92.500000000000014 -0.92150578783187009 47.500000000000007 23.500000000000004 5564.0000000000009 1.5000000000000002 1.0000000180025095e-35 8601689.2500000019 1.0000000180025095e-35 348407.50000000006 14.500000000000002 9.5000000000000018 20394233.500000004 31494460.000000004 19.500000000000004 20166000.000000004 3424310.0000000005 -0.98932964006845348 268497.50000000006 49.500000000000007 818502.00000000012 14120400.000000002
decision_type=2 10 2 2 2 8 2 2 8 10 8 2 2 2 2 10 2 8 2 8 2 2 2 8 10 10 10 2 2 2 2 10 2 2 2 2 2 2 2 2 2 10 10 10 2 10 2 2 2 2 2 8 2 10 2 2 10 2 2 2 2 2 10 2 2 2 2 8 10 2 2 10 2 10 8 2 10 10 2 10 10 2 10 2 2 2 2 2 2 2 2 10 10 2 2 2 10 2 2 2 2 8 2 10 10 8 8 2 2 2 2 2 10 8 2 10 2 10 10
left_child=2 5 54 4 40 25 20 21 12 10 16 105 -9 14 -14 -15 -5 18 -13 49 -7 22 27 24 -23 26 -2 -6 -29 39 68 -32 46 34 67 -36 37 62 45 -22 75 42 115 44 -44 51 63 50 -49 -19 -24 52 -12 -48 83 56 85 58 -58 72 -61 -62 -18 108 -65 -41 -67 -10 -25 -57 -53 -35 82 -74 -47 -4 -38 78 79 -71 -80 -82 -43 -1 95 118 97 94 -89 101 91 -91 96 -94 -88 -85 98 -87 -79 -98 -11 102 -77 111 -92 -3 -107 -45 -21 -103 -99 -86 113 114 -105 -42 -117 -78 -56
right_child=1 11 3 9 7 6 -8 8 33 100 38 17 13 15 -16 -17 36 19 -20 32 29 23 47 30 -26 -27 -28 28 -30 -31 31 -33 -34 71 35 -37 76 -39 -40 65 41 59 43 107 -46 74 53 48 -50 -51 -52 70 -54 -55 55 69 57 -59 -60 60 61 -63 -64 64 -66 66 -68 -69 -70 77 -72 -73 73 -75 -76 89 117 92 80 -81 81 -83 -84 84 103 86 87 88 -90 90 104 -93 93 -95 -96 -97 99 110 -100 -101 -102 109 -104 112 -106 106 -108 -109 -110 -111 -112 -113 -114 -115 -116 116 -118 -119 -120
leaf_value=-0.013163774125030886 -0.012989563091146501 -0.013238737549567997 -0.013126743141949908 -0.013180742040725993 -0.013200813841873915 -0.013271575864084098 -0.013184029694236054 0.012479838232891421 -0.010166552482454164 0.013436953199623996 0.0056518519670565358 -0.013419329322310615 -0.0094797401182543685 -0.011815771573386738 -0.0051179058087977188 0.003843569035533879 0.013226730168758104 0.0047072241255488572 0.013630787348115906 0.011646944501583685 -0.010855544412463797 -0.013388283692267192 -0.011924000536291099 -0.013018615216212641 0.013789429615786599 -0.013092640096567137 0.012276059636496103 -0.0021025631959049719 -0.010735055175778229 -0.013242623442421225 -0.0087718478521983997 0.011232508711290071 -0.011336319352420091 -0.01329173570579137 -0.013119742251060298 -0.010900754666778582 0.0049930467273742339 -0.013344559758097277 -0.013196480160038456 0.013282544845249334 -0.013124947683592866 -0.012742978958295861 0.013559047636691591 -0.013004354807075244 -0.009401470988991292 0.010875399622258164 -0.0094978765296312665 -0.013203719696101394 0.011682522792721337 -0.013246087653528254 -0.012555078879120553 -0.013244111370333374 -0.013247057317369125 0.011052882872757396 -0.013129343407349635 -0.013103355223697077 -0.012631871729313069 -0.013019025249593504 0.013498261404289075 -0.012704456729446851 0.013626356038479715 -0.011305846798157274 -0.00032174012231195239 0.003619678148210338 0.011243190716266954 -0.013199309063456822 0.011739163348162791 -0.012931329501770915 -0.007082146525008934 -0.01257644904876278 -0.0077100534181603559 -0.0056385152112669668 -0.0082723300597994636 -0.012177731220665653 -0.00023453072040508562 -0.0062583968095867486 0.0111892265950295 -0.012871835696836061 -0.012758082966930038 0.011441613004423357 -0.0003033966463496473 -0.012436211677840743 -0.0084956912162571421 -0.013148961042705154 -0.013065369713955402 -0.013084462401771111 -0.013036894450269662 -0.0080286031843733972 -0.01236010092256733 -0.012651060255853306 -0.013068039612106211 -0.0080059424724143527 -0.011905974975246805 -0.0062917541847486401 -0.012626901864816293 -0.011239076290790719 -0.012282743836864615 -0.012616601294385778 -0.012520277743104723 -0.012800010427995613 0.0085939961620880318 -0.013089263707484448 -0.01263248539258429 -0.012772939128582329 -0.012618032142295951 -0.012635915221602343 -0.0067418535682527278 -0.0096738036813607212 0.013465804090634744 -0.011880600733886398 -0.013000990265527675 -0.012798341633203932 -0.010510094594012729 -0.012714573372344469 -0.0091213187605624583 -0.0094944635622942562 -0.012877211108734155 0.013316663456219334 -0.012817771888675052
leaf_weight=8664164.8431370333 11.546500518918039 4.7346916496753693 3576.6837801113725 7.1921121925115576 124.17984837293625 4.5164895355701438 32.819677606225014 9.6318297386169416 29.946981728076935 14.506471768021585 6.6422300934791565 8.644917964935301 974.66222442686558 494.35148809850216 263.99429792910814 12.786596439778803 7.3598388656973821 3.3625462800264359 5.6771103441715232 14.144606627523897 1.7328008711338032 5.2274866402149183 2299.994152829051 94.922048181295395 6.8824166506528854 104.82718051224947 6.3884696513414374 53.770313620567322 346.75354214757681 2.2550236135721198 144.48949693888426 3.892903506755828 1.999429702758788 3.1655026823282268 233.91207275539637 1040.5313031449914 2.1798750609159496 4.987514615058898 55.784571349620819 25.227651074528694 43.674676321446896 871.55285776406527 10.0856980830431 9.9971161037683469 3.9357811808586112 2.0113116651773444 2.897649645805358 2.7004283815622321 2.578781321644783 4.7364632934331894 4263.5115872621536 16.686800464987758 5.8640380352735519 2.3959378823637962 32617.899187646806 1363.6913731843233 20.855287954211235 187.33801168948412 8.3581859394907969 37.305776506662369 4.5238582566380492 2.4111252650618553 1.7513939291238783 9.7685631364583951 82.144403785467148 2.0248310863971701 11.965453438460825 713.1580330953002 6.0911794006824485 3.6801475137472144 8.0336245968937856 26.308205239474773 19.989950135350227 569.79114472121 2.2141281366348267 4.2104554399847975 9.2561647891998309 2337.0085075870156 103.07095012813807 3.1731757447123528 3.3865521773695928 6.0103559792041779 5.689751371741294 187822.17291972041 12619.329051338136 13572.695391364396 1005.0790129825473 14.967541277408598 108.27208983153105 1595.4517981261015 1131.0341127812862 19.349088400602341 25.560319572687153 4.4993166849017134 729.06228165328503 18.616812832653522 509.18894059211016 426.44027965515852 590.85139099508524 322.35656424611807 2.6442596688866606 1788.8838082030416 53.168569304049015 5.257427304983139 269.74723138660192 3.6823581457138044 4.1203766167163849 4.9117939323186866 49.036400258541107 24.511869587004185 461.38866750150919 390.23966384679079 6.7277857884764662 101.52105264365673 5.0067536756396276 4.9237365648150426 7.0558414459228516 13.583888694643973 257.73144072294235
leaf_count=38586231 52 21 15967 32 552 20 146 121 160 191 68 38 5409 2399 1823 119 98 33 74 178 9 23 11080 427 89 469 83 414 1787 10 830 45 10 14 1045 5327 23 22 248 329 195 3986 132 45 22 24 16 12 31 21 19738 74 26 29 145591 6098 96 842 104 171 59 12 15 94 1010 9 147 3225 38 17 49 174 118 2698 19 27 117 10601 471 40 28 28 33 837261 56552 60751 4513 89 507 7341 5068 115 123 29 3360 93 2395 1965 2742 1469 31 8005 245 24 1243 17 26 27 639 118 2076 1778 35 465 28 27 32 180 1173
internal_value=-0.0131596 3.09527e-06 -0.0131602 -0.0121278 -0.0121919 -0.00755768 -0.00114827 -0.0115889 -0.0106223 -0.00366815 -0.00562261 0.00779216 -0.00926409 -0.00938406 -0.0085501 -0.0114209 0.00498318 0.00906204 -0.00269693 0.0100499 0.00712899 -0.0120886 -0.012185 -0.0094747 0.00205762 -0.0117628 -0.0039899 -0.010434 -0.00957614 0.00926155 -0.0100347 -0.00824702 0.01084 -0.0117871 -0.0118649 -0.011308 0.00832269 0.00214394 -0.0106738 0.0105008 -0.0128607 -0.0122109 -0.00932329 -0.00268823 0.00711411 -0.00727893 0.0111165 -0.0123249 -0.00104732 -0.00579223 -0.0123339 -0.00867877 -0.00320962 -0.000196369 -0.0131627 -0.0130635 -0.0130921 -0.0119583 -0.00515585 -0.0123726 -0.00993576 0.00495803 0.0106224 0.0115026 0.010433 0.0114444 0.00812979 -0.0128199 -0.0126606 -0.0127951 -0.0114457 -0.00646048 -0.012446 -0.0120454 0.0050538 -0.0129832 0.0118044 -0.0126876 -0.0117392 -0.00145578 -0.0123659 -0.00806367 -0.0127154 -0.0131633 -0.0131424 -0.0130971 -0.0130371 -0.0127962 -0.011834 -0.0128782 -0.0127747 -0.0125954 -0.0127174 -0.0110656 -0.0128645 -0.0131488 -0.0127306 -0.013068 -0.0128009 -0.0124833 0.0126903 -0.0130451 -0.0121648 -0.0130518 -0.0129814 -0.0109265 -0.00952345 -0.0119071 0.0130586 -0.0130729 -0.0128164 -0.0130574 -0.0124402 -0.0125564 -0.0109917 -0.0127724 -0.0114869 0.0124545 -0.0131269
internal_weight=8.94159e+06 400.65 8.94119e+06 21377 21216.3 203.304 80.5419 11157.4 3802.45 160.698 143.547 197.345 1755.43 1745.79 1238.66 507.138 46.3108 184.808 14.322 170.486 47.7222 7354.99 7093.49 261.506 12.1099 122.762 17.935 524.704 400.524 43.2058 249.396 148.382 162.387 2047.02 2017.55 1274.44 39.1187 14.0987 97.2367 40.9507 10058.9 1595.85 84.5846 28.9304 14.0215 41.4521 160.388 6568.78 5.27921 8.09901 6563.51 37.2267 12.5063 5.29359 8.91982e+06 54682.6 49410.1 216.551 29.2135 1511.26 44.2408 6.93498 9.11123 155.094 91.913 39.2179 13.9903 743.105 101.013 5272.48 24.7204 29.4737 1467.02 589.781 4.22544 8463.04 25.0199 3908.79 119.321 6.85332 112.468 9.39691 877.243 8.86513e+06 200969 49193.5 16317.9 1857.38 123.24 4886.36 3015.58 1614.8 3789.47 30.0596 1734.14 187841 3759.41 14460.5 2927.86 831.546 17.1507 1870.77 57.379 13128.1 1400.78 12.5374 7.80273 14.9089 63.181 1813.4 887.829 13009.6 118.513 111.785 10.2642 55.6543 11.9796 22.8401 32875.6
internal_count=39832840 3480 39829360 101785 100568 1274 670 54882 19816 1217 995 2206 9871 9750 7232 2518 487 2142 112 2030 524 35066 33614 1452 112 604 135 2753 2201 504 1340 875 1976 9945 9757 6372 455 135 508 494 45686 7557 480 226 154 260 1966 30861 43 54 30818 217 94 45 39727575 245108 221067 1042 200 7077 242 71 113 1921 1104 485 156 3385 465 24041 123 188 6835 2816 43 38129 320 17943 584 57 527 56 4019 39482467 896236 220025 73261 8469 596 22162 13767 7456 17359 152 7873 837354 17207 64792 13343 3864 222 8395 272 58882 6311 64 43 72 817 8123 4041 58330 552 517 52 254 59 297 146764
is_linear=0
shrinkage=0.035


Tree=6
num_leaves=120
num_cat=0
split_feature=37 26 37 24 34 4 29 21 4 21 34 11 24 28 18 11 25 25 34 34 34 11 20 11 28 29 30 4 21 11 26 20 24 4 4 26 25 28 30 24 26 28 11 34 25 4 24 30 4 4 26 32 34 11 32 29 24 21 26 26 26 29 4 20 11 4 28 32 32 26 11 24 20 31 34 37 28 24 28 4 30 34 28 30 25 34 4 11 30 37 11 26 29 32 24 34 28 20 4 26 20 18 25 37 4 37 32 29 24 21 34 34 11 25 25 34 28 11 11
split_gain=54.9184 18.6187 18.5514 7.84341 5.21417 6.53141 12.1238 5.31469 4.32982 6.33799 3.08865 2.99374 3.54704 2.92795 2.8863 2.57659 3.34442 3.91049 2.35024 1.92188 2.19283 1.92022 1.90388 1.87443 1.56796 2.17211 3.60832 2.9338 1.50353 2.38433 1.50124 1.49294 1.4419 1.43785 2.18682 1.48302 2.54392 1.41481 1.50107 1.31394 1.506 1.31294 2.71275 1.14142 1.02952 1.0036 2.13461 0.970916 0.902802 2.0778 0.884892 0.865799 0.849851 2.57592 2.32651 3.61056 1.91707 3.9714 1.37087 0.807539 0.767774 2.37418 1.40593 0.738958 0.68537 1.66167 2.4893 0.671333 0.668968 0.580793 0.577195 0.460904 1.12101 1.08411 0.343235 0.292159 0.218403 0.397712 0.215041 0.208351 0.204515 1.53593 0.158116 0.111069 0.0941106 0.31329 0.38085 0.0856526 0.134518 0.0636636 0.0608595 0.12534 0.0586896 0.0576197 0.0570963 0.0463778 0.0437303 0.0401672 0.322749 0.0470645 0.0304568 0.0873455 0.165419 0.0263696 0.0260383 0.0250787 0.023042 0.023016 0.0227962 0.0194134 0.0606593 0.0258436 0.0189943 0.0207534 0.0185606 0.0174141 0.0181753 0.0156631 0.0289684
threshold=1.0000000180025095e-35 151895.80000000002 -0.93254555817525764 6.5000000000000009 799129.99019607855 795633.50000000012 5193188.0000000009 4.5000000000000009 1084106.5000000002 3.5000000000000004 283776.45952380955 126490377704170.02 7.5000000000000009 120.50000000000001 1.0000000180025095e-35 125906263134968.52 29944500.000000004 2427425.0000000005 409316.44666666671 36024.148888888893 34555.90214285715 125974982326958.02 20.500000000000004 123337871697489.02 38.500000000000007 70249039.500000015 3002147.5000000005 2517875.0000000005 4.5000000000000009 123251972677412.52 24763748.600000005 9.5000000000000018 15.500000000000002 5564.0000000000009 5044.5000000000009 4530103.8461538469 4961831.5000000009 52.500000000000007 201922.64285714287 4.5000000000000009 49088.000000000007 39.500000000000007 126129600571603.02 230746.23333333337 150032.50000000003 3172.5000000000005 5.5000000000000009 45119.200000000004 1808145.0000000002 2000300.0000000002 3623941.2750000004 147.50000000000003 325767.17105263163 123320692201925.52 27.500000000000004 179666.00000000003 3.5000000000000004 1.5000000000000002 1609217.5000000002 1300990.0000000002 4962000.0000000009 5033687.0000000009 678934.50000000012 22.500000000000004 125588434437939.52 6477250.0000000009 47.500000000000007 87.500000000000014 31.500000000000004 120418.62500000001 123269152099964.52 3.5000000000000004 14.500000000000002 2.5000000000000004 14752577.826923078 -0.97561039266566174 9.5000000000000018 1.0000000180025095e-35 27.500000000000004 29812500.000000004 57328158.750000007 14752577.826923078 12.500000000000002 3211377.6607142859 4961831.5000000009 237544.07142857145 1005550.0000000001 124944189505283.02 48052.291666666679 -0.99346169033386367 126533327195507.52 270415.12500000006 7559338.5000000009 10.500000000000002 28.500000000000004 779989.2045454547 9.5000000000000018 20.500000000000004 1808145.0000000002 49088.000000000007 15.500000000000002 inf 7013725.0000000009 -0.9656467085244308 5032654.5000000009 -0.99931368371271179 463.50000000000006 10043250.000000002 8.5000000000000018 6.5000000000000009 29466723.61718386 85417.536414565839 123148893005531.52 302550.50000000006 60438.500000000007 29466723.61718386 44.500000000000007 125304966784728.02 125545484924427.52
decision_type=2 10 2 2 8 10 2 2 8 2 10 10 2 2 8 8 2 2 8 10 10 8 2 10 2 2 10 10 2 8 10 2 2 8 10 10 2 2 10 2 8 2 10 8 2 10 2 8 10 10 10 2 8 8 2 2 2 2 10 10 10 2 8 2 8 10 2 2 2 10 10 2 2 2 10 2 2 2 2 8 10 10 2 8 2 10 10 10 8 2 10 10 2 2 2 10 2 2 10 8 2 8 2 2 10 2 2 2 2 2 8 8 10 2 2 10 2 10 10
left_child=2 8 75 22 5 15 -7 51 45 18 -9 13 50 28 70 19 17 21 47 20 -5 -17 24 -12 52 26 41 31 63 30 -30 -28 -31 34 -24 39 -37 38 -16 48 44 42 -26 -43 -41 46 -2 -10 69 -50 -13 59 53 54 -4 -56 58 -58 -55 -8 76 62 -62 68 65 66 -40 -63 -6 -35 -3 72 -66 82 -42 89 93 -78 84 -65 90 -82 -73 -20 96 86 -86 88 -49 104 100 -92 -91 -54 -19 -67 -77 112 99 -99 109 102 -102 -87 -1 -106 108 -108 -94 111 -111 -80 113 -98 -103 -83 -117 -105 -119
right_child=1 14 3 4 11 6 7 10 9 -11 23 12 -14 -15 37 16 -18 94 83 -21 -22 -23 33 -25 25 -27 27 -29 29 32 -32 -33 -34 35 -36 36 -38 -39 64 40 74 43 -44 -45 -46 -47 -48 87 49 -51 -52 -53 60 56 55 -57 57 -59 -60 -61 61 67 -64 79 71 95 -68 -69 -70 -71 -72 73 -74 -75 -76 78 77 -79 80 -81 81 115 -84 -85 85 103 -88 -89 -90 92 91 -93 106 -95 -96 -97 97 98 -100 -101 101 114 -104 117 105 -107 107 -109 -110 110 -112 -113 -114 -115 -116 116 -118 118 -120
leaf_value=-0.013008886477601627 -0.013044943329864637 0.0034826342811499107 -0.01297324272674052 -0.012410887769651524 -0.011304572119504525 -0.013064016527969329 0.0033071151483568145 0.013502553314651472 -0.013036023805335263 -0.013028621878423075 -0.0020980933508637652 -0.013036738620143328 -0.012784196421524306 0.0088981773477044002 -0.013128437752054117 0.0049981401409024762 0.012815292630437758 -0.012981586193614241 -0.0049569995089600418 -0.012820410772356582 0.011404101379119373 -0.0080243508764883537 -0.012862384245339547 -0.012716329108143786 -0.01267455447597845 -0.012769546225508134 -0.011961567326431811 -0.012680292475279626 -0.013177933617580712 -0.011832965255772586 0.012643178585325994 0.010641288709188535 -0.0091371109161257503 -0.012473764092767221 0.013707820018254539 0.01432222284564705 -0.011689838106082442 -0.010428454334015635 -0.013104432625164877 -0.011465823058647722 -0.012543175614989174 -0.0064496589278965734 0.013824937976472912 -0.012688130843810531 0.013441996289201135 -0.012936915028656879 0.012203309373033345 0.013372165800174156 0.014568690563593818 -0.012280881179847644 0.013046432860458389 -0.012268168477284264 -0.012709327880171147 -0.012607973840890824 0.0011161015179823198 -0.010414487754073512 -0.0071763044555685201 -0.012260583058379888 -0.0065290358470027942 0.011725055333316328 0.013596668363228892 -0.01211434923370814 -0.012526411609211889 -0.012483248437053791 -0.013393835548079625 0.013731473263995368 0.013927545363027894 -0.0073228578830431892 -0.012730372049497559 -0.0096882758586290807 -0.013080433872007845 0.012861329354057257 0.013291745058111901 -0.013693927731784968 -0.006410665993584354 -0.012975375539348234 -0.011929416519325976 -0.012822739849723165 -0.01229184017840034 -0.0059473707457130256 0.0072997377375062901 -0.010472874887421765 0.010364658795434115 -0.013081000857886202 -0.013058306358463197 -0.012875932031648826 0.0047661580898923431 0.013129081540919482 0.0059307814673066096 -0.012995583532413259 -0.013032118951685828 -0.0054290006305534599 -0.012957971866844943 -0.012994021446558899 -0.011094633842847102 0.010279158553986758 -0.012872947273192334 -0.01103297299233226 -0.0036432041278374903 -0.012814790782677393 -0.01225584444388253 -0.012840191955342776 -0.0083924003133365108 -0.012719308676156863 -0.013002864637706486 -0.012974424086915279 -0.0093942393934092986 -0.012511778640925451 -0.012880211431220307 -0.012467109244981839 -0.0082436984126665076 -0.012790119066294925 -0.012933437186165474 -0.012643561216302885 -0.012414718726199956 -0.012963487289593546 -0.011441115766508109 -0.011618243778699144 -0.012577186562040972
leaf_weight=8377069.8874386773 11.375772237777712 3.5859758183360109 86.36585758626461 10.300480268895626 552.3633539378643 116.52105789631605 19.182605378329754 11.347251132130621 2.006568804383277 32.537231579422951 57.020889051258564 1.7836901545524622 16.023023277521133 8.4659949764609319 3.5846558064222327 14.202623575925825 8.4865844622254354 241.66457764804363 3.5498596280813191 421.67637194693089 8.7679076492786407 593.50492785871029 7.7147173136472684 31.68105199187994 11.117218382656574 246.72834807634354 4.1810828447341946 12.871703714132307 4.0445629060268375 644.53242170810699 8.6729187369346619 24.889742001891136 390.16381534188986 391.39854767173529 7.4674617871642113 7.7701735496521023 11.308682307600973 4.5704715251922599 10.493763327598574 2.8433421552181226 17.303707115352154 49.420693673193455 8.2396759316325188 131.58596498519182 7.1312205493450165 103.93601980805397 6.4152178466320029 5.7523450255393955 5.289023980498313 10.620564602315424 14.929534047842024 2.326403282582759 1108.9458215758204 5257.6636671200395 56.78048375248909 80.33063780516386 261.55195112526417 671.07354037463665 45.840288087725639 51.276140101253986 7.1902968212962124 756.21409274637699 3.8887051716446885 7.5428689122200003 3.1809348016977292 12.410326369106771 6.9282653927803031 37.601738907396793 1491.8541772440076 119.7524875625968 9.1635744720697385 73.746357396245003 4.8972360268235207 2.0750751644372931 31.593166254460812 27664.379359059036 874.19106744229794 2023.97025962919 134.72651529312134 28.740416966378689 5.3372365534305564 5.3929203152656546 53.700366370379925 4.9170106500387201 3.1251434683799735 1289.5526038333774 2.7700143605470657 24.964554697275162 6.1652921736240396 167055.18327873945 6.9099424481391889 4.3145070448517799 18304.90122397244 4056.3955564275384 21.381632603704929 7.7395159751176825 2156.1640597954392 20.389165468513966 5.0390144810080519 166.05751806497574 58.187476992607117 252.24142795056105 17.707364916801453 1170.3912298306823 184263.05794078857 47842.353656485677 4.3679181188344947 8.6377152651548368 6176.6535760611296 130.46823334693909 4.303282029926776 2380.5482197925448 5611.451619617641 622.69696423411369 250.15955867618322 36.847508944571018 12.994671225547789 44.834087997674942 277.08710882812738
leaf_count=37631296 51 34 389 48 2755 522 184 149 9 146 446 8 73 96 16 138 109 1089 25 1917 103 3533 35 145 51 1125 20 59 18 3111 107 286 2192 1819 97 98 55 24 47 14 80 321 101 603 94 469 84 76 66 50 189 11 5076 24221 483 422 1613 3163 293 627 94 3591 18 35 14 161 89 232 6822 663 41 963 65 9 201 124532 4190 9199 632 187 57 28 649 22 14 5841 29 328 64 751060 31 29 82490 18241 108 94 9767 103 36 755 274 1145 103 5353 828049 215372 24 40 27967 606 25 10839 25325 2861 1165 166 64 219 1278
internal_value=-0.0130046 1.30785e-06 -0.0130052 -0.0119715 -0.0107233 -0.00910092 -0.00433862 0.00154384 -0.00746683 -0.00113578 -0.00369103 -0.0115472 -0.00101777 -0.0116571 0.00768058 -0.0101449 -0.00905004 -0.00926314 0.00703558 -0.0123289 -0.00146043 -0.00772 -0.0123343 -0.00589053 -0.0124089 -0.010458 -0.00810417 0.00123096 -0.0117128 -0.0106313 0.00443125 0.00739046 -0.0108164 -0.010432 0.000206358 -0.010699 -0.001096 0.00880043 0.00929208 -0.0110117 -0.00605251 -0.0100583 -0.00139448 -0.0109848 0.00634179 -0.0116221 -0.00394073 0.0106738 -0.0115656 -0.00335494 0.0102628 0.00873961 -0.0124711 -0.0121658 -0.00847369 -0.00563944 -0.0122981 -0.0108347 -0.0125554 0.00943325 -0.0126936 -0.0116628 0.00442753 -0.0122572 0.00975089 0.00556125 -0.00235455 -0.0118874 -0.0123451 -0.0118212 -0.00842186 0.0108949 0.00278379 0.0114008 -0.00858085 -0.0130077 -0.0127965 -0.0125533 -0.012916 -0.0073061 -0.0126447 -0.0106297 0.0118093 -0.00967489 -0.0129389 -0.0127429 -0.00468295 0.0119637 0.00952255 -0.0130081 -0.0126823 -0.0101096 -0.0129882 -0.0129329 -0.0128282 0.0124054 -0.012954 -0.0128849 -0.0123837 -0.0126199 -0.0126913 -0.0124612 -0.0113544 -0.01276 -0.0130086 -0.012997 -0.0129376 -0.0114648 -0.0129384 -0.0127415 -0.0123323 -0.0127634 -0.0128964 -0.0128215 -0.0126283 -0.0123622 -0.0125666 -0.0126598 -0.0124436
internal_weight=8.86467e+06 397.696 8.86427e+06 21215.7 4778.46 1609.34 289.355 172.834 201.62 79.8929 100.049 3169.12 32.7362 3136.38 196.077 1319.99 879.24 870.754 47.3556 440.745 19.0684 607.708 16437.2 88.7019 15817 489.034 242.306 41.9425 3127.91 1047.41 12.7175 29.0708 1034.7 620.193 15.1822 605.011 19.0789 183.327 178.756 585.932 58.8714 200.364 19.3569 181.007 9.97456 121.727 17.791 38.8888 527.061 15.9096 16.7132 72.7851 15328 6459.61 223.477 137.111 6236.13 932.625 5303.5 70.4587 8868.4 804.895 11.079 2080.5 175.172 37.5719 17.422 793.816 2044.22 511.151 12.7496 137.6 8.07817 129.522 48.8969 8.84306e+06 8063.5 2898.16 42334.1 36.2833 3300.14 60.5723 127.447 8.46687 39033.9 2787.76 5.89516 36.8822 11.9176 8.80073e+06 3239.57 11.2244 191550 5165.34 263.046 20.1498 36246.2 8581.8 191.486 186.447 3228.34 578.296 75.8948 2781.87 8.60918e+06 232105 24494.6 13.0056 24481.6 2650.05 134.772 2515.27 8390.31 2778.86 502.401 55.2351 49.8422 1492.31 321.921
internal_count=39832840 3480 39829360 101785 24722 9129 2084 1562 1274 670 740 15593 270 15323 2206 7045 4977 4868 524 2068 151 3671 77063 591 73791 2566 1441 365 15227 5428 125 306 5303 3272 132 3140 153 2131 2107 2987 389 1076 152 924 108 604 135 477 2598 116 197 822 71225 30584 1294 905 29290 4776 24514 811 40641 3935 112 9799 2091 391 136 3823 9577 2482 75 1700 79 1621 281 39727575 36706 13389 191277 222 15164 315 1612 47 176113 12734 43 468 140 39536298 14849 60 861581 23317 1197 255 163379 38847 894 858 14789 2687 377 12691 38674717 1043421 110521 64 110457 12102 631 11471 37953 12628 2310 258 230 6850 1497
is_linear=0
shrinkage=0.035


Tree=7
num_leaves=120
num_cat=0
split_feature=37 37 26 36 24 24 22 21 34 22 29 26 11 24 36 33 21 30 30 22 34 24 25 21 26 11 11 34 24 20 22 11 29 33 20 29 22 22 36 11 22 11 26 24 30 30 22 24 30 26 33 20 24 34 20 31 36 11 29 36 22 21 35 34 24 31 31 25 11 34 33 20 30 22 37 20 22 22 17 26 34 34 26 19 29 30 29 22 11 36 37 25 11 30 36 29 30 35 11 24 37 29 30 30 34 22 30 34 24 17 37 20 26 33 22 24 37 20 22
split_gain=53.2264 18.4044 18.0049 14.9107 8.85396 6.81504 4.19414 6.13318 3.71809 4.97879 12.5202 3.91317 2.84274 3.45617 2.61326 2.32677 5.03137 3.24048 2.29775 2.54904 2.27135 2.25252 4.30768 2.2121 2.17303 2.10535 1.88696 3.54892 3.26532 2.70687 4.39497 2.40095 2.2091 2.74517 3.09771 2.19193 1.87836 1.7233 1.62714 1.62639 2.13473 2.72757 1.5566 1.35796 1.31275 1.02043 0.972261 2.06619 0.938724 0.855553 0.802341 0.732886 0.710333 0.665985 0.661063 1.60669 0.506908 0.390078 0.325945 0.314429 1.31827 0.541664 0.275831 0.269214 0.239501 0.939403 0.863182 0.237583 0.220582 0.49371 1.12801 1.05568 0.233175 0.204189 0.144605 0.142101 0.903452 1.27373 0.143069 0.535431 0.136633 0.385423 0.13178 0.191934 0.114424 0.109016 0.103932 0.0996853 0.0945538 0.160446 0.362299 0.233549 0.0846157 0.132219 0.0728012 0.118114 0.0624303 0.342164 0.0557243 0.0472145 0.0432279 0.0417749 0.0405446 0.0382038 0.656077 0.0285401 0.0277148 0.46405 1.32173 0.0333084 0.0275411 0.0271745 0.0258991 0.0251034 0.0224166 0.0213133 0.0191474 0.01811 0.0164514
