tree
version=v4
num_class=1
num_tree_per_iteration=1
label_index=0
max_feature_idx=38
objective=binary sigmoid:1
feature_names=Column_0 Column_1 Column_2 Column_3 Column_4 Column_5 Column_6 Column_7 Column_8 Column_9 Column_10 Column_11 Column_12 Column_13 Column_14 Column_15 Column_16 Column_17 Column_18 Column_19 Column_20 Column_21 Column_22 Column_23 Column_24 Column_25 Column_26 Column_27 Column_28 Column_29 Column_30 Column_31 Column_32 Column_33 Column_34 Column_35 Column_36 Column_37 Column_38
feature_infos=-1:0:1:2:3:12:5:6:8:9:7:11:4:13:10:14 -1:0:8:3:2:17:10:4:5:1:14:32:9:15:20:7:24:12:31:19:11:22:13:35:38:34:21:40:16:33:25:26:47:51:41:37:58:90:23:18:52:76:30:57:36:77:29:61:68:43:71:45:62:73:63:98:60:44:49:48:96:42:46:64:67:50:53:54:59:66:70:93:101:6:27:39:75:79:81:65:85:99:105:108:69:72:74:83:86:87:91 -1:4:0:3:1:2:5 -1:7:0:6:8:5:3:2:4:9:1:11:13 [0:198699995931] -1:0:3:1:5 -1:0:3:2:9:1:8:4:5:7:16:14:13:6:15:17:11:12:10:19:18 -1:0:2:5:4:1:3:6:7:8:9:11 -1:0:3:2:1:17:12:16:5:4:7:37:83:217:46:63:154:6:105:45:28:134:156:54:60:148:157:191:211 -1:0 -1:0:1:2:14:16:11:3:25:12:30:10:7:4:29:9:22:23:24:31:15:8:6:33:21:5:36:18:19:38:17:26:13:28:42:20:27:47:82 [123123123125109:126550508236076] -1:3:0:2:4:5:1:7:6:8 -1:0:1:6:61:9:21:44:31:57:82:42:23:54:66:52:86:83:88:65:22:33:51:92:27:46:74:10:12:17:24:35:43:45:5:11:30:62:79:14:38:49:55:2:34:73:25:50:71:75:85:93:37:40:63:7:13:78:94:20:29:39:56:60:67:68:47:53:101:26:36:28:70:8:69:91:18:96:3:4:19:41:58:59:72:76:77:32:48:15:90:98:16:80:81:87 -1:2:1:0:11:7:10:14:3:6:5:8:25:12:16:19:32:4:9:27:17:15:23:20:52:42:48:50:43:13:28:30:39:68:44:33:47:21:59:62:35:38:18:64:34:98:22:36:66:24:40:56:53:54:26:29:37:46:41:58:70:80:97:100:75:79:45:51:91:92:99:31:72:74:49:67:90:77:55:69:76:83:107:110 -1:27:34:47:17:54:11:29:5:93:44:61:57:60:51:73:89:132:4:6:104:19:2:14:32:42:80:39:26:49:59:36:63:66:45:38:53:41:3:70:55:28:122:21:87:82:163:110:198:109:13:86:238:101:131:72:246:75:121:18:1:68:35:74:127:140:192:151:96:7:120:90:218:148:152:95:230:102:277:325:227:46:190:231:58:10:160:8:328:173:83:15:174:367:295:67:119:433:498:216:64:126:289:92:84:290:31:372:20:176:276:296:390:239:369:142:282:145:523:78:184:76:48:471:436:108:256:112:418:394:521:278:175:258:337:229:23:157:300:165:503:79:107:326:253:261:428:150:302:99:52:159:22:189:459:100:141:243:738:321:319:348:267:129:245:332:361:137:144:248:292:395:0:154:178:392:515:88:222:576:77:135:442:402:166:212:220:404:501:147:106:169:236:123:338:386:40:162:556:710:450:237:320:155:303:464:226:331:417:480:30:310:336:437:354:439:94:312:186:329:673:12:281:283:316:584:113:411:516:97:421:797:62:330:566:33:308:593:648:98:274:575:133:249:323:115:116:138:755:180:262:460:486:592:603:666:259:389:441:622:156:208:285:366:482:376:494:585:631:170:272:719:117:130:134:347:373:413:69:164:193:342:422:81:185:407:445:475:627:56:346:507:264:383:938:25:269:345:474:735:539:741:43:85:288:532:9:91:118:255:448:497:506:818:124:322:324:359:363:629:16:219:232:271:447:167:242:265:305:349:462:493:705:791:822:1176:273:420:457:483:544:632:660:37:344:455:524:621:670:879:252:294:327:419:490:663:687:723:1005:105:114:465:630:721:772:929:168:205:223:306:403:434:514:583:591:612:777:789:177:207:340:652:1034:206:451:551:563:571:680:696:161:196:508:543:586:600:661:677:849:924:1128:1164:1199:1214:1266:1347:179:200:250:334:458:466:477:537:564:639:672:905:1039:1172:203:343:599:604:662:700:726:790:853:862:1153:1200:1410:1426:234:260:286:435:478:491:519:538:540:587:620:638:674:724:756:760:868:940:1106:1227:1438:153:194:405:424:427:488:530:568:594:624:664:693:701:750:926:954:1018:1035:1184:1192:1220:128:143:197:251:268:335:355:384:400:489:502:522:658:659:671:678:807:843:910:994:1007:1033:1075:1211:1224:1301:1403:201:217:293:304:315:438:509:570:573:682:704:732:785:806:809:925:997:1004:1190:1198:1328:1389:254:351:440:444:452:454:541:574:616:617:619:644:650:655:690:698:708:906:1048:1070:1165:1369:1383:1449:1472 [0:1] [0:1] [0:1] [0:1] [0:23] [1:7] [0:26.015061966031109] [0:2] [0:263] [0:109446146335] [0:109446146335] [0:7] [0:287] [0:688959311700] [0:229653103900] [0:12] [0:815] [0:912511417337] [0:45625570866.849998] [0:15] [-0.99999917666958349:0.85913800415778196] [-0.99999916802517719:0.9826204477989452] [-0.99999916668571853:0.55436341532419586]
tree_sizes=14378 13862 13306 13595 13363 13611 13407 13654 13999 13550 13360 11998 13384 13413 13800 13642 13745 13893 13916 13769 14060 13426 13377 13955 13443 14020 13806 14132 13798 14007 13435 13569 13731 13502 13626 13731 13509 13428 13547 14180 14317 14136 14094 13373 14290 13688 14359 13364 13786

Tree=0
num_leaves=120
num_cat=18
split_feature=36 1 6 37 38 25 28 38 25 4 36 38 6 25 4 36 4 38 37 36 37 37 1 4 32 28 28 15 37 25 1 37 15 1 4 15 36 4 30 4 4 15 15 33 4 34 26 26 33 15 1 37 25 24 37 15 38 37 4 15 38 36 26 38 36 37 28 38 36 25 1 38 33 15 37 4 37 25 30 25 37 37 38 36 4 36 1 4 11 37 19 37 4 30 4 33 33 38 16 4 38 32 30 28 4 30 33 37 38 28 30 4 4 38 25 38 36 16 30
split_gain=1.37637e+10 6.86553e+08 5.13782e+08 3.59847e+08 3.36244e+08 2.28843e+08 1.13515e+08 1.0314e+08 9.01764e+07 8.15505e+07 5.62713e+07 5.23191e+07 4.72872e+07 4.23457e+07 3.33513e+07 3.25605e+07 3.18943e+07 2.96984e+07 2.8557e+07 2.69083e+07 2.49882e+07 2.48781e+07 2.30062e+07 2.48591e+07 2.2166e+07 2.16763e+07 2.04977e+07 2.01467e+07 1.9727e+07 2.0824e+07 1.89839e+07 2.19867e+07 1.86705e+07 1.78468e+07 1.72079e+07 1.60355e+07 1.42591e+07 1.29674e+07 1.28355e+07 1.27968e+07 1.21447e+07 1.13632e+07 1.11483e+07 1.06745e+07 1.06659e+07 1.04647e+07 9.8339e+06 9.79889e+06 9.40784e+06 9.34916e+06 9.10822e+06 9.10035e+06 8.86244e+06 8.79963e+06 8.55772e+06 8.20015e+06 7.86733e+06 7.83242e+06 7.78184e+06 7.66454e+06 7.65247e+06 7.38925e+06 6.9185e+06 6.73785e+06 6.69931e+06 6.58676e+06 6.35567e+06 6.28225e+06 6.1886e+06 6.01717e+06 5.84368e+06 5.78536e+06 5.4775e+06 5.44038e+06 5.14627e+06 4.75213e+06 4.72575e+06 4.68523e+06 4.11869e+06 3.97267e+06 3.87018e+06 3.84884e+06 3.73405e+06 3.64152e+06 4.60926e+06 3.63055e+06 3.60829e+06 3.40455e+06 3.40349e+06 3.26879e+06 2.98382e+06 2.93387e+06 2.89118e+06 2.76895e+06 2.75644e+06 2.74245e+06 2.68925e+06 2.62525e+06 2.56896e+06 3.18066e+06 2.54231e+06 2.54214e+06 2.48926e+06 2.40569e+06 2.40039e+06 2.40037e+06 2.3739e+06 2.34397e+06 2.3228e+06 2.28182e+06 2.26711e+06 2.23444e+06 2.22522e+06 2.22199e+06 2.71358e+06 2.21687e+06 2.12956e+06 2.14012e+06 2.46206e+06
threshold=-0.99580190075588615 0 1 -0.99947102944976007 -0.98442351845585019 5197506.0000000009 9.5000000000000018 -0.99733158652617304 7036894.5000000009 4127648.5000000005 -0.97976699105022258 -0.99991296235539273 2 3092400.0000000005 546995.00000000012 -0.99872400115708204 332391.50000000006 -0.9744714913901571 -0.96284338875708575 -0.99918903749861765 -0.99894205889952015 -0.99889402261098426 3 1007450.0000000001 18.500000000000004 11.500000000000002 3.5000000000000004 4 -0.99951307524694022 891450.00000000012 5 -0.99994647530636283 6 7 1492875.0000000002 8 -0.99963140721221388 9929.5000000000018 9236911.0714285728 1205220.0000000002 999.50000000000011 9 10 94655887.000000015 865902.50000000012 7488675.9356060615 6381013.5000000009 339926.25000000006 357850641.00000006 11 12 -0.99963127448066269 2352894.0000000005 1.0000000180025095e-35 -0.99972249032148675 13 -0.99670928694684169 -0.99837743234519449 1305364.5000000002 14 -0.99995750748930612 -0.99043826100861787 1095747.2500000002 -0.99233503862432626 -0.99944795094680849 -0.99889402261098426 1.5000000000000002 -0.99779365645426721 -0.99944795094680849 2352894.0000000005 15 -0.99434204504968382 48375971.500000007 16 -0.9989855935546238 497775.00000000006 -0.99989115406904638 417530453.50000006 18159300.000000004 744675.50000000012 -0.9999743251181098 -0.99998571943298364 -0.99714777844768354 -0.99865755442819271 469197.50000000006 -0.99976608453685245 17 497775.00000000006 123303512446421.02 -0.99953211564337063 inf -0.99307615980112185 20169.000000000004 1508271.8750000002 4127648.5000000005 12463804.500000002 1536128177.3750002 -0.99986842918319996 inf 2178676.0000000005 -0.99997679833157005 20.500000000000004 162197.75000000003 6.5000000000000009 289039.50000000006 3605056.6696428577 140582834.00000003 -0.99994851434696796 -0.99991596885532885 39.500000000000007 495036.31250000006 6971300.0000000009 5047506.0000000009 -0.99561098847936857 7036894.5000000009 -0.9999691868859103 -0.95558932762111637 inf 5002375.0000000009
decision_type=2 9 9 2 2 2 2 2 2 10 2 2 9 2 8 2 10 2 2 2 2 2 9 10 2 2 2 9 2 2 9 2 9 9 10 9 2 10 8 10 10 9 9 2 10 10 10 8 2 9 9 2 2 2 2 9 2 2 8 9 2 2 8 2 2 2 2 2 2 2 9 2 2 9 2 10 2 2 10 2 2 2 2 2 8 2 9 10 10 2 8 2 10 10 10 2 2 2 8 10 2 2 8 2 10 10 2 2 2 2 10 10 10 2 2 2 2 8 10
left_child=1 16 12 8 6 7 10 9 11 14 13 32 36 20 70 30 21 25 26 62 34 37 23 24 -13 49 40 67 29 75 31 41 58 39 73 -22 81 -1 -16 -34 78 -10 -7 -33 -29 82 56 63 74 -9 66 -12 61 -25 69 87 72 65 -4 -35 -60 71 -14 104 76 -11 -37 -24 80 94 -5 109 -44 -2 -48 86 95 -31 89 88 110 -3 112 84 92 -64 105 -32 -56 -6 -75 -27 -49 -90 -28 100 -50 -63 99 -42 -39 -85 -87 -19 -21 108 -58 -47 -8 -30 -18 -36 -17 114 -15 -70 117 118 -53
right_child=4 2 3 5 18 42 28 17 15 57 51 22 19 113 38 45 68 103 -20 47 35 -23 27 53 -26 91 54 44 52 77 55 43 33 59 111 50 -38 64 -40 -41 98 -43 46 -45 -46 107 48 83 96 -51 -52 116 -54 -55 79 -57 106 -59 60 -61 -62 97 85 -65 -66 -67 -68 -69 115 -71 -72 -73 -74 90 -76 -77 -78 -79 -80 -81 -82 -83 -84 101 -86 102 -88 -89 93 -91 -92 -93 -94 -95 -96 -97 -98 -99 -100 -101 -102 -103 -104 -105 -106 -107 -108 -109 -110 -111 -112 -113 -114 -115 -116 -117 -118 -119 -120
leaf_value=0.8210849658119459 13.887720081765117 -7.1850669634359754 -3.7346675748999858 -0.19020325714085562 1.4934645515140854 -7.1750801486446099 -7.1850669634359754 18.877409819561318 11.907160883195058 15.954786461138934 8.6167746112875179 3.1823556375651663 -3.1349998019444341 -7.1850669634359754 2.2379366508873222 15.136225663052187 22.105775729179872 23.21976460964266 37.260559169495259 3.5135185265112092 -7.1789015033075785 28.625347394964422 4.8580296450202578 -1.276524085235585 -0.93758112241640656 18.176882582955624 15.541480572611814 -5.184644292071213 18.451833783867997 30.420709471958368 -7.1850669634359754 14.394045075411157 -1.5009098447209768 -1.8604746586123513 15.373595112155179 10.927538810150637 30.313965344386446 -7.1850669634359754 7.4525016267396449 12.721242722606171 5.5566679626444131 -3.6494302578232176 17.53291058720103 4.3443140915956597 0.51269229159022078 18.247351165802158 21.969423926366712 21.085607120710666 16.68671238775152 5.1670595610411922 -0.022946439700689325 3.5464339940948761 35.014077940193673 17.864341440962395 35.276915336060455 -2.6595050317187425 31.733030380673824 1.5495405274181309 0.46318695445874969 -4.8048276228793938 8.1746786265910565 13.565191515470669 -1.4880915034700077 30.976564065822224 26.457717904219834 26.787842565428242 20.783476451956311 19.974738412968083 -7.1850669634359754 32.918855116238937 -4.0569803332041809 29.268169737746284 3.4400457498816746 -5.3006642535534816 29.033706996670418 26.255094653962992 20.760811943712017 -7.1850669634359754 36.277256297574745 36.351711326748102 28.929566334277659 20.459470256870496 30.492790016924957 28.077334849211731 28.997848142996332 5.1403953466043699 -5.9805443809217689 25.072619978507781 29.316155887272217 16.986341561077641 2.2213760772050311 26.147001080440276 8.6451950322369608 34.976561615935935 35.003718278261218 -2.8044995092264386 -2.727819931941295 33.077684040782884 32.084850158578369 34.256426213379811 14.104682220447096 20.259722166788134 16.199428625461639 32.983176096668501 19.563063024918279 25.416948767035976 -7.1850669634359754 0.46904935338490183 13.896432760096861 31.369858076414417 -7.1850669634359754 30.960036581037002 26.944280343020509 31.791633559165192 25.19927502440688 34.745275965586607 34.067647136658849 29.694876346722737 36.81566790477072
leaf_weight=72.411956562078558 23.876763075124472 6.3691218569874755 297.26872814726084 1048.3763753540115 20.554385788971558 25.073715696344152 7.0712297782301894 96.101561749004759 69.435271149384789 127.19618598511443 22.577353911125101 2189.4636419748422 99.099403759581037 3.5818474419647854 1755.8010689674411 55.940899784560315 7.6125278603285533 45.46841853694059 19006.864896099665 79.198689750744961 46.812418766785413 251.5548994843848 125.90167383325752 37.738129458739422 5938.9381570285186 191.66138442943338 56.905637032585219 2095.5442835892318 113.06770881637931 240.73111935833003 4.6875106974039218 427.78695081861224 1984.9300391887082 1212.8709164202446 21.745535336551256 98.484937541652471 602.9463298645569 7.7145675051724529 862.20045868156012 80.649652742315084 10.499858489143664 267.58809036144521 173.20046623516828 185.66327263042331 498.22427501308266 12.274424590053966 175.90700549480971 36.281265695230104 69.120630284654908 434.10112077975646 64.7677908311598 8.3111339944880438 746.09101075783838 133.52252822718583 547.17748070589732 512.34623777121305 48.126961969886906 25.52803389087785 478.1259459318826 10856.858277447755 235.17532545304857 8.5966102553065848 31.311682153725997 15.191728185978716 74.231262292480096 149.64522581209894 430.51141591160558 45.975042036385275 1.5507495269412164 76.727844906970859 988.06483274151105 274.03288308600895 41.971762948087417 141.99344219628256 448.18611304520164 28.005393817322329 67.022754841367714 4.1280184476636341 11.286791558843104 1227.1320159130264 345.75269907538313 196.80732740298845 62.730743295047432 108.76203340990469 29.580018798704259 39.799739025649615 27.314157961984165 27.649515782250091 313.99046952056233 88.558455991675146 118.52373691450339 80.274895307375118 61.976255787070841 159.71669927402399 10.570456332061438 20.36059103126172 10.005160336615516 484.02606460649986 155.57913037575781 8.608854129794052 62.840765513246879 95.870031608035788 66.746853119693696 96.588889622711577 13.337895764503626 20.518119912594557 1.9997538113966573 34.958029925939627 67.692294069915079 19.66345440398436 5.6317518191644922 23.382016073446721 30.053192304563709 143.01964575075544 27.541378624737263 390.32683233183343 184.85633595834952 129.38510722049978 4.0540660371771073
leaf_count=75858 10100 8128 350079 1126549 21138 31998 9024 43705 45323 78294 18627 2146063 115008 4571 1768337 35741 3349 18557 138346 76880 59740 63846 117383 41794 6519752 105816 35699 2554567 61537 48760 5982 282380 2210974 1361933 13746 74756 123964 9845 740000 57088 9580 313475 98808 175824 526321 6752 78072 17018 41102 397383 67376 8060 53281 74909 34970 586357 7945 26212 505765 13116626 196995 5878 34866 2836 23434 45831 205648 23023 1979 10069 1171805 64522 40831 173567 108527 9003 32059 5268 399 40772 84751 95832 12577 29306 7193 36786 33584 9822 73500 51903 119426 26054 51082 11577 758 23437 11495 61324 24121 801 42000 47229 40619 12498 6836 7087 2552 36973 45645 3450 7187 4376 9070 23371 9684 30870 18196 28888 81
internal_value=15.1547 1.73232 0.825867 -0.0396651 35.1522 7.12253 25.1414 4.50602 -1.80688 2.4865 17.8088 -2.31228 20.9472 14.0557 1.34226 6.02654 26.5747 15.108 36.7831 13.1287 11.203 20.4798 -0.482834 0.441057 0.172164 12.4958 33.4059 -3.2968 30.507 23.488 4.26835 7.25525 -3.64885 -3.98508 3.37099 15.2318 27.1859 13.7523 3.95528 -0.975505 24.7026 0.224943 22.6622 11.3525 -4.10202 19.4415 23.1223 18.5471 25.6011 8.37533 16.5992 30.1072 32.1939 13.6466 34.4795 -1.31538 17.693 20.1 0.94285 -4.50482 3.00566 29.8544 3.91874 9.37343 17.7855 21.8105 18.4644 8.01902 31.5381 26.2142 -2.01697 26.3632 14.7839 0.184946 27.0426 13.247 13.7095 29.7867 16.1498 35.0097 28.2183 19.5929 23.9996 21.5196 16.8852 8.98932 10.2754 13.8901 33.3966 14.0678 -2.07334 20.5296 13.2388 31.2246 18.5903 8.51136 14.2318 32.7372 30.5974 18.4865 11.7768 24.4148 12.0684 29.8582 5.82684 12.7266 30.1804 5.08914 11.9025 20.3656 9.65068 23.4494 19.2629 29.9473 21.4723 34.5793 31.5928 28.3654 14.4541
internal_weight=62815.7 37587.2 36280.2 34796.9 25228.5 6894.6 3534.36 5901.01 27902.3 4956.81 1493.42 26211.2 1483.28 1144.24 4654.44 1691.11 1307.01 944.196 21694.2 677.156 970.098 556.137 11065.3 8299.66 8128.4 802.139 2687.31 2765.65 2040.94 395.46 1495.16 950.474 15145.9 14135.3 329.521 640.577 806.123 304.582 2618 2065.58 295.087 337.023 993.592 613.45 2593.77 195.957 968.518 440.198 703.219 530.203 593.764 349.184 1645.48 171.261 2392.22 544.683 265.299 302.369 1010.57 12069.7 713.301 899.387 236.958 107.728 232.17 276.841 528.996 171.877 750.875 144.204 2036.44 406.764 215.172 284.394 624.093 150.601 157.939 244.859 120.4 2248.02 358.997 203.176 148.725 332.47 127.838 137.858 122.596 32.337 1020.88 109.113 260.517 271.936 98.2575 473.707 67.4761 90.9159 79.1258 492.623 174.688 19.1087 70.5553 204.632 106.547 142.057 92.5366 95.2816 50.1267 47.2325 74.7635 132.731 13.2443 45.1276 85.9941 174.143 31.1232 391.878 326.607 141.75 12.3652
internal_count=40100326 38398117 37999502 37305919 1702209 5982371 1248576 5561041 31323548 4957028 840213 29803272 693583 766361 4806691 1520276 398615 604013 453633 465659 728735 270479 12003812 8782518 8665815 572958 315287 3221294 408363 158371 1419163 817002 17799460 16746621 321215 407520 227924 206633 2508337 2268062 107942 358798 421330 458204 3080888 101113 389332 238380 239196 441088 347780 73852 249992 116703 207345 602161 150136 150337 1052839 14478559 702760 196711 227279 86552 130775 124125 280404 140406 128136 46526 2298354 129509 139639 303093 186599 104343 107341 54028 73440 160819 95287 103960 57388 151828 75293 112271 95340 15804 120047 73041 292993 131870 68100 85077 36457 75282 52597 67202 34502 10381 51845 76535 77405 31055 83716 61756 10497 43725 54669 64987 10536 18122 44811 37626 14255 32849 55225 37029 8141
cat_boundaries=0 3 4 5 8 35 38 68 71 84 100 123 150 152 179 206 208 219 221
cat_threshold=1413742864 524436 10485760 169280 36864 8422405 16779264 32 151261312 1 1107591184 2147494928 128 1073741824 409600 6291456 16 8192 16777280 0 64 2 0 0 0 0 0 0 0 0 4194336 0 0 0 8192 37893 512 4194304 133272 8388608 2113536 536885248 16783360 1140850688 1280 2228288 67108866 0 134217728 0 1075838976 0 0 536872960 8 0 0 0 0 8388608 0 0 0 0 0 0 0 1048576 34305 0 33554432 1142032708 2148533888 540928 277348352 100663296 1082163200 8192 524352 16 0 2048 8388612 4194304 20977664 35651585 1230848 16 0 67108864 66624 524288 1048576 134217794 536870912 4 0 2 0 2048 72385844 2164260874 2359304 150994976 33555264 8389632 2097280 1073745984 536870912 0 0 0 0 0 0 0 0 0 0 0 0 0 4 134352904 34078731 1109919760 5245440 4096 1075871752 17825792 536870976 0 262144 138412032 0 0 0 0 0 0 0 0 0 0 0 0 0 0 0 2048 336879877 526487 268599424 2165309472 3145984 128 268435712 134217728 0 0 268435456 64 0 0 0 0 0 2048 0 0 0 0 0 0 0 0 0 0 262144 2147500096 34603009 2214724656 8651282 2147483649 270548992 0 67125248 268435456 2048 1048576 0 0 2 0 0 0 2 16777216 0 0 0 32 0 0 0 32768 1098273 2147483648 1032 2097153 128 272631808 0 2113536 0 0 268436480 134217728 1073741824 68424709 2048
is_linear=0
shrinkage=1


Tree=1
num_leaves=120
num_cat=4
split_feature=6 37 36 38 4 36 36 4 36 37 4 37 36 4 37 36 28 32 33 4 33 32 36 34 38 37 4 30 38 36 30 26 38 4 32 30 34 1 32 38 38 36 30 37 36 38 36 26 4 33 1 36 37 36 37 33 36 37 28 38 34 36 25 37 30 28 24 37 25 4 11 28 37 38 24 4 30 26 26 4 37 38 34 30 34 28 37 38 22 1 4 36 37 38 36 30 37 38 36 30 34 36 38 11 36 37 38 32 28 32 37 38 37 4 36 4 4 11 37
split_gain=8.89797e+07 4.35576e+10 3.8662e+11 5.70497e+10 1.84899e+11 9.99294e+10 1.05333e+11 4.20839e+10 6.30762e+11 3.86393e+10 2.14194e+10 1.42974e+10 6.58096e+10 1.20479e+10 2.35961e+11 6.2432e+10 1.99332e+11 5.45306e+10 6.00664e+09 1.39636e+09 1.31962e+09 2.40081e+09 4.06146e+09 2.17354e+09 1.45053e+09 7.63248e+08 1.95016e+10 1.34219e+11 2.18142e+11 3.10674e+10 1.59063e+10 4.80593e+10 1.96669e+10 1.94941e+09 4.24128e+10 8.02262e+09 1.11086e+09 7.2382e+08 7.35356e+09 2.02941e+11 2.81564e+09 2.32506e+10 1.33156e+12 8.85243e+12 6.71462e+10 9.81803e+08 6.01873e+08 4.37462e+08 4.08816e+08 6.66488e+10 4.43997e+10 1.35806e+11 6.52625e+14 2.87135e+09 1.29069e+10 4.73799e+10 5.702e+09 3.66251e+09 1.46842e+10 5.91972e+07 5.6374e+07 5.42797e+07 1.3818e+09 9.91755e+10 8.1386e+08 6.50194e+08 5.94185e+08 2.73339e+11 1.40544e+09 2.10068e+09 2.0745e+09 2.73231e+08 7.71196e+11 4.83158e+12 1.04589e+09 4.57665e+08 4.45793e+09 2.44964e+08 7.7351e+09 1.00203e+08 8.9371e+07 4.94901e+08 1.58674e+09 2.45207e+08 7.61464e+07 1.24512e+08 5.13996e+07 8.24522e+08 1.37407e+12 5.05136e+07 1.95514e+08 2.17711e+10 5.25961e+11 3.65549e+13 4.66882e+10 2.52122e+11 3.25358e+10 8.53372e+11 2.04406e+11 2.90514e+09 6.23814e+10 1.07823e+09 9.77258e+10 1.08706e+11 4.47224e+10 4.9696e+07 4.11357e+07 6.83922e+07 3.39274e+07 3.17822e+07 2.4556e+07 3.17943e+08 6.06288e+08 4.24589e+09 3.28044e+08 2.94101e+11 2.30085e+12 4.67549e+09 4.93497e+07
threshold=0 -0.99837743234519449 -0.98029469677164982 -0.98643002706024252 28149.500000000004 -0.99945928696433051 -0.98701741847012647 19920.500000000004 -0.99968405520376424 -0.98573182197372733 138811.50000000003 -0.99550665335503352 -0.99556435978449664 90669.000000000015 -0.98573182197372733 -0.99969584389787725 3.5000000000000004 62.500000000000007 3193438.0000000005 347147.50000000006 6448889.0000000009 16.500000000000004 -0.99174339808871348 590129.97542735061 -0.99351761616948553 -0.99889402261098426 97281.500000000015 3606874.2500000005 -0.99780195361559609 -0.99906422988002463 228747.85000000003 1508507.8333333337 -0.99847932960835728 99100.500000000015 28.500000000000004 244041.22222222228 100251.16666666667 1 10.500000000000002 -0.99992114422133194 -0.99996899049879096 -0.99593716786161968 500236.75000000006 -0.9999752649210939 -0.99947294725412217 -0.99995050464091106 -0.99266759810772998 378218.00000000006 9959.5000000000018 12257920.000000002 2 -0.99593716786161968 -0.99989066486892131 -0.99945928696433051 -0.99993451685630352 13987849.000000002 -0.99692344281756184 -0.99989066486892131 1.5000000000000002 -0.99996899049879096 197913.40909090912 -0.98029469677164982 30043500.000000004 -0.99951330685845641 15519712.750000002 8.5000000000000018 9.5000000000000018 -0.99951330685845641 825321.50000000012 142369.00000000003 124068016139409.02 9.5000000000000018 -0.99951330685845641 -0.99993738228028028 1.0000000180025095e-35 495420.50000000006 496817.50000000006 647532.50000000012 800088.33333333337 496825.00000000006 -0.91898655736702062 -0.98643002706024252 159490.46592592596 1134680.1500000001 15564003.35294118 7.5000000000000009 -0.99951330685845641 -0.98384625867620523 14.606864169700431 3 347147.50000000006 -0.99923966620820603 -0.99995030241226079 -0.99996945768562073 -0.99943578792535914 65948.200000000012 -0.99997418891176337 -0.99996991100417987 -0.99943578792535914 483759.80000000005 457575.46209677425 -0.99593716786161968 -0.99996945768562073 125880492783084.52 -0.99759527786102609 -0.99972350565274604 -0.98643002706024252 70.500000000000014 15.500000000000002 175.50000000000003 -0.99947089273283607 -0.98384625867620523 -0.91898655736702062 29061839.500000004 -0.99556435978449664 1504.5000000000002 1001.5000000000001 126541917484724.52 -0.98765762727289597
decision_type=9 2 2 2 8 2 2 8 2 2 10 2 2 8 2 2 2 2 2 10 2 2 2 10 2 2 8 8 2 2 8 10 2 10 2 10 8 9 2 2 2 2 10 2 2 2 2 8 10 2 9 2 2 2 2 2 2 2 2 2 10 2 2 2 8 2 2 2 2 8 8 2 2 2 2 10 8 10 8 8 2 2 8 10 8 2 2 2 8 9 10 2 2 2 2 10 2 2 2 10 8 2 2 8 2 2 2 2 2 2 2 2 2 10 2 10 10 8 2
left_child=1 19 3 7 -5 10 -7 8 -3 11 -6 12 -10 14 15 16 -9 -17 -13 25 23 22 -22 46 -23 48 27 29 -29 -27 32 -32 -31 -28 35 36 -35 38 39 45 -40 42 43 -42 -44 59 -15 60 -1 50 51 52 -50 57 55 -55 -56 -51 -59 -21 -12 89 66 64 65 -64 71 68 106 109 -71 80 75 74 -74 77 79 -73 -79 -77 86 -82 -83 -84 85 -66 -63 -88 -89 90 -2 92 96 94 95 -94 99 98 -98 100 -92 102 -93 104 -104 -87 -68 108 -108 -70 -91 -112 114 -114 118 116 -116 -117 -113
right_child=61 2 -4 4 5 6 -8 13 9 -11 47 18 -14 20 -16 17 -18 -19 -20 37 21 24 -24 -25 -26 26 33 28 -30 30 31 -33 -34 34 -36 -37 -38 -39 40 -41 41 -43 44 -45 -46 -47 -48 -49 49 53 -52 -53 -54 54 56 -57 -58 58 -60 -61 -62 62 63 -65 84 -67 67 -69 69 70 -72 72 73 -75 -76 76 -78 78 -80 -81 81 82 83 -85 -86 105 87 88 -90 110 91 101 93 -95 -96 -97 97 -99 -100 -101 -102 -103 103 -105 -106 -107 107 -109 -110 -111 111 112 113 -115 115 117 -118 -119 -120
leaf_value=-0.083965010620029867 -0.97459819240012557 -378059.05546616414 -637044.32349340559 -397686.00473850587 -77160.831375761351 -467694.41508186882 -32073.912030295549 -232295.78583206382 -169866.49536268556 -218868.43700706001 -904.94710142149052 -23024.616600584959 -9446.1506433171526 -1076.6220079552199 -506128.59150915488 -1866.6117601674641 -18708.944645094976 -173822.88429943097 -1809.4345377592863 -42.160331519150319 -89310.559369149123 -1901.1666676531645 -2678.7303025365613 -43962.936554488166 -10412.01221359607 -52869.393864856575 -1.5751986109149925 -663164.28691971558 -17441.813873277224 -2841.9832524461326 -282323.02449973271 -3885.6235348914647 -121850.92536422331 -10092.053631896802 -170481.38762029223 -81236.297453922991 -921.72275250740586 -0.4898258988590764 -13.53566943590463 -413174.38210026297 -12894.582765606177 -4.3254377160991533 -722.65029227858884 -2874494.4511322053 -61463.998558202285 -29002.047959346939 -81.456993133800523 -12368.572620962899 -1945.038215332748 0.0079880653733707448 -0.59893517085978742 -0.73035079188374485 -19536469.797012046 -235205.06203918942 -1341.7047774817136 -6065.8947615518537 -1.6836931720740511 -41616.823464949615 -1241.0186510880699 -5843.6085019526809 -4818.2581550123186 -0.80775957449680558 -1105.0734189988748 -179265.32425601908 -972.52058834203797 -35439.396545663505 -11.551879822368301 -408370.92226460279 -5577.6149909011847 -12724.455103689719 -79743.53096593784 -9.2884841890345449 -972.77641070741981 -2613802.1019828902 -28408.684989767906 -20.909382546973639 -74843.403908831926 -70.60878879175948 -79346.093144189334 -5600.7551700971162 -27.884235985237776 -9210.1457253279696 -526.47306785532135 -3900.3569821611254 -104.82442746943809 -14974.182474858737 -4.5579290886961488 -87.063600910285757 -640192.25623086677 -0.053762885077551163 -2629.7998127474721 15.066927397928476 -8502.8361138852324 -4473968.3331595445 -0.035026523110391734 -314507.02675768815 -147851.84692821733 -841885.53266323183 -0.03502652292482708 -2.2200116589373455 -228251.88040581535 -0.48222195057138978 -33443.649927087819 -292240.64441046101 -228084.62587160201 -4770.3496765544505 -4647.7464302525677 -6792.1347118813801 -386.0680897886258 -13.953126296681599 -0.33675279479477371 -19.374487712361109 -62415.608404936393 -285.57237582272319 -1476325.2768734563 -45.797273115793224 -764.14975873164929 -22377.490603791895 -174.03390186500064
leaf_weight=137366.42155517911 12032.609785925035 0.0057874286162951641 0.0011782695976928484 0.0017268270229211396 0.0056368599693633606 0.0012604489959456013 0.0014764319466566273 0.0056368642112666891 0.0036152507781320722 0.0010595861428120681 0.022547402282678874 0.017987460041508446 0.023465055029456144 1.8106943863643719 0.0011493125849245658 1.247675115466059 0.10613598042130573 0.0022632231399833938 0.17940815739663149 0.042373580441202874 0.0010439976763678693 0.76035135913879837 0.001816155008506847 0.0014210834890996385 0.025349001035340657 0.016717717579706415 16.910454455950582 0.0010021347320112728 0.0017779078517707872 0.37578941937310234 0.0010097476754413739 0.0030625984868286604 0.0017087678220225047 0.017076859573910863 0.0018358015100413119 0.0015493080765103242 0.30871631556170476 21.421861355501512 5.6539207836099816 0.0015133441958048366 0.010594012503771571 4.9482538475260212 1.2462371647489885 0.0015134713693013514 0.022700130610366576 0.0015133432324711043 1.2642989443086226 0.0056368510515838457 28.752293008102814 19945.936691711657 55.532181319860683 29.94410318454457 0.0020952001807640333 0.0011086071529319277 4.904820440281461 0.38595898715834998 18.799138850573037 0.011092038063387988 2.1194337342399834 0.0022700150953345313 0.0056368506442145963 2067.023816542915 0.0012668440179628101 0.0038321960379294464 0.0070895684921494185 0.0014478223196726149 1.2855107189746977 0.0020121288871773882 0.002516324307844286 0.0012405253852248658 0.0010402099777900413 28.845393487823404 0.0035978195437205342 0.00100445820366977 0.0032303460933038597 0.015090324013599851 0.0010676293626130711 0.051577269665828894 0.0015531332007416637 0.0053368099122981525 8.4114879703937113 0.027231818778564034 0.84914262636333282 0.027234435155977788 0.36917987501886868 0.001266844162083689 325.83224810074347 13.116952688517868 0.004109405906546181 3126616.8819650505 0.15587705868149937 3.1300067162388601 0.025726816110641426 0.0022701032558120884 0.1679809646418722 0.0037833658115186122 0.01210675051577656 0.0015133530671037889 0.21262455434771343 8.2174472052523946 0.0015157599244823841 1082.2067947746618 0.032536853543950646 0.0022700130601225324 0.0015133420399899766 0.0010858663069082015 0.0025453383352125039 0.002586828214486663 0.022666449732430038 0.0025147222914416734 393596.51277948346 27.873666267458407 0.0015303071766124268 0.011274210756882704 0.0014587943250441845 11.793074388564749 0.011495909001255704 0.011495909020562745 2.7793785468220227
leaf_count=528082 455600 62523 22270 19656 12437 16900 1360 37412 17550 6626 584 11841 6345 55814 16623 66597 56752 11248 9290 107 2665 41442 140 1786 7546 25255 780 18992 886 30524 8146 344 5949 4926 8944 3598 8140 1419 9657 17873 3917 623 27380 124322 39915 1257 2953 1992 1634612 345297 3011 667 1169702 7451 188172 66950 944 13191 75249 382 776 50559 41 23538 198 1495 1220 28133 403 455 2388 22782 102 81090 2622 15 2305 128 3529 863 6752 7642 14143 3836 1199 549 44579 32986 75606 27484546 11918 2787 6284 290228 222 34006 51160 36409 281 11373 9887 20396 31137 18964 9872 150 339 504 259 2 5748051 15611 2945 96 61861 15577 253 7455 13904
internal_value=-0.134515 -0.948437 -3114.41 -2978.68 -42708.4 -28180.9 -232696 -2659.03 -17267.8 -8009.63 -13995.4 -7014.32 -30862.4 -2012.62 -4842.12 -4419.03 -29480.4 -2177.97 -3742.64 -0.839691 -1014.88 -2292.27 -34300.6 -687.454 -2175.75 -0.79173 -230.999 -7860.56 -250208 -6168.98 -4122.9 -72924.8 -3380.68 -53.5022 -2721.08 -1780.25 -1402.4 -227.281 -344.95 -14353.1 -579.038 -1092.31 -5294.82 -370603 -1809.26 -1276.98 -667.455 -3467.77 -0.765938 -5.42981 -848.443 -1410.21 -3368.43 -0.608194 -382.483 -6722.18 -278.961 -0.147009 -1451.22 -337.149 -1687.61 -0.0982549 -5.31038 -2101.5 -321.117 -19416.7 -4.98023 -746.618 -125.552 -15427.9 -43290.9 -4.57891 -111.506 -347358 -13952.5 -17.4591 -5122.68 -13.6618 -2388.03 -1478.7 -3.29825 -111.5 -889.858 -631.32 -184.204 -3287.84 -2.87933 -15.5123 -287.539 -0.0946471 -2.26095 -16.4276 -1750.2 -57894.2 -7132.73 -47734.2 -446.249 -13543.2 -7965.12 -92.4368 -4802.64 -2.36915 -647.296 -57728.5 -42094.4 -10264.7 -40.3569 -1372.41 -816.32 -2796.67 -0.0865625 -0.347087 -96.0907 -7710.92 -93.7949 -250.457 -166923 -67.545 -33.3978
internal_weight=3.69334e+06 157509 5.50426 5.50308 0.0439217 0.0421948 0.00273688 5.45916 0.231323 0.225536 0.039458 0.224476 0.0270803 5.22784 1.36286 1.36171 0.111773 1.24994 0.197396 157504 3.86497 0.788561 0.00286015 3.07641 0.7857 157470 17.6407 0.401068 0.00278004 0.398288 0.381571 0.00407235 0.377498 17.2396 0.329178 0.327342 0.325793 33.3528 11.9309 0.0476703 11.8832 6.2293 1.28104 0.0121075 1.26894 0.0461569 3.07499 0.0338211 157453 20086.4 114.231 58.6985 28.7544 19972.2 24.091 0.387068 23.704 19948.1 2.13053 0.0446436 0.0281843 3.53583e+06 2445.93 0.385169 0.381337 0.00271467 2445.54 1.32263 1.32062 0.00731178 0.00228074 2444.22 28.9279 0.00783262 0.00682817 28.92 0.0214948 28.8985 0.0531304 0.0204271 2415.29 9.3151 0.903609 0.876377 0.378622 0.00944228 2405.98 338.953 13.1211 3.53338e+06 13126.8 1094.17 8.80085 0.199761 0.197491 0.0295102 8.60108 0.226245 0.224731 8.37484 0.157393 1085.37 3.16633 0.0363202 0.0340502 0.00235271 1.31331 0.0277986 0.0252118 0.00503105 3.52026e+06 393639 42.4834 0.0128045 42.4706 11.8175 0.0129547 11.8046 30.653
internal_count=39619027 4867792 491128 468858 53705 34049 18260 415153 114175 51652 15789 45026 23895 300978 188632 172009 94164 77845 21131 4376664 112346 51793 2805 60553 48988 4149812 116484 90096 19878 70218 44963 8490 36473 26388 25608 16664 13066 226852 225433 19619 205814 196157 195534 128239 67295 1746 58767 3352 4033328 3505246 2807992 2804981 2804314 697254 263517 74401 189116 433737 88440 489 1360 34751235 410412 27170 3632 1536 383242 33703 5570 3248 2843 349539 113436 83814 2724 29622 3183 26439 3657 878 236103 32373 25621 17979 2096 897 203730 153171 108592 34340823 990524 534924 451768 330740 40512 40290 121028 87850 51441 33178 21805 83156 62760 59973 41009 699 2322 1102 598 405 33350299 5865753 117702 3041 114661 85146 62114 23032 29515
cat_boundaries=0 1 2 3 5
cat_threshold=168435 256 256 4194320 524420
is_linear=0
shrinkage=0.035


Tree=2
num_leaves=120
num_cat=0
split_feature=36 26 29 29 17 29 24 20 26 11 22 11 32 33 16 24 26 20 19 26 22 22 27 24 33 11 24 24 32 11 32 24 34 24 32 11 34 33 29 33 22 21 19 36 26 29 11 17 19 22 24 32 26 11 32 34 29 22 11 11 29 20 11 29 32 26 24 29 11 32 29 17 33 34 35 34 29 29 11 34 34 24 24 33 29 24 29 34 22 32 29 29 33 36 29 26 22 22 34 29 21 24 29 35 21 26 29 16 22 11 11 26 32 29 32 26 18 22 26
split_gain=5.83155e+11 1.16279e+14 1.19117e+16 2.20735e+13 5.83012e+13 8.45667e+12 4.77748e+14 1.36901e+15 2.52676e+13 1.13701e+14 1.52992e+13 5.65292e+13 1.20894e+14 4.34629e+12 4.74023e+12 4.08986e+12 1.96496e+14 1.86007e+12 8.59068e+12 6.49533e+11 3.46997e+11 2.50393e+12 2.18423e+13 6.50993e+12 1.48053e+12 1.08968e+13 2.78412e+13 1.06111e+12 7.80148e+13 8.78829e+11 1.20385e+11 6.82422e+10 3.90885e+12 1.46447e+13 1.94655e+13 7.26295e+12 5.28144e+11 7.13978e+12 1.76301e+11 4.31751e+10 2.39138e+10 2.82473e+10 1.82487e+10 1.4767e+10 2.48629e+12 1.30185e+14 1.16329e+14 2.22198e+11 5.6899e+12 1.00536e+11 9.73391e+11 1.09018e+11 1.72178e+12 4.80389e+11 1.16806e+12 9.22445e+10 1.04972e+12 3.36671e+12 2.83218e+11 2.70918e+11 3.27062e+11 7.41798e+10 4.46968e+10 7.83036e+10 2.60054e+10 1.01593e+12 2.04926e+12 2.18939e+10 1.68119e+10 1.31859e+11 1.24258e+10 1.1323e+11 2.05268e+11 1.21581e+11 9.65576e+09 9.02423e+09 1.95402e+10 8.68581e+09 2.12125e+10 2.87543e+10 8.07174e+09 2.89655e+10 6.71369e+09 5.18783e+09 4.85408e+09 5.28833e+10 2.61734e+12 3.00773e+10 4.364e+09 4.1492e+09 1.62266e+10 1.91634e+09 1.51711e+09 1.35926e+09 2.68182e+11 5.18599e+13 7.77652e+10 4.03519e+11 3.86421e+10 5.84012e+10 2.68744e+10 8.53552e+09 3.37788e+11 1.99166e+12 1.41408e+11 1.79587e+10 8.52164e+09 2.60202e+10 8.38011e+09 1.17531e+11 5.98753e+11 1.44794e+10 6.33014e+09 6.44731e+10 9.05399e+11 3.86171e+10 2.03473e+11 1.80555e+10 5.38894e+09
threshold=-0.90197117769329471 13456454.29166667 55688655.500000007 30298982.000000004 1.0000000180025095e-35 22532693.000000004 8.5000000000000018 17.500000000000004 5037625.0000000009 123767368373769.02 12.75750792000272 126146780999898.02 18.500000000000004 26203400.000000004 inf 11.500000000000002 6021.5000000000009 11.500000000000002 1.0000000180025095e-35 30075.333333333339 8.236552924988926 9.2016527423067114 1.5000000000000002 5.5000000000000009 168472382.50000003 123269152031851.02 1.0000000180025095e-35 8.5000000000000018 47.500000000000007 123157483453004.52 75.500000000000014 4.5000000000000009 6266761.4047619058 7.5000000000000009 9.5000000000000018 123363641571433.02 2878693.15047022 13987849.000000002 2974.5000000000005 934592.50000000012 8.9659093394806444 2.5000000000000004 1.0000000180025095e-35 -0.95498771670079485 4368846.8750000009 33876485.000000007 123810317979388.52 1.0000000180025095e-35 1.0000000180025095e-35 6.9102520348033734 9.5000000000000018 104.50000000000001 462842.12500000006 126352939205034.52 122.50000000000001 248091.218487395 2918435.5000000005 12.460371779755581 inf 123148893030055.02 3878148.5000000005 22.500000000000004 123148893030055.02 18028962.500000004 184.50000000000003 333353.45833333343 5.5000000000000009 909591.00000000012 125425226568324.52 27.500000000000004 88816270.000000015 1.0000000180025095e-35 306908676.00000006 9755199.3194444459 2.5000000000000004 20822890.114331726 120181921.00000001 18028962.500000004 125811773320436.02 2049821.2619047621 2478809.1581196585 3.5000000000000004 1.5000000000000002 264980816.00000003 1258657.5000000002 6.5000000000000009 5481503.0000000009 192165.42952380955 13.115995141909599 40.500000000000007 1258657.5000000002 13333718.000000002 17323626.500000004 -0.97359793171793563 30298982.000000004 600630.00000000012 12.615981198985631 12.890030229531076 13712279.358333336 189317969.00000003 3.5000000000000004 7.5000000000000009 9108679.5000000019 2.5000000000000004 4.5000000000000009 545948.50000000012 37691835.000000007 inf 11.503899856416835 125897672203175.52 126026522110941.02 52409.666666666679 115.50000000000001 6716371.5000000009 186.50000000000003 9405.5000000000018 1.0000000180025095e-35 12.15968309751962 505791.50000000006
decision_type=2 10 2 2 8 2 2 2 10 8 10 8 2 2 8 2 10 2 8 10 10 10 2 2 2 10 2 2 2 8 2 2 8 2 2 8 8 2 2 2 8 2 8 2 10 2 8 8 8 10 2 2 10 8 2 8 2 8 8 8 2 2 10 2 2 8 2 2 10 2 2 8 2 10 2 10 2 2 8 10 10 2 2 2 2 2 2 8 8 2 2 2 2 2 2 10 10 8 10 2 2 2 2 2 2 8 2 8 8 8 10 8 2 2 2 8 8 8 10
left_child=43 5 3 17 -5 15 8 -8 10 -10 13 30 -13 14 -7 20 -17 -3 -19 -9 31 22 23 39 27 26 -26 29 -29 -23 82 77 36 35 -35 -34 38 -38 -33 -22 41 -15 -42 93 49 47 -47 68 -49 64 51 55 53 88 -55 56 58 -58 -51 60 -57 -61 63 74 70 66 -66 -67 -46 -70 84 75 73 -73 -50 -72 -77 89 -79 -80 81 -64 -12 -27 -45 87 -87 -86 -53 91 -91 -2 -82 -1 101 96 98 -98 106 -100 -101 112 108 104 -104 -106 107 -96 109 111 -111 -103 -95 115 -115 116 -114 -117 -110
right_child=1 2 -4 4 -6 6 7 19 9 -11 11 12 -14 40 -16 16 -18 18 -20 -21 21 24 -24 -25 25 83 -28 28 -30 -31 -32 32 33 34 -36 -37 37 -39 -40 -41 42 -43 -44 44 45 46 -48 48 62 50 -52 52 -54 54 -56 59 57 -59 -60 61 -62 -63 80 -65 65 67 -68 -69 69 -71 71 72 -74 -75 -76 76 -78 78 79 -81 92 -83 -84 -85 85 86 -88 -89 -90 90 -92 -93 -94 94 95 -97 97 -99 99 100 -102 102 103 -105 105 -107 -108 -109 118 110 -112 -113 113 114 -116 117 -118 -119 -120
leaf_value=-0.057821598446820742 25.909522598433124 983.44412271688077 84675096.915101305 -16.997482369341046 7834805.9490527809 2415375.7750575179 34409797.901432775 -36.464778821638859 10441.10746306546 9132105.815836437 5431.3368964782267 22913.720714916792 13941467.645918664 -25.513759402857485 -1543.237823200958 75.158738126348183 1754742.3178357359 -34.844750775332386 2507257.5594278388 788915.22165343352 153283.56330049169 137423.46104910687 3180821.8647390343 1714540.9607418086 47902.637084574468 49319.974762522797 4897853.6083721537 5027536.3373969095 1204.7063311186862 2057.670039282898 320382.6574541161 43649.2719580372 2218357.8829730065 -85.127698890500781 4902720.8692319179 2813.3118528065115 2139272.8873919412 7728.1583819154575 567.0896267909875 3813.4986408818982 2146.7850310472904 130857.86915634683 14643.023916245225 20.198744762627094 346.61649575880188 864435.66187291301 12145467.558042008 2445389.11962413 81661.897371414991 636.97855845917911 124910.99058819727 1268.1806885959836 976637.15906247473 53086.950411192855 1007432.5552031795 -99.523992354471787 147068.80149725996 2057342.9436751786 45625.421511544773 830.17241910674102 598051.77479469997 65873.856176281013 -93.643975152777401 246963.76894968006 11871.08185625976 -3.1792664761684581 1405053.3466147655 53181.097822566073 388003.73973216128 -58.097962429475416 296.20015789079122 188944.42571600611 385925.01880162198 9769.4352112619108 -472.78021453510684 7650.7692468089845 105518.32816819368 817.89573180502691 -1.3014252999662799 17510.87516772145 19101.296583738545 174541.29428979737 68418.55834354808 880.28611125195062 12120.311525484545 2427.2945837237171 728882.99295380071 203.91686440894824 26480.268788400936 191.23072846175674 2543.9856526062817 560.87076133619087 1455.5906228790868 13.208718981533337 -27.345417054674471 4106287.1923914053 12299.361759288642 698270.67695778667 229268.44988973491 3991.9327618853758 110885.6998915148 49271.868072017875 348946.35076747171 1015925.7135078643 -5.9508704222877151 71489.481421016681 1062.7837812543544 102192.10118181791 298.94405561412356 854644.95244942931 -36.470635552723458 -3.6063792297975072 -7.1248247881362197 788800.80010732426 -12.409332995766322 37418.179801782273 394252.02146351134 505.55791171165475 6151.7147589238048
leaf_weight=3687875.548914039 490.30669797073381 0.23959002504158355 0.002054888522557973 0.0041097770445048809 0.0016229131461433779 0.0019177858091311553 0.0019177025662032712 0.0038356325501496258 0.009031010558981591 0.0020548885229350047 0.0086257805255093301 0.0020552877552439943 0.0012171867099366462 0.0041097770496730801 0.0020637956820621639 3.752647386620978 0.079844141441881678 0.0090310105589963569 0.0020548885228748306 0.0019172909669578075 0.002462683006918708 0.058810578696683352 0.0029104951900784373 0.0028670756990276649 0.0049214672622865099 0.0028667442302097159 0.0020555215020312545 0.003835965489288439 0.27280890454212914 58.95172153438137 0.0019176908638323118 0.11790423113723569 0.0019176908638306447 0.0020548885228635063 0.0019178512516486723 0.033056981204548697 0.0020548885222634308 0.03045578866541776 8.8718947500451328 0.061150732095257759 1.0230712760651728 0.0039724132409368895 0.1664468464231218 613.50407661783504 0.26541337732109405 0.0024606167571619075 0.0020548889376432247 0.0012171849146940935 0.0028663452070420694 1.180397528200763 0.079845919996425319 0.1474687891678218 0.0023230198664823112 0.0071114273161110297 0.0020165383624000111 0.0024608511682270287 0.015745230717909064 0.0012175843504295672 0.20053972433655398 12.271763086034978 0.0020548885224052071 0.021516537312046391 0.0041097770809788757 0.0028663449964012599 0.0039730462144998971 0.31455069862036211 0.0019175858858915262 0.0097765326344330106 0.0012171847061033256 0.0090310105593549572 0.45056847234583763 0.0057521792493887549 0.0023249081319205436 0.023977530217092813 0.0045155054937746361 0.012329331133514643 0.003134475671686233 5.6047311349678521 0.23276401827841287 0.22674401469777195 0.0073818502736577854 0.0016229131516142335 0.0027287474376196394 0.049047626702223041 0.26115381944101446 0.44666922274343623 0.0061592202378413221 40.222311775804314 0.0089187690758421034 117.79113362148297 3.7038800154200535 8.3423855259218822 0.031176561583927426 1699.8609408174696 0.01150454427390446 0.0037865429209459336 0.0076693982855570173 0.0012172012747986285 0.0020533450962046942 0.011587024735532303 0.003834697284268219 0.0076698737832622222 0.0016232457107761061 0.0027437182594353049 0.02338722832772433 0.0052744672003093287 1.046499766507593 0.0041513294522630409 5.6566022016223734 0.0012164206200921948 0.0057525262454527493 0.1535967993249312 0.0097762989001382028 0.0019175247134101117 0.025312190329983775 0.01638509423219987 0.0019181576923671404 1.7478975331780651 0.19951273882631859
leaf_count=39285261 21466 88 10197 32 904 120 4561 17 49 1344 321 209 764 17 114 803 10381 200 141 529 123 417 471 236 86 70 556 940 546 25992 555 761 104 14 530 268 222 167 5087 704 3239 52 2323 40320 282 612 6572 600 290 6141 3314 414 287 183 927 26 268 157 9001 14562 58 127 35 299 163 219 245 677 238 402 611 350 847 263 160 21 111 224 133 118 53 73 327 342 495 1260 2294 9134 67 11117 2932 231 137 97812 49 8217 75 422 358 313 192 140 416 1236 20 185 2152 233 4004 576 37 231 6 211 112 605 117 1581 1027
internal_value=0.178073 1010.28 743240 70600.5 2.21801e+06 736.129 92172.5 8.79983e+06 37834.4 1.70124e+06 22696.1 1.07977e+06 5.19988e+06 8141.19 1.1626e+06 574.22 36631 21491.7 464718 262899 375.299 2933.1 213056 83128.2 2687.41 178090 1.47677e+06 2513.18 70900 2192.58 63888.4 136.073 3151.72 353031 2.36676e+06 124293 1641.37 142456 1132.13 9599.97 4303.03 64303.9 3895.36 -0.0135354 164.342 95358 5.99814e+06 14933.8 78655.9 116.556 3057.41 2355.6 30392.2 17111.6 263920 2012.02 10531.7 284188 7170.2 1043.58 272089 944.016 25836.1 91705.9 53.978 9873.49 465396 1600.01 2045.06 46032.3 49.027 5575.05 69204.7 44436.7 31419.8 1198.48 27488.3 92.4369 1410.61 8640.07 10595 49345.2 20568.6 3555.16 44.8212 413.834 12308.3 280.788 2706.02 79.5469 262.956 34.8594 4833.79 -0.0433609 31.1651 17368.1 3144.3 106257 2295.56 53918.8 30571.7 20.0759 1331.58 112956 31149.3 13151 1446.23 27077.3 719.597 8421.24 149147 2339.94 15.4074 2088.04 55536.1 1268.56 64660.4 848.37 498.343
internal_weight=3.69095e+06 700.013 0.258464 0.256409 0.00573269 699.754 1.23688 0.00767063 1.22921 0.0110859 1.21813 0.0165447 0.00327247 1.20158 0.00398158 698.518 3.83249 0.250676 0.0110859 0.00575292 694.685 59.4155 0.069391 0.0664805 59.3461 0.0588914 0.00697699 59.2872 0.276645 59.0105 0.0132722 635.27 9.06126 0.0389474 0.00397274 0.0349747 9.02231 0.0325107 8.9898 0.0636134 1.1976 0.00808219 1.18952 3.69025e+06 669.548 0.335934 0.00451551 0.331418 0.0557565 669.212 13.9434 13.8635 0.167839 0.165516 0.00912797 13.6957 1.3979 0.0169628 1.38094 12.2978 0.00451574 12.2933 0.0545393 0.0102482 655.269 0.330218 0.00589063 0.324327 0.275662 0.0102482 654.938 0.498087 0.0320546 0.0297297 0.00738185 0.466032 0.0154638 626.208 6.06424 0.459508 0.0442911 0.00573269 0.0113545 0.0519144 654.44 40.9363 0.452828 40.4835 0.156388 620.144 121.495 498.649 0.0385584 3.68958e+06 1708.81 1.0923 1.08852 0.0088866 1.07963 0.0174751 0.0154217 1707.72 6.05738 0.0330287 0.0302849 0.0286617 1.06216 0.0156559 6.02435 0.168236 0.00696895 0.161267 1701.66 1.80321 0.0272297 1.77598 0.0116945 1.76428 5.85611
internal_count=39619027 111144 11562 1365 936 99582 14541 5107 9434 1393 8041 2176 973 5865 234 85041 11184 429 341 546 73857 30483 1534 1063 28949 1054 642 27895 1486 26409 1203 43374 7153 916 544 372 6237 389 5848 827 5631 69 5562 39507883 102295 9753 7184 2569 1647 92542 35532 32218 1878 1591 1110 30340 15567 425 15142 14773 84 14689 1047 749 57010 1304 408 896 922 640 55706 2203 1460 613 450 743 132 36221 475 251 298 108 648 412 53503 13183 3554 9629 481 35746 14049 21697 190 39405588 120327 12011 3794 497 3297 863 505 108316 7872 1857 621 205 2434 282 6015 984 613 371 100444 2632 323 2309 123 2186 5031
is_linear=0
shrinkage=0.035


Tree=3
num_leaves=120
num_cat=3
split_feature=36 32 38 35 26 37 11 37 28 38 37 30 26 36 37 11 32 30 38 37 4 30 28 32 26 37 28 11 24 38 37 4 4 11 11 36 4 11 26 37 32 36 36 4 11 38 4 37 37 32 24 34 37 38 30 24 36 4 30 35 36 30 38 28 38 26 38 37 4 26 11 11 34 32 35 37 27 32 11 28 20 4 37 36 4 30 36 36 37 36 32 37 26 37 38 30 37 26 36 28 36 34 34 30 0 38 26 36 6 30 4 6 4 37 38 4 4 36 24
split_gain=1.0879e+12 2.5852e+14 6.95803e+13 1.36038e+15 1.44812e+14 1.57233e+14 2.86187e+13 3.05173e+13 1.19873e+12 3.58594e+11 1.49023e+13 1.29209e+10 1.16599e+12 3.98403e+09 5.91992e+12 1.59896e+14 5.86685e+13 7.22574e+12 7.72779e+11 4.85561e+12 5.51417e+09 6.20762e+09 2.64163e+09 7.40764e+08 6.11091e+08 9.59176e+09 5.55312e+08 2.4823e+09 5.38719e+08 5.29194e+08 1.82996e+11 1.53121e+14 2.58662e+14 2.74264e+13 8.1915e+13 3.36657e+09 1.11477e+09 8.74281e+10 1.18451e+09 8.30756e+08 2.70167e+09 1.28082e+10 2.07451e+09 6.29517e+10 5.68952e+08 4.68481e+08 3.20608e+08 3.11948e+08 2.29036e+08 2.51462e+09 1.54741e+08 1.46189e+08 1.40459e+08 7.24904e+08 8.90351e+08 5.75175e+07 8.06127e+09 2.04556e+11 2.37206e+11 3.81611e+10 9.7784e+08 1.00649e+10 5.29751e+07 1.10046e+10 5.73253e+09 5.66633e+07 4.45888e+07 1.2362e+10 2.59678e+12 8.6113e+12 5.23337e+11 1.67175e+12 2.6134e+10 9.12655e+08 7.46779e+09 8.98103e+08 4.33638e+09 1.07328e+10 2.37748e+09 1.75993e+10 7.01123e+08 1.13849e+08 4.95309e+07 9.49299e+08 1.11821e+11 3.12263e+07 5.42567e+08 3.98454e+09 2.72466e+07 7.34438e+09 1.70173e+07 1.81093e+07 1.60453e+07 7.90135e+07 1.48245e+07 2.07635e+08 1.32209e+07 4.0992e+07 1.87809e+09 4.48455e+09 2.66815e+08 4.68409e+10 1.14717e+08 1.1391e+07 2.04506e+08 1.19793e+08 2.71332e+07 1.02636e+08 8.84864e+06 8.69807e+06 8.33525e+06 6.9208e+06 1.16167e+08 9.10742e+09 4.27636e+10 7.39847e+08 4.99672e+07 1.68775e+11 6.47285e+06
threshold=-0.95498771670079485 9.5000000000000018 -0.97370362460411686 3.5000000000000004 9984500.0000000019 -0.99989353584114615 123681469130032.52 -0.99996632947340169 4.5000000000000009 -0.99805585360020521 -0.99959443844961815 544281.14583333337 13456454.29166667 -0.97359793171793563 -0.9990266137169127 123389411652263.52 38.500000000000007 527443.50000000012 -0.98643002706024252 -0.98287326681713005 402041.00000000006 25285351.411111116 7.5000000000000009 43.500000000000007 545948.50000000012 -0.99958029584372532 4.5000000000000009 126352939205034.52 2.5000000000000004 -0.98032949869882358 -0.98765762727289597 6881.5000000000009 4950.5000000000009 126498968127828.52 126524738290816.02 -0.99411419609649021 498075.00000000006 123174662849635.52 9405.5000000000018 -0.98928365646713468 9.5000000000000018 -0.99906422988002463 -0.99347436323218441 2005900.0000000002 123664289864323.52 -0.99501359932052436 6047400.0000000009 -0.91898655736702062 -0.99947089273283607 233.50000000000003 3.5000000000000004 66476.700000000012 -0.99953211564337063 -0.98830286640094012 74383.472222222234 9.5000000000000018 -0.98434841103404991 201364.00000000003 181252.75000000003 4.5000000000000009 -0.99556435978449664 9364461.2071428578 -0.98384625867620523 9.5000000000000018 -0.91415710449444798 56443.687500000007 -0.98384625867620523 -0.98765762727289597 49962500.000000007 25468901.750000004 126456018635333.52 126524738290816.02 44926058.333333336 98.500000000000014 4.5000000000000009 -0.99052939162525089 2.5000000000000004 75.500000000000014 124780981435841.52 26.500000000000004 14.500000000000002 10085500.000000002 -0.99513028672719894 -0.99174339808871348 49962500.000000007 52074687.828947373 -0.98905955704093462 -0.98029469677164982 -0.9992843448360752 -0.99516566885504221 60.500000000000007 -0.99997585414411094 6054000.0000000009 -0.99898609612404543 -0.99976329676786169 33107.666666666679 -0.99947089273283607 7487889.416666667 -0.98029469677164982 5.5000000000000009 -0.99593716786161968 9755199.3194444459 20822890.114331726 9364461.2071428578 0 -0.99735571635033438 6779810.9000000013 -0.99593716786161968 1 238465.83333333334 557818.50000000012 2 326090.50000000006 -0.99987296548481497 -0.99997655233786353 347147.50000000006 9959.5000000000018 -0.99945928696433051 20.500000000000004
decision_type=2 2 2 2 8 2 10 2 2 2 2 10 10 2 2 10 2 10 2 2 10 8 2 2 10 2 2 8 2 2 2 10 8 8 8 2 8 8 8 2 2 2 2 8 10 2 10 2 2 2 2 8 2 2 8 2 2 10 8 2 2 10 2 2 2 10 2 2 8 10 8 8 10 2 2 2 2 2 8 2 2 10 2 2 8 10 2 2 2 2 2 2 10 2 2 10 2 10 2 2 2 8 8 8 9 2 10 2 9 10 8 9 10 2 2 10 10 2 2
left_child=13 -2 9 -4 5 -5 8 -8 28 11 23 26 -13 29 20 -16 17 18 22 -20 24 -22 45 -11 52 109 27 -3 -6 66 39 32 -32 35 -35 -33 38 -38 -37 55 41 -41 46 44 -44 -17 51 -29 94 -50 -25 -42 62 -54 -55 85 60 58 -58 -59 -57 -62 -15 64 -64 -65 96 75 70 -70 73 -72 -71 81 -75 82 78 -78 79 -77 -80 -69 92 -84 -85 88 -87 -88 -31 -90 -52 -92 118 -94 -28 -96 111 103 100 -100 102 -102 -99 106 105 -105 108 -108 -98 -26 -106 112 116 115 -115 -114 -1 -118 -68
right_child=1 2 3 4 6 -7 7 -9 -10 10 -12 12 -14 14 15 16 -18 -19 19 -21 21 -23 -24 50 25 -27 48 47 -30 30 31 33 -34 34 -36 36 37 -39 -40 40 42 -43 43 -45 -46 -47 -48 -49 49 -51 90 -53 53 54 -56 56 57 59 -60 -61 61 -63 63 65 -66 -67 67 68 69 72 71 -73 -74 74 -76 76 77 -79 80 -81 -82 -83 83 84 -86 86 87 -89 89 -91 91 -93 93 -95 95 -97 97 98 99 -101 101 -103 -104 104 110 -107 107 -109 -110 -111 -112 -113 113 114 -116 -117 117 -119 -120
leaf_value=-0.068787352709314312 8150284.9170628395 -19523.31959037749 15779446.961948456 -12939.452819972203 3409.3667513012574 7418844.7823339384 -2584.8190423171923 3271840.3456412326 197866.37360231471 -11641.765210853408 1619949.2958279385 914455.73420992924 -518.30775080860599 -0.68918988659600566 13635109.916518398 -29895.591860969813 6431817.4142096611 3006186.2177965483 31143.966243973842 2597551.6830542642 11956.252000200973 -354.27971976496718 1065.8385474714942 -5305.0992238594927 -1.4360734062695286 27778.848849632119 -4.8597413998137071 -6868.6214746905071 -7.9096767292692931 0.0047233801451580662 290228.37139082071 7046.4554904463484 21690497.908548519 -15.88861607585808 9513696.1802896485 31480.009867509001 228918.9336128615 1070.4029408946503 388.58224882149329 -374.31185854315407 4101.3469490988464 135963.26117954784 8515.5188907195861 106315.70658324361 376.86262707525304 -12060.29382823577 4297.8588192783227 -221.98201217211835 8639.7461979397158 -1.0943902613484779 -15.014490756222997 -12.919261274282546 -94.641652991380568 -40.516495144007358 4623.1510526270349 -0.042885794626608326 -1400.1074844771888 94789.416198831139 738018.91359712393 926.0275844781703 818.83494545839869 35840.522393417756 -98020.986712107187 -1070.6426600589803 -5316.5309537816138 -11.281518703327714 0.25568131356472346 297.79862314518954 3542158.6364940288 191664.27078681201 -225.16535325625637 1581816.1176847769 -59.007643239378368 73658.893261637611 -9.7025860090961213 4629.6442519644888 132416.48303745946 -41.600220458630375 315.72618846526217 126482.56544667222 3894.6229714045721 3610.0675606228006 -3.6301936006817592 575.21179625908121 265457.59171482659 -1.1512338624034448 769.75263223869172 23146.886501585497 0.62883140198604115 2152.9576317119136 -9.7890700907471135 -2505.1649885901279 13.232827021137828 304.22952875790605 -89.667283330406633 -6174.5195612252246 1.090477530145205 -37.026796248066923 -25.275033171215981 7859.9515115901677 -119227.0362470353 -175.38138573428088 -1.8879867272494806 -22.350385050861064 -0.046386767838146763 -4.4754108260714878 -71.184641585747926 -2788.6343831904401 -0.19626275561482989 -462.33909797988514 -1.265021134034084 -0.043131982974518139 -5.9357437932515182 -3.7284036861037797 -176992.24714867151 -1207.1644128921146 -1.7858693736719764 -21765.092721321736 61.246193069016144
leaf_weight=34466.487405621228 0.0047732994339843007 0.009569564280937139 0.0069739177260172971 0.0069759328598967205 0.070487469324582996 0.0069733754820795815 0.006973313765191537 0.0069734041257306853 0.042249981895434718 0.0071251865428665342 0.0071251821774686022 0.0017270002992572078 0.14121138468072658 228.69488711166275 0.0010810848244352514 0.0035051969547237024 0.0017829584665689227 0.0010004034838208822 0.0073427174601265128 0.0010297313631193244 0.10042444104635116 0.10028503489605135 0.12253514577107932 0.007125172823457814 0.10024245083332063 0.016183413878979869 43.223504604707045 0.0095695565754754242 0.28501948830774215 4052.5157776168076 0.0019505692684847883 0.10726154787461339 0.0010721906930741959 0.0044153982048308303 0.001480368566012971 0.0015015612763725782 0.0020638183814288827 5.0688773134278291 4.345962845072461 0.0044878164108013152 0.010680537817847446 0.0010396388421746163 0.010986858058873811 0.0071052313359962196 0.24879871029970005 0.003717560366785751 0.02193981209525464 0.090014920912226737 0.045007461709949292 0.4950820580124855 0.25780585037641202 1.118539337556419 0.70220319220884919 0.10030367514679103 0.10028294899217863 68.907903865443757 0.0011249415358811957 0.0054485112690993145 0.0010074232977159091 0.20281227921693867 0.60971390749062226 0.010220927547115899 0.0021363274395264113 0.064921495288977282 0.0013232225440045174 1.3079352547719838 1934.3555862310691 3.1213037933898717 0.0010942397551484398 0.0012327599897621333 0.0034202407910081103 0.0010755180544586018 0.0029674779138255669 0.001909037418291625 0.014404132097150635 0.050589730635025712 0.0010661639407899539 0.0025219010825168198 1.2674653352507357 0.0014948844210707071 0.070800884329902503 0.012763963541912005 11.092257126913472 0.65089380916876338 0.0019582085444294064 4.2016219477714607 0.24321274438298598 0.010154775838625368 541.18827922294497 1.9491044791474212 0.0071251727640628815 0.0071251789390682774 15.36588977469756 1.234901357891151 0.19156349780815563 0.0071252100473391247 6641.3256498296114 138.03897844010731 0.29638666590455964 0.12587911463292589 0.0040528571108249794 3.7334429726490113 648.49349717419977 801.12122006435879 36282.882639526382 1076.3459485457111 5.1854078329329569 0.017082052219359656 418205.44662489399 0.10038941211108092 8483.0862824808137 3111747.6253048014 9.8197036832566216 0.0094764146524302095 0.0020306825689321304 0.67101754626099896 3728.0930434811726 0.43656053288032026 2.1339587376062346
leaf_count=119719 19630 5347 82115 3194 3577 20369 554 14801 10058 2585 19039 9108 2148 7571 32708 3066 18740 7005 5418 20456 3699 1350 1543 1138 11 1075 6255 1964 131 43160 4566 281 44295 113 37547 196 53 3923 6239 100 289 658 415 3503 368 1282 14 595 8221 55 141 1587 2467 945 2469 2115 294 644 1248 138 1373 745 5988 2153 202 503 27757 4473 18968 191 123 10205 75 86 84 2587 150 25 4777 253 1422 183 5193 1936 4918 246 347 156 14007 18885 4 532 1375 409 502 1376 606320 184503 278 1768 14082 18985 58026 521079 488028 167154 11487 1436 4339445 1676 365256 31540925 1897 15 10281 24138 265642 271650 452
internal_value=0.0199789 5445.27 4580.17 446307 195088 3.70227e+06 76258.1 1.63464e+06 21616 286.478 38850.2 30.547 10536.5 -0.0474583 145.133 226066 123192 42347.5 20882 346788 6.49529 5805.26 -146.597 -497.857 1.46106 1858.72 -3.52738 -2496.85 669.644 -0.0567213 11.704 4855.61 7.88103e+06 2357.82 2.38878e+06 880.782 810.564 1163.13 399.321 1.81708 847.19 25268.9 751.995 3532.23 721.063 -20715.7 107.412 -860.69 2.66329 718.976 -213.446 25.9948 -0.282351 435.43 2291.08 1.55938 33.1069 6873.77 347934 3381.68 12.4069 1396.24 -1.99207 -218.484 -62563 -61.378 -0.0719107 5.19307 2192.49 776672 892.77 378246 56211.3 354.267 8611.31 1.67759 889.764 39317.2 790.595 8126.95 505.067 311.288 1.04755 72.7074 1369.72 1.08111 93.699 1666.61 0.991327 8.35269 -80.0949 -1257.48 0.616614 34.8795 -6.24627 -307.877 -0.0747733 -0.24746 -8.20997 2325.34 -9.45686 -304.478 -8.05496 -0.234107 -0.753306 -12.0386 -0.177106 -80.1072 -0.176127 -232.056 -0.277254 -0.0488815 -0.517023 -116.905 -31237.3 -82.7699 -0.485156 -4.33406 0.322891
internal_weight=3.62917e+06 44.9452 44.9404 0.432627 0.425653 0.0139493 0.411704 0.0139467 0.397757 44.5078 0.293432 44.2144 0.142938 3.62912e+06 231.534 0.141995 0.140914 0.139131 0.13813 0.00837245 231.392 0.200709 0.129758 0.286307 231.191 0.216815 44.0714 0.109154 0.355507 3.62889e+06 4680.8 9.53459 0.00302276 9.53156 0.00589577 9.52567 9.41841 5.07094 4.34746 4671.27 1.42358 0.00552746 1.41805 0.266891 0.259786 0.00722276 1.15116 0.0995845 43.9623 0.54009 0.279181 1.12922 230.974 0.90279 0.200587 4669.85 69.7382 0.210393 0.00213236 0.208261 69.5278 0.619935 230.071 1.37632 0.00345955 1.37286 3.62421e+06 1969.39 3.16017 0.00529448 3.15488 0.00449576 0.00420024 3.15038 0.0163132 1966.23 1.39394 0.00358807 1.39035 0.0520846 1.33827 3.13407 1964.84 11.7451 0.652852 4600.11 4.45499 0.253368 4595.65 543.137 0.272056 0.0142504 1953.09 16.6008 43.4222 0.198689 3.62224e+06 472286 790.692 0.422266 790.27 3.7375 786.532 471495 46643.4 1877.47 424852 5.20249 424847 0.200632 44766 3.14995e+06 38205.5 10.5022 0.0115071 10.4907 38195 3728.53 1936.49
internal_count=39619027 213439 193809 134799 52684 23563 29121 15355 13766 59010 23439 35571 11256 39405588 120327 90218 57510 38770 31765 25874 30109 5049 5891 4400 25060 2762 24315 7906 3708 39285261 187505 97213 48861 48352 37660 10692 10411 3976 6435 90292 6934 758 6176 4286 783 4348 1890 2559 16409 8276 1815 1876 22298 5881 3414 83358 6557 2324 1542 782 4233 2118 16417 8846 6190 2656 39097756 85642 34388 19234 15154 10328 266 4826 170 51254 9214 175 9039 2840 6199 4656 42040 12047 6854 76801 749 503 76052 32892 677 536 29993 1784 8133 1878 39012114 6777847 277642 2046 275596 33067 242529 6500205 1541517 688233 4958688 12923 4945765 1687 853284 32234267 693342 36331 10296 26035 657011 537292 28209
cat_boundaries=0 1 2 3
cat_threshold=1 33219 19460
is_linear=0
shrinkage=0.035


Tree=4
num_leaves=120
num_cat=8
split_feature=38 11 4 28 25 28 32 33 33 30 4 28 33 11 32 11 11 17 28 26 32 32 4 19 11 11 26 38 17 26 32 33 28 31 28 30 38 30 30 14 38 4 33 30 33 31 21 32 26 28 28 27 38 33 38 33 32 11 28 32 28 32 38 30 33 30 11 32 21 19 27 1 4 1 1 4 33 28 38 25 19 38 38 1 38 33 11 26 9 6 4 4 30 25 38 30 4 30 38 25 22 33 11 4 38 28 30 38 17 32 6 28 28 23 11 11 28 38 30
split_gain=3.82395e+07 5.11334e+08 1.11757e+11 3.80238e+09 2.2187e+10 9.0056e+08 1.76424e+09 4.74112e+08 2.12124e+10 3.06356e+11 2.97452e+12 2.75915e+08 4.31819e+09 1.38928e+08 1.7434e+09 1.0907e+08 3.4818e+09 5.51494e+07 2.37577e+08 1.36408e+08 3.25143e+07 2.9373e+08 2.0126e+08 3.12514e+07 9.87095e+08 2.35782e+07 1.87293e+07 3.39009e+08 1.27817e+09 3.61426e+08 3.91076e+08 4.18698e+08 2.23477e+09 4.0416e+09 1.92403e+08 1.77526e+08 7.61427e+08 2.79248e+09 1.48507e+10 1.27646e+08 6.06495e+08 5.74557e+09 1.98707e+08 5.49797e+07 7.83349e+07 4.0091e+07 1.39871e+08 3.28782e+07 1.71184e+07 1.02266e+08 1.24332e+07 1.21051e+07 9.72423e+06 9.39988e+07 3.21017e+08 4.31636e+09 9.84662e+09 1.27681e+09 8.55561e+07 2.27851e+08 9.03652e+07 3.33825e+07 5.88864e+07 2.69524e+07 4.10734e+07 2.42237e+07 5.56994e+07 2.64306e+07 2.2124e+07 9.61694e+06 9.52399e+06 7.06568e+06 9.9047e+06 8.5888e+06 6.7765e+06 1.54062e+07 8.86364e+06 4.35148e+08 4.89697e+08 2.34106e+09 1.13796e+08 8.97267e+07 2.58157e+07 6.46629e+06 6.51534e+06 9.34563e+06 3.2014e+07 1.0051e+07 6.10451e+06 5.721e+06 1.80677e+09 2.27358e+10 2.29259e+11 4.08289e+09 1.53995e+09 1.11439e+09 1.4202e+08 1.9317e+10 3.89413e+10 1.48528e+09 5.73706e+07 1.05524e+09 5.70133e+06 4.82893e+06 5.84511e+08 1.08958e+09 1.03047e+07 4.55517e+06 3.57617e+08 6.8559e+08 7.02087e+07 8.00757e+09 4.13574e+07 4.00419e+06 3.82244e+07 3.87918e+06 1.98109e+08 3.20178e+06 4.92328e+07
threshold=-0.91415710449444798 123681469130032.52 100033.50000000001 18.500000000000004 1.0000000180025095e-35 3.5000000000000004 67.500000000000014 1067309.5000000002 1040163.5000000001 76947.500000000015 16754.000000000004 51.500000000000007 31221175.500000004 126327169183510.02 107.50000000000001 125038679704952.02 123775959051644.02 inf 13.500000000000002 6054000.0000000009 94.500000000000014 107.50000000000001 201.50000000000003 1.0000000180025095e-35 125700104488931.02 123406591238880.52 6779810.9000000013 -0.99199807674169194 1.0000000180025095e-35 13456454.29166667 232.50000000000003 126716020.00000001 10.500000000000002 1.5000000000000002 4.5000000000000009 4170174.1880341885 -0.99108753467180144 1988750.0000000002 3117392.8333333335 0 -0.98643002706024252 10085500.000000002 231998156.00000003 20986721.187500004 185362720.00000003 1.5000000000000002 2.5000000000000004 110.50000000000001 100445051.75000001 11.500000000000002 26.500000000000004 1.0000000180025095e-35 -0.99501359932052436 36531771.000000007 -0.99281630067986393 24442615.000000004 31.500000000000004 126215500267333.52 7.5000000000000009 20.500000000000004 11.500000000000002 168.50000000000003 -0.99413300993139209 4612738.4761904767 7391364.5000000009 18030285.600000005 123234793354343.02 132.50000000000003 4.5000000000000009 1.0000000180025095e-35 1.5000000000000002 1 557818.50000000012 2 3 9959.5000000000018 12509833.500000002 10.500000000000002 -0.99997655233786353 1461172.5000000002 inf -0.99630194693770802 -0.99994514774580234 4 -0.99974901155504525 70879886.500000015 123372232339930.02 25468901.750000004 5 6 846017.50000000012 2573325.5000000005 274067.16666666674 3009345.0000000005 -0.99993640003820883 86266940.050000012 374969.00000000006 39696.200000000004 -0.99997265098200872 1497387.5000000002 9.2063825488619049 12257920.000000002 125528304909861.02 1507125.0000000002 -0.99986553247831844 4.5000000000000009 2978891.5833333335 -0.98384625867620523 1.0000000180025095e-35 10.500000000000002 7 39.500000000000007 17.500000000000004 1.0000000180025095e-35 123947756898363.02 125691513719141.02 1.0000000180025095e-35 -0.9957312134062114 8343210.5000000009
decision_type=2 8 10 2 2 2 2 2 2 8 8 2 2 10 2 8 8 8 2 10 2 2 10 8 8 10 10 2 10 8 2 2 2 2 2 10 2 8 10 9 2 8 2 8 2 2 2 2 10 2 2 2 2 2 2 2 2 8 2 2 2 2 2 10 2 10 8 2 2 8 2 9 8 9 9 10 2 2 2 2 8 2 2 9 2 2 8 8 9 9 10 10 8 2 2 8 10 8 2 2 10 2 10 8 2 2 8 2 10 2 9 2 2 2 8 10 2 2 8
left_child=26 2 3 5 -5 -2 -7 8 15 -10 -11 13 -13 17 70 16 -3 18 -9 51 48 -22 -23 24 115 -8 71 52 29 30 31 32 34 -34 -29 36 -31 -38 -39 40 42 -42 -37 47 -45 46 -33 -41 69 -50 -47 -20 83 54 58 68 -57 -58 63 -60 -61 65 -63 -54 -65 66 -55 -68 -56 -19 -15 72 73 -1 75 -73 77 80 -79 -80 81 -77 -82 84 -28 86 -86 -88 -25 90 96 93 94 95 -93 -92 100 98 -98 -99 -76 -102 -64 -78 105 -105 -106 -91 110 -110 111 -109 -112 -67 -115 116 -17 -87 -119
right_child=1 7 -4 4 -6 6 25 11 9 10 -12 12 -14 14 -16 23 -18 20 19 -21 21 22 -24 88 -26 -27 27 28 -30 35 -32 45 33 -35 -36 39 37 38 -40 43 41 -43 -44 44 -46 50 -48 -49 49 -51 -52 -53 53 61 55 56 57 -59 59 60 -62 62 102 64 -66 113 67 -69 -70 -71 -72 74 -74 -75 89 76 103 78 79 -81 82 -83 -84 -85 85 117 87 -89 -90 107 91 92 -94 -95 -96 -97 97 99 -100 -101 101 -103 -104 104 106 -107 -108 108 109 -111 112 -113 -114 114 -116 -117 -118 118 -120
leaf_value=2.2169286281085534 -33.64109899647017 -82.221292203370169 165617.66632374976 88697.117340227211 -1403.3480754106952 -40025.348597353943 -753.14701498769432 -1253.8353070344488 -1.8270594074861848 900972.57921059837 -38.724681733924321 -30.337441859712051 10259.897686410484 -354.51594540207418 6418.886914106005 -49.621713092545598 -32137.05829443016 -82.4068982580728 -28.010045089330568 1916.4211831505609 1324.1772295004819 -4017.3598642679931 36.012722450417861 171.34577802653388 -17084.22329312297 -5381.8795030740166 0.8164432455085171 14.635091845063611 2291.7355529566476 302.08340271952466 2826.9404227355521 1678.2362016499142 7406.8236293586078 978.84544138194008 328.73631577498497 314.61366540471181 -15.228094341841661 -160.8793259529771 121314.17022177791 3.7772540161373542 16574.653920745626 520.20267384895567 17.971492136541521 137.1169188299846 25.868033684363716 -1.7067395100495135 125.53155486495832 159.30278273291782 -2.6320085603483969 1718.3620202644736 77.862205652363883 -259.98990752050889 741.16833637796947 528.89605884656601 -42.93268548193398 123455.50439898479 -153.84402175114235 42351.917817911504 2526.7485558439089 1613.9384103122759 192.02249729103409 594.68880439693555 -2.1208163913587676 1070.516198287313 -4.3863834589723236 1.0738652171275103 19.812938893453023 391.62992407334394 954.93626104052817 0.63121928725488063 -19.719858881004136 -0.096787710652935205 0.12562198411587513 0.13141740550230066 -0.034131748998125752 -356.13243819231303 -2.4808564137854279 -21.21611175612907 -1030.9883103160316 -26652.037890831725 -176.32245148191279 -16.258517646986611 -4.7839022808931837 0.15036094946371714 433.68918296550146 1.844671387768801 7.0729765292882645 31.975240888462757 -6.591596899270403 -0.064758336012764775 412.46461365896835 44382.245466786771 555905.06146330701 15246.391690890041 -84.448198009278656 16256.618718918726 -233.49166834756744 89.676615530793626 260824.40228355172 8674.5147561452031 184.91048044106176 1.1136169292158422 192.91251110387813 43543.771973188959 -5.0076547965791809 -160.14226811745698 337.04467361702524 336.5127972208187 -4.9104993932721852 2823.6347285090606 -0.1363305644293957 36282.816621528953 11.263582243935701 277.31888503074504 4.5188084157849104 -5.8635982080637881 -7696.0947354679256 458.32078820215582 6.138226789758277
leaf_weight=5550.5692359077802 1.5697347656810037 0.15997074921551302 0.0050136858915948981 0.0040428470820187403 0.019478500873731264 0.002025214815593146 0.0040428470820188522 0.2268349194594047 0.70710704103831545 0.0049838703125715247 0.045149313272418112 0.7605336301079062 0.053468083739553252 0.19254172102163458 0.055668011308133813 0.15997032821179313 0.0042615863888477703 1.7119661630924827 0.96877168728076668 0.04264558851725575 0.2280296689151079 0.015098353857759483 2.4490316515005306 0.23835881985723972 0.004261232657212676 0.0020225144509764537 6500.3830636238326 7.8061607280306777 0.30755184285010173 0.31187583488390436 0.066684964258455603 0.074946695966315757 0.12919917547222315 1.6511175219920335 3.442478808901793 3.5467085072000701 0.022929869687017213 0.0060928323054052482 0.0015455887608159524 211.65380640654502 0.027807406384353306 1.5182249734160822 12.56983689823614 9.180009132352124 49.897824039853219 12.670260759851743 1.373942893071413 1.6783055427712543 0.28871217370033164 0.049556847661733627 2.9694440370609323 0.38508502664354116 0.06245124662576973 0.26569803946641624 0.063643181406616844 0.0011381640164771483 0.0038684338802075229 0.0011152783845318486 0.055636954054293475 0.056905113088609682 1.4461462165567722 0.31744208536954144 0.73835519887044332 0.044058963656460448 3.7482069062528636 911.29955851614352 66.219973219969262 0.23502997984677065 0.047555496532589281 846.58167992175822 0.22656641900539398 1357.2542984595698 71766.603599508788 4296.4648868579097 17132.644345381079 2.0386833491305252 261.2967340564478 1.0013598066106184 0.84628318606173536 0.0043914034559056061 1.0784618037558846 1.784354412520887 310.16034958956067 40564.528558963306 0.21780658600480696 954.64963050672634 234.67389720220237 21.690091457436012 25.897562434667076 3473497.7099269 0.84700317170380235 0.001050853868013458 0.0010031220835549576 0.023684811436851638 0.010357043662792893 0.0054730709138945946 0.0020982613495002522 4.8872122223272987 0.0010503438718941762 0.024812952962701362 39.926534448675397 919.88509015380112 0.24438007332850065 0.0010839478869683053 1.0875049392346943 0.001966701066687282 0.11977451438298237 2.2578229089130244 0.30384637478878579 0.16037987255562663 5651.9247933105607 0.0076171201282279047 418.72123307630227 0.67717406199399088 8.8810603489973108 0.15997032821178436 0.004261232657212676 0.30777978642172743 7.081509190023799
leaf_count=213250 1770 382 3159 896 1085 3065 128 10942 45 103 162 797 4663 2301 780 231 4215 10575 902 612 1046 1958 2135 193 2112 334 90500 1321 304 49 49 667 1601 3808 2574 1466 19 80 84 8574 482 2690 1169 2915 10950 1141 840 835 279 583 2356 3753 79 170 214 93 68 22 108 357 368 53 117 10 1484 10170 8095 140 131 38790 147 7156 82386 305059 53707 31352 43645 4755 28973 6337 12578 1675 62287 1103841 37 24170 9176 1517 6062 36498372 16709 282 5756 4610 1085 2782 51 35865 3289 5764 325199 88134 14 604 2769 1709 1962 8895 52 874 308513 295 50984 92 454 37 958 81 577
internal_value=-0.0423696 7.23936 631.123 114.564 14083.1 -93.6715 -11740.8 6.10262 149.451 5925.85 89533.2 1.50702 645.581 0.892699 599.44 -14.8128 -913.997 0.55953 -203.248 -32.6005 0.948158 122.39 11.1767 -9.23261 -348.504 -2296.61 -0.044141 0.631329 36.4884 34.3249 149.595 143.667 293.121 1445.33 110.761 22.3443 818.776 6090.38 24418.9 21.4041 93.7159 808.963 83.2524 12.8052 43.1548 29.7177 205.848 5.00079 0.562903 249.496 13.4007 -93.9934 0.397822 3.82381 147.713 1959.01 30571 9358.29 108.458 327.272 245.856 3.01905 180.25 19.9785 8.10195 2.78572 23.15 21.1279 383.818 0.463638 -173.528 -0.0534961 0.268412 1.30936 -0.0610038 -2.12546 -6.91416 -10.854 -545.774 -1163.25 -7.70955 -197.501 -5.37829 0.327263 1.25509 3.60522 9.54023 9.17987 -4.96881 -0.0598546 0.560644 1578.76 48618.5 912.435 4011.66 514.187 0.483465 188.594 86852.9 133.043 0.432361 8.75925 46.3788 -2.15778 67.5913 15368.6 28.9274 -0.0630836 0.894608 972.289 0.820352 84.4778 0.648907 1.31023 23.8459 -128.534 -248.021 2.02231 24.9726
internal_weight=3.6317e+06 883.228 1.60636 1.60135 0.0235213 1.57783 0.00809058 881.622 27.3859 0.75724 0.0501332 854.236 0.814002 853.422 0.474776 26.6286 0.164232 852.947 1.62334 1.3965 851.324 2.69216 2.46413 26.4644 0.328463 0.00606536 3.63082e+06 49598.8 320.907 320.599 30.1842 30.1176 13.029 1.78032 11.2486 290.415 0.342444 0.0305683 0.00763842 290.073 17.6626 1.54603 16.1165 272.41 59.0778 17.0886 1.44889 213.332 848.632 0.338269 15.6397 1.35386 49277.9 994.409 5.53073 0.117321 0.00612188 0.00498371 5.41341 1.55869 1.50305 988.879 1.30018 3.85472 3.79227 987.578 66.7207 66.455 0.111199 848.294 0.419108 3.58122e+06 81613.6 9847.03 3.49961e+06 1936.68 579.421 316.914 1.85203 0.850675 315.062 3.82304 311.239 48283.5 7719 1218.62 256.582 256.364 26.1359 3.49767e+06 18098.3 0.888572 0.012411 0.876161 0.0114079 0.852476 18097.4 4.91517 0.00314861 4.91203 18092.5 959.812 0.982735 262.507 1.21033 0.00305065 1.20728 3.47957e+06 6073.38 0.464226 6072.91 2.26544 6070.65 920.858 9.55823 0.324202 0.164232 962.039 7.38929
internal_count=39619027 105200 10437 7278 1981 5297 3527 94763 14500 310 265 80263 5460 74803 3228 14190 4597 71575 16209 5267 55366 5139 4093 9593 3338 462 39513827 1296112 43974 43670 14357 14308 9304 5409 3895 29313 232 183 164 29081 5807 3172 2635 23274 13865 5004 1507 9409 50227 862 3497 4655 1252138 22239 2934 528 183 90 2406 833 725 19305 184 1573 1494 19121 8405 8235 345 49365 2448 38217715 600695 518309 37617020 205802 198646 147957 40065 35310 107892 33027 74865 1229899 126058 35558 10730 10693 6255 37411218 543233 31224 7123 24101 1367 19491 512009 44969 3340 41629 467040 413333 131 50689 7044 2313 4731 36867985 369613 926 368687 9190 359497 10716 546 1226 1189 24828 658
cat_boundaries=0 1 5 8 10 14 15 16 17
cat_threshold=2183 2107520 2718367872 134742529 1 2107392 33751040 512 4194304 524292 4549120 806617600 9 4 1 180544 65536
is_linear=0
shrinkage=0.035


Tree=5
num_leaves=120
num_cat=8
split_feature=36 38 29 38 11 26 38 34 32 37 32 11 36 25 32 29 20 29 38 20 37 38 37 4 11 38 26 29 26 21 20 32 25 37 34 25 38 4 26 37 11 11 29 4 38 36 38 20 34 26 36 34 37 38 34 37 38 36 26 37 17 34 37 34 4 38 38 4 37 38 34 37 4 37 1 26 20 34 17 37 36 34 32 32 1 37 34 25 36 1 6 37 36 4 4 25 36 4 32 4 34 34 22 34 37 6 38 36 37 1 38 38 32 32 38 1 26 1 4
split_gain=2.81861e+08 8.21589e+11 4.5218e+09 7.68833e+10 6.28056e+10 6.54559e+08 5.76785e+08 4.90863e+10 1.52746e+08 4.87698e+07 1.47338e+08 2.88238e+07 2.51069e+07 2.12046e+10 1.03982e+11 1.24439e+09 1.8493e+10 3.17153e+09 6.6011e+09 1.23462e+09 4.76498e+09 5.58614e+08 4.42033e+09 2.15671e+08 1.84543e+09 8.02761e+10 1.95549e+11 5.34781e+08 4.13848e+09 1.60053e+08 1.96581e+08 1.10305e+08 1.58245e+10 6.11091e+10 1.15072e+09 9.59704e+07 5.17971e+08 4.07196e+08 2.70677e+07 2.45949e+07 2.4295e+07 2.2252e+07 1.55303e+07 7.20635e+08 2.09382e+07 1.23627e+07 9.08344e+07 9.86477e+07 2.17581e+07 9.28913e+06 5.44031e+08 5.49489e+10 5.27219e+12 1.04769e+10 1.35208e+11 2.01568e+11 3.56537e+10 9.75276e+09 5.63367e+09 1.03759e+10 2.67922e+09 6.60244e+10 1.68959e+09 1.02069e+09 3.25308e+08 1.10985e+09 6.31346e+08 1.65397e+08 3.2394e+07 3.52598e+08 2.80352e+08 2.28289e+09 3.65944e+10 4.7777e+08 1.78779e+08 2.80104e+08 5.63141e+09 2.24901e+08 4.72883e+07 3.92133e+07 1.7338e+07 1.06149e+07 5.75842e+07 7.99635e+06 5.70098e+06 6.26174e+06 1.7915e+07 1.73412e+07 6.59931e+06 4.93101e+06 3.93624e+06 1.77942e+09 1.1853e+12 4.58463e+12 2.27761e+10 7.74509e+11 7.61077e+09 1.18801e+08 3.00403e+08 1.62052e+10 1.97391e+08 6.99877e+07 1.74889e+07 7.88024e+09 4.77826e+06 7.42935e+08 1.07181e+11 7.24966e+11 1.41965e+10 1.68967e+07 1.64363e+10 3.59953e+08 3.79643e+06 3.57624e+06 4.7744e+06 4.01406e+06 2.53039e+06 2.49451e+06 3.88656e+06
threshold=-0.95498771670079485 -0.99538798456313426 1095441.0000000002 -0.9999236200823568 126447428050346.52 inf -0.99939263146525315 266806.22916666669 62.500000000000007 -0.96101530657548861 297.50000000000006 123337871624733.52 -0.98029469677164982 30043500.000000004 7.5000000000000009 120181921.00000001 15.500000000000002 150189706.50000003 -0.98985603458423765 9.5000000000000018 -0.99984394342294991 -0.99838373390207336 -0.99975059833308044 9970500.0000000019 124256994804242.02 -0.98830286640094012 13456454.29166667 14349803.000000002 17161500.000000004 4.5000000000000009 6.5000000000000009 115.50000000000001 600910.00000000012 -0.99975647963791203 77923.341183574885 19937500.000000004 -0.99199807674169194 498075.00000000006 81077.400000000009 -0.99930477129982243 123982117313626.02 124403024131681.52 22532693.000000004 218875.00000000003 -0.91415710449444798 -0.90197117769329471 -0.99997437919898624 1.0000000180025095e-35 650319.13603603619 6779810.9000000013 -0.99516566885504221 4327294.8054054063 -0.99930477129982243 -0.99630194693770802 12181176.611764709 -0.99959443844961815 -0.99864812365690603 -0.98434841103404991 13456454.29166667 -0.99918903749861765 inf 12181176.611764709 -0.99987866785484536 9755199.3194444459 6047400.0000000009 -0.99602346945987275 -0.98643002706024252 5167945.5000000009 -0.99947089273283607 -0.99974901155504525 20822890.114331726 -0.9992843448360752 1287952.0000000002 -0.99898609612404543 0 7487889.416666667 9.5000000000000018 13712279.358333336 1.0000000180025095e-35 -0.99942070830432617 -0.99623019345349728 25674739.361904766 12.500000000000002 36.500000000000007 1 -0.99994611965968849 7313279.6695402311 7391446.5000000009 -0.99872001734895466 2 3 -0.99847932960835728 -0.99467262659396238 374969.00000000006 34862.500000000007 1002.5000000000001 -0.99672197391894646 347147.50000000006 14.500000000000002 752556.50000000012 43338.608139534896 1822247.8851351354 9.2063825488619049 54256.502840909096 -0.99837743234519449 4 -0.99967985320042629 -0.99934821769080584 -0.99728095653880444 5 -0.99654984620533005 -0.96098695656411059 257.50000000000006 18.500000000000004 -0.99991264983042083 6 4965.2500000000009 7 9959.5000000000018
decision_type=2 2 2 2 10 8 2 10 2 2 2 10 2 2 2 2 2 2 2 2 2 2 2 10 10 2 10 2 8 2 2 2 2 2 8 2 2 8 10 2 8 8 2 10 2 2 2 2 8 10 2 10 2 2 8 2 2 2 8 2 8 8 2 8 8 2 2 8 2 2 10 2 8 2 9 10 2 10 10 2 2 10 2 2 9 2 8 2 2 9 9 2 2 10 8 2 2 10 2 10 8 10 10 10 2 9 2 2 2 9 2 2 2 2 2 9 8 9 10
left_child=12 2 6 5 -5 -4 9 -8 -9 45 -11 -7 49 15 41 23 17 18 -17 20 -19 -21 -23 31 25 27 -27 -25 -29 39 -31 35 34 -34 -33 42 40 -38 -36 -26 -37 -15 44 -44 -14 -2 47 -47 116 89 68 52 62 54 55 -53 57 -56 59 67 61 -60 -52 -62 65 -64 -66 -55 84 70 71 72 -70 -73 75 76 -71 -77 79 -76 -80 82 -72 -50 85 -51 87 -87 -88 -1 91 97 94 -94 95 -93 -96 102 99 -99 -100 -95 -91 -104 113 106 107 -106 -108 110 -107 -111 -10 114 -92 -116 -48 -115 -119
right_child=1 -3 3 4 -6 11 7 8 112 10 -12 -13 13 14 -16 16 -18 19 -20 21 -22 22 -24 24 29 26 -28 28 -30 30 -32 32 33 -35 38 36 37 -39 -40 -41 -42 -43 43 -45 -46 46 48 -49 83 50 51 53 -54 58 56 -57 -58 -59 60 -61 63 -63 64 -65 66 -67 -68 -69 69 74 81 73 -74 -75 78 77 -78 -79 80 -81 -82 -83 -84 -85 -86 86 88 -89 -90 90 104 92 93 101 96 -97 -98 98 100 -101 -102 -103 103 -105 105 109 108 -109 -110 111 -112 -113 -114 117 115 -117 -118 118 -120
leaf_value=0.17960042827640729 -0.5610346536875942 168079.61867687627 -8876.2021121024372 127945.60111800158 8277.2430310596974 -12.955259948256527 91620.713769189606 957.80722763566087 -215.26750184868953 1427.1149517884396 -1.9395593454290825 -1859.9028377027716 0.64383352989724973 717.38805233013159 48807.156671878329 -2237.2667100215331 88952.693757138739 -522.64476100024456 92916.402379157487 -7.9940210054302039 47991.125476586385 -445.87669599101349 50814.613535659017 -29.670385702208886 350.86108600075266 486791.10445962398 -339.99442094291572 -261.59413265979259 61770.185603770282 -39.16446576832243 2430.1660969761983 11094.952891619952 -190.80865357211758 213332.16106029195 -18.770286350580527 375.19985312429185 275.19719344785568 2731.2486022710373 1185.4358577017215 -3.4140477628241035 14.909113984093022 -8.9206792836784849 16.201845598855247 2881.2800579458108 116.33863320456842 -12.993955113549712 -569.99815578089328 -4755.6735530541446 -576.512891128006 0.20177526302817178 -32456.775075505586 -47245.41129968984 1309916.7048611403 1204.0227838260491 2818.2557210872783 524099.93957863428 174057.26259467882 92115.657936160846 121309.05059020429 13801.884352968467 1275.7571130551387 1217.0738020363913 36604.78433608773 9.1853102714711312 -10182.572870280681 2350.3188651601336 115.960776333045 -776.93658506133704 -0.79362209491652358 22759.26697322723 -5396.4083447561234 520.81985076293608 72434.369008945636 79.96450706634414 91.845177370124702 138.90473765290844 133.95792254426027 3.8166564420160305 125.3533493919989 0.81356892077225429 396.71093748025703 -11.23578367319635 -115.32022047837287 -1745.8961167075227 0.1047649115528881 -0.29490172563053119 -2.0710534487921066 -9.274222937339287 -0.048232245684259524 -0.067068163635751188 -0.026097294339961708 4432.2239167117532 2056123.6026516838 -10012.411074476262 47.742947553621825 986078.51253572945 66407.612629564799 454.50714377092476 1879.8610881080353 80348.714925528053 55.369462522180321 -58.530684273660569 2038.7044933267348 0.84665234887167518 -924385.56243193964 -22469.772129361703 -30150.24364428387 -27368.15158489002 -232.52058372768707 -0.23551428814107606 -6.1691264426932415 533.3663292665924 -0.7020029345892107 -0.032689373827713281 -0.35186160916573339 -0.092060389585761945 -28.849835442650132 -0.075473069152486014 -0.37667809303254862
leaf_weight=105833.19268809029 190.66699692189215 0.035636798670565351 0.010744980633635715 0.010744980536396498 0.010744980536401272 0.28223324287682772 0.0072428187671488278 0.24895058551911131 0.11785440971339123 0.11783974625737315 0.35351923853158951 0.010744980538589743 2332.9296358885344 0.064381666481274857 0.064381666484442435 0.0024092124249166513 0.0029869293289690449 0.010178315808452977 0.00141920776823412 0.24404047382474703 0.0032790851068951075 0.015384210295506406 0.0023794874670488566 0.22664609797354163 0.25822648834054129 0.001436351870099605 0.00339676369912989 0.01043742524634861 0.0015078226974341016 0.081402669677408945 0.076708324896864744 0.011497395345104857 0.0078860329595448475 0.0020736775006837413 2.2050389992747332 0.24987038971693132 0.16537922620784029 0.16538950597681201 0.023105329253659934 3.4100459421157137 2.7809431454334685 0.26176746189594269 18.914606559792169 0.1081570023277959 1.9178069200220296 0.010744980536401272 0.01074498177348493 0.010744980542654048 0.021489961074991015 6305.2951982741033 0.0019593773093542479 0.0015068141183954258 0.0038033845546116543 0.10318886288516799 0.26499975194309194 0.0015188928399537506 0.0015067756926031009 0.001506775318340369 0.005656778769397513 0.10323878905003137 0.78183002356009401 0.65119044190222874 0.0012444868825240976 252.66219338757156 0.0074554105397551798 0.016805646097469568 0.33290360228076898 0.10333651037570313 0.13891513910588954 0.01405401258938338 0.0025359330246476066 3.1732854591284925 0.009103740672550209 59.015444181195285 5.8013735627091583 25.71745462761136 0.32772048541564575 36.557874125226313 1.4989976289141638 7294.0497996274516 0.35716218966556157 30.922617069957919 0.96059018674717311 0.010744980537651827 41734.996656076692 457.44813770259759 2905.7966826970842 621.31395252204209 6172.401963678456 134328.33055814219 230677.07165183045 0.051806366872540921 0.0016723348495929491 0.0010312165393675521 13.459127056903974 0.0010036578840173496 0.0021174940827809454 0.68160643425523948 0.073069304370966148 0.0031242591948515966 12.384026208065839 0.0053785588300456766 2.3248107475810675 16937.602222274378 0.0011793185501758332 0.039908479282927511 0.019474447805337358 0.017213460831159932 8.3966299927088919 133795.29509194882 204.41271435069655 1.5486483487184148 0.70703847706317902 2295832.337645988 166907.14224567867 129315.47576618093 0.71100187132165482 260748.58902441745 65700.821029219427
leaf_count=593830 6180 169938 2966 12309 228 112 5008 3596 1658 6088 30 630 186731 49 10889 236 643 178 353 123 1185 219 949 237 176 514 56 136 66 251 159 486 75 1114 3427 37 84 836 679 873 262 105 4968 1034 2585 4 212 1564 561 188956 1885 2042 6775 569 4714 3460 1794 340 1345 4330 3061 3923 75 13949 2432 252 301 2602 2214 1315 405 19050 17584 37355 4562 29360 1744 19279 167 111802 24 14025 3480 953 399612 6185 176529 166410 18599 480879 2499083 89328 37425 868 196728 80908 5429 16041 1411 7814 133256 203 449940 2584720 31150 73186 16779 13483 56155 1808261 75439 4673 24 20482281 2690153 1307135 1378 1479659 2697150
internal_value=-0.043404 42.2133 11.2371 4134.81 68111.4 -391.856 4.28852 810.455 197.962 -0.252773 355.324 -80.6921 -0.0456682 3.55993 8158.48 2.21265 2326.75 1399.65 33036.5 959.632 11298.4 428.192 6420.58 1.93523 256.503 3211.39 144430 350.74 7568.54 68.5204 1158.84 1.49613 246.462 44266.1 50.7062 1.26235 188.139 1503.26 -6.28295 21.525 44.6127 134.452 0.995474 32.4917 0.738863 -1.12825 -140.592 -2384.33 -76.6408 -0.048032 0.363659 51.3823 13637.1 31.9559 6909.56 239568 4283 3323.13 24.6288 4741.82 18.8782 2251.31 -43.9932 13.0925 133.203 4712.03 -109.624 212.835 0.165473 2.33711 69.6146 112.793 4454.25 102.46 1.47633 56.124 1064.33 59.6031 0.929555 0.885914 177.568 -14.7997 -129.225 -966.307 -0.112844 -0.664185 -1.20241 -5.46655 -0.695707 -0.0556965 -0.0629475 0.111596 401.592 424133 148.179 23088.5 58.1816 0.0757171 105.304 819.045 66.0713 -1659.93 0.0665752 1.12632 -0.0709911 -0.275676 -222.452 -84883.6 -301.749 -0.245073 -10.0618 -0.229321 -31.3575 -0.0622812 -0.145488 -0.238461 -36.9062 -0.0455623 -0.136089
internal_weight=3.60879e+06 193.356 193.32 0.325213 0.02149 0.303723 192.995 1.08109 1.07384 191.914 0.471359 0.292978 3.60859e+06 2364.22 0.390531 2363.83 0.282077 0.27909 0.00382842 0.275262 0.0134574 0.261804 0.0177637 2363.55 4.06981 0.243424 0.00483312 0.238591 0.0119452 3.82638 0.158111 2359.48 2.2496 0.00995971 2.23964 2357.23 3.36158 0.330769 2.22814 3.66827 3.03081 0.326149 2353.87 19.0228 2334.85 191.442 0.775472 0.02149 0.753982 3.60623e+06 65910.8 255.046 0.364172 254.682 0.271039 0.00302571 0.268013 0.266507 254.411 0.309764 254.101 0.656847 0.360369 253.444 0.358409 0.0180501 0.340359 0.206525 65655.8 7458.55 94.2225 62.3367 0.148019 62.1887 7364.32 62.6171 0.341774 62.2753 7301.71 7299.85 1.85616 31.8857 0.963126 0.0322349 58197.3 16462.3 10157 1078.76 9078.2 3.54032e+06 3.43449e+06 151295 13.5221 0.00808211 13.5141 0.05281 13.4612 151281 13.1418 0.684731 12.4571 0.00640978 151268 16939.9 3.28319e+06 134010 8.4345 0.0183928 8.4161 134001 204.453 133797 0.824893 3.14918e+06 526900 296223 0.721747 2.62228e+06 326449
internal_count=39619027 213439 43501 16245 12537 3708 27256 10286 5278 16970 6118 742 39405588 219715 11043 208672 3886 3243 589 2654 1363 1291 1168 204786 2468 1009 570 439 202 1459 410 202318 5781 1189 4592 196537 1219 920 4106 1049 299 154 195318 6002 189316 10852 4672 1568 3104 39185873 1272506 53849 11720 42129 12350 5502 6848 5054 29779 7501 22278 5268 4945 17010 3060 327 2733 3171 1218657 262366 94113 76203 19798 56405 168253 51698 3059 48639 116555 116364 191 17910 3885 1514 956291 556679 367723 172595 195128 37913367 37319537 4084950 410889 38496 372393 170236 202157 3674061 158522 23855 134667 1071 3515539 3034660 33234587 2079126 117567 44633 72934 1961559 148625 1812934 1682 31155461 6496371 3997288 1590 24659090 4176809
cat_boundaries=0 1 4 8 9 10 11 14 18
cat_threshold=1068 5125 268435972 128 2107520 2718367872 134742528 1 184769 516 256 1623594005 341345348 4207649 51036271 270564611 67117248 12
is_linear=0
shrinkage=0.035


Tree=6
num_leaves=120
num_cat=11
split_feature=36 38 36 38 11 32 38 32 28 34 36 4 38 28 28 28 26 11 25 28 4 11 4 31 28 25 25 34 21 11 28 33 36 25 32 28 38 26 11 38 1 32 28 11 38 36 26 28 11 33 11 31 27 11 25 33 1 4 1 4 38 36 4 36 36 32 38 25 38 1 36 4 11 11 28 32 11 4 15 38 34 7 33 32 25 38 4 15 28 15 1 32 34 36 1 15 4 38 32 38 38 26 34 26 32 34 32 36 4 35 28 4 33 33 21 33 11 11 34
split_gain=5.74956e+08 3.56731e+11 7.20075e+07 1.05952e+10 5.89499e+10 6.55015e+08 3.56647e+07 2.97629e+08 3.9295e+07 3.90155e+07 2.58926e+07 2.49342e+09 2.67287e+11 4.49303e+09 4.50454e+10 5.94052e+08 3.95472e+11 1.07804e+12 3.44577e+09 9.83749e+10 5.22994e+09 1.73338e+09 1.0671e+08 5.85137e+07 5.67534e+07 1.03709e+10 1.195e+12 6.0615e+08 4.01578e+09 2.54408e+08 2.64923e+07 6.62461e+07 1.99421e+07 1.60385e+10 3.17581e+10 7.54741e+08 1.88383e+07 8.77164e+06 8.98663e+07 7.07734e+06 5.37559e+06 2.97523e+06 2.9633e+06 6.34896e+06 2.63215e+06 1.95966e+08 1.20853e+09 1.44354e+10 2.9582e+07 1.85051e+08 1.54436e+07 3.22082e+06 4.04136e+07 3.12263e+06 2.55344e+06 2.48935e+06 2.39035e+06 1.43003e+08 2.35408e+06 2.07204e+07 7.51576e+07 9.15729e+08 1.98827e+07 3.43755e+07 1.10852e+07 2.26282e+06 3.49783e+06 2.05531e+08 2.66281e+06 3.31745e+06 2.26315e+06 1.53002e+06 1.40786e+06 4.96306e+07 1.96082e+06 4.60224e+06 5.02305e+06 785466 900562 550057 754878 438435 504056 420458 401330 1.46222e+06 379696 417425 370303 357994 351518 338431 314923 199182 180807 174949 161556 153696 152706 147247 140667 126100 119904 847681 83161.6 71995.3 41833.2 39617.3 27698.7 26595.3 23051.5 18694 17708 41387.9 12973.9 4917.2 4416.42 3390.19 218.822
threshold=-0.90197117769329471 -0.99977031232248759 -0.95498771670079485 -0.99974116909785415 124136735665558.52 261.50000000000006 -0.99986553247831844 22.500000000000004 11.500000000000002 37533.900000000001 -0.98029469677164982 16834361.500000004 -0.98384625867620523 7.5000000000000009 8.5000000000000018 13.500000000000002 600630.00000000012 123544030110535.52 704249.00000000012 24.500000000000004 374969.00000000006 123337871624733.52 495420.50000000006 4.5000000000000009 9.5000000000000018 917783.00000000012 1497387.5000000002 8025587.1333333338 4.5000000000000009 125004318996164.02 1.5000000000000002 3997062.5000000005 -0.97359793171793563 9432075.0000000019 6.5000000000000009 1.5000000000000002 -0.97370362460411686 251362.50000000003 124875470511689.02 -0.99944701130549207 0 268.50000000000006 50.500000000000007 125004318996164.02 -0.91415710449444798 -0.99347436323218441 853.25000000000011 4.5000000000000009 123629929276434.02 13063010.500000002 125837543205439.52 4.5000000000000009 2.5000000000000004 124961369565494.02 758456.00000000012 7009117.0000000009 1 6047400.0000000009 2 5167945.5000000009 -0.9998355126801538 -0.99971704356394187 9959.5000000000018 -0.99743728594758696 -0.99593716786161968 18.500000000000004 -0.98384625867620523 71277882.000000015 -0.99991264983042083 3 -0.99556435978449664 10085500.000000002 123921987087497.02 123861858619859.52 9.5000000000000018 297.50000000000006 126258449530489.02 900922.50000000012 4 -0.99991419040745544 179025.50000000003 5 1119333.5000000002 91.500000000000014 6951405.5000000009 -0.98384625867620523 182682.00000000003 6 10.500000000000002 7 8 26.500000000000004 1686504.5000000002 -0.98434841103404991 9 10 302377.50000000006 -0.99991137695981902 30.500000000000004 -0.99999052135408528 -0.99997307476340136 100346.25000000001 2247065.6364734303 91976.000000000015 20.500000000000004 555666.30341880361 10.500000000000002 -0.99062370025704871 798680.00000000012 4.5000000000000009 19.500000000000004 9912.5000000000018 2455155.5000000005 5144216.5000000009 5.5000000000000009 30170565.500000004 inf 124471743341866.02 4985183.9843750009
decision_type=2 2 2 2 10 2 2 2 2 8 2 10 2 2 2 2 10 8 2 2 10 10 10 2 2 2 2 10 2 8 2 2 2 2 2 2 2 10 8 2 9 2 2 10 2 2 10 2 10 2 10 2 2 8 2 2 9 10 9 10 2 2 10 2 2 2 2 2 2 9 2 10 8 10 2 2 10 10 9 2 8 9 2 2 2 2 10 9 2 9 9 2 8 2 9 9 10 2 2 2 2 10 8 10 2 8 2 2 10 2 2 8 2 2 2 2 8 8 10
left_child=2 6 10 37 -5 -6 8 -8 55 -10 40 15 13 30 105 24 18 21 22 20 -20 -18 23 -17 32 27 29 36 -29 -27 31 -13 56 35 -35 -34 -26 42 54 -23 77 -7 72 -44 58 48 50 -48 51 53 91 83 -53 -50 114 100 57 -12 59 62 61 -61 111 -64 -62 68 70 -68 90 -70 -67 -58 73 88 75 76 -74 81 92 80 104 82 -1 -46 107 -86 94 96 -4 -82 -60 -47 97 -89 98 -96 -88 117 -83 -76 101 -2 109 -104 -80 -15 -102 -81 -84 -32 -101 -42 116 -114 -39 -90 -108 -79 -94
right_child=1 -3 3 4 5 41 7 -9 9 -11 11 12 -14 14 -16 16 17 -19 19 -21 -22 39 -24 -25 25 26 -28 28 -30 -31 102 -33 33 34 -36 -37 -38 38 -40 -41 44 -43 43 -45 45 46 47 -49 49 -51 -52 52 -54 -55 -56 -57 71 -59 65 60 64 -63 63 -65 -66 66 67 -69 69 -71 -72 -73 74 -75 99 -77 -78 78 79 84 89 86 108 -85 85 -87 87 93 115 -91 -92 -93 118 -95 95 -97 -98 -99 -100 110 106 -103 103 -105 -106 -107 112 -109 -110 -111 -112 -113 113 -115 -116 -117 -118 -119 -120
leaf_value=14.744417709044486 -37.196985349992609 110718.45240746487 -48.548319258166714 21527.924714217152 -2474.1751151646195 -0.81300296035109432 -38.738184344894407 3377.4798764873076 -1.9968016995943914 -1633.3893144555275 38.290296627471491 -8.7222464378611946 240981.84387788447 -2.3109720545854762 150969.71133712694 29.220566610683495 21904.073362784056 543656.88669398613 1422.7958770637601 323099.8159647538 74483.041401438779 -91.66990195879562 824.4739292875322 427.69160664256475 4.4859378615238041 7256.7140076948635 1031639.1743703731 251.60590955982605 20523.380381839361 -27.612935354731285 -18.85356339308203 2465.2789317101483 -1809.7674882196629 -891.51812829917571 180701.00741937669 -28.263880691891035 238.40727218699814 -15.973896441880017 -2641.8193486824175 -1776.7514518035973 -0.061331122928084958 -173.5047994396466 -1.9140773290145496 243.66827858935696 -0.14887284745943846 -7.3586445841610875 -11.477222967721641 38476.225970207335 104.96870849157591 1122.0317053045949 430.67567148840396 -4.0278223763814536 574.63734797247923 -0.67256056851183554 -448.10488723135359 -112.06896636626082 -0.4695971878723082 3813.2930015573552 -0.012680183842926978 1450.080577007262 22.725061501278027 17.571337232698959 -9.9469737844239532 -0.28537605177248176 -1.1361925868778484 -0.04563582336302386 0.7966608501353617 292.58239408289853 -0.25787184514573014 -0.05238694566880521 -0.39163169602884157 40.545300348830146 -260.43629271551401 661.7806004270418 -6.6777218021946547 -0.06313345287219653 -17.944127687353298 3.6656590257568413 3.3616240356385854 0.033033546357117145 2.5065041221661475 3.5940929620931392 -0.21622046190602717 -25.976897826498483 0.28620224095485342 8.8406064838721381 -0.074874003978346454 0.38021517676180394 -0.24308698890588723 0.30709645617396825 -0.1476112261635131 -73.758673517118865 -0.26137077210013715 6.913043264624144 1.2888022143377684 0.16823929142177246 3.5177829192765424 -0.19409532783154032 -0.098458094360956414 -0.074899585103913771 -15.059763484775702 -2.0296265615390738 -16.457667790952019 -396.00679935439945 1.9189029108636981 -121.6800027888732 -0.30725120812502155 0.28242849283902827 3.7085558021456881 -0.77341204470784419 -3.3084641270975497 -0.38515449621087583 -17.426638233220281 -1.5042178148183563 -0.041019517932243954 -4.3071486289187302 -3.6408800522352327 3.2408400651151394 -0.074413935275777832
leaf_weight=6.3657151898369202 0.24980551007101331 0.035705582248346412 0.20928505609114489 0.18331791441681689 0.18331791460514124 0.36663582921028137 0.24980551004410323 0.035706017256139755 0.035706017166375809 0.036128136807810324 3.9001164161669544 0.044319124551936678 0.0056879236360666266 0.01537989200233858 0.0026704884077419768 41.319345203911134 0.0061065293848545565 0.0061065444880016367 0.078096586436725901 0.0011903844585232628 0.0012189818790737652 0.0061065293848514548 0.21002771146051813 0.4564266865232075 67.903100916749111 0.0060942778016133724 0.0013874473218060393 0.1096936256365274 0.0134371518081009 0.16203738523025532 0.11531449068621591 0.018918164421076716 0.30332683991119846 0.0034549169940872862 0.0017915156204253435 7.3553517918840834 0.42436856906043274 0.12521279172579772 0.01726295745129236 0.0061065293848514566 9628.7942894632142 0.18331791460514069 0.39235814106026978 0.19209188967943192 223.96686736247045 0.81849994380235636 0.1336940378292614 0.01310811846249435 0.44627935254218976 0.20831042301091751 0.1061899881580699 1.7181715146308807 0.16176527051720757 1.4776515026536974 0.017262956130879969 0.25124763222774404 2158.0563515103686 0.012331541877976693 213528.94321431249 0.58509647839172707 34.205016121104791 8.318842937465849 729.02156448188043 1183.3887683980206 78.783823370017942 2869806.4152359623 3676.8618418957758 2.9596089961287353 238838.66109273635 161234.20469312824 23346.710051911883 1.1147386415041172 0.20928510827258395 0.14247574470937241 4.3824476003646984 0.95761086046695709 0.20928505327810498 114.91108929152897 83.057430107931694 52205.074605637477 82.457666069061361 38.821898946105044 2.6682774694636455 0.7747761346547567 7165.4308278307371 24.561537733278783 18.998424687788614 23879.947817412602 3.2900584194468534 6347.6908427221606 26588.54076338117 0.10623529640780505 9.9015899147512183 5.7185833332332541 162.69427552262547 19547.649805566627 79.474230238457338 14.552462827745869 21.217845433682363 119.34645703489353 0.24980551004410401 0.2498055100710122 0.11508586429422761 0.0076899468778553045 119.16254775723105 0.010358028062292801 19.020924780894624 792.11068798405176 12.625698500312865 0.73432333231903613 2.763200133947449 223.45233658524558 0.25002065066655621 0.99922204020330596 0.12521278858520371 0.4101642821043997 0.4996110200881948 28.774127587688142 34.014069163021496
leaf_count=92 647 101331 472 50536 41516 12 298 1065 6 4286 8565 30 2115 4 1096 27051 335 13279 1301 1746 235 29 1117 1745 11411 173 4116 919 508 400 134 33 21745 104 1679 54417 6081 69 1329 388 44263 966 37 23 7377 264 105 765 36 123 71 246 58 50 290 1746 57709 25 1993600 68520 48144 3860 788412 46046 5109 28902498 134634 3075 2935685 2144274 743546 248 2919 26 1653 6 197 70 508 30321 685 1111 151 669 15727 625 341 99036 144 28182 702088 365 151 259 6719 419346 198 111 2243 1812 220 51 242 130 2556 49 869 756 2 25 379 3383 264 104 3 84 68 210 614
internal_value=-0.0497919 178.215 -0.0508707 25.6337 3775.72 -662.326 -0.153863 388.493 -5.23407 -822.486 -0.0518085 3.67479 1693.04 413.922 14146.1 2.88267 133.152 140923 51.4014 7285.45 2545.64 6678.55 37.5305 33.5741 0.43414 31.7728 8678.05 10.3601 2463.85 236.422 37.2429 731.404 -0.556515 -56.9151 61117.4 -98.8215 5.93878 -0.251503 -194.231 -934.211 -0.0541326 -58.3769 0.165651 78.8018 -0.0616272 3.68301 454.002 3425.13 1.36457 131.121 30.9185 0.143707 45.7653 23.8322 -36.3889 -2.53745 -0.356833 14.114 -0.06187 -0.553393 13.8024 111.705 -0.702603 -3.96843 6.0873 -0.0602164 -0.0470563 1.03134 -0.119767 -0.175067 -0.0484279 -0.446355 -0.182733 20.1286 -0.826374 -42.3791 -139.19 0.185929 0.110631 0.10337 0.405894 0.301252 4.42534 -0.237913 0.0700504 0.315425 0.298131 0.391809 -3.25536 0.339676 -0.027628 -14.9868 2.38758 0.381619 0.184639 0.178138 2.56425 3.23344 1.96232 -0.374298 -1.25861 -19.6133 -7.89925 -40.2304 2.51147 -50.3501 -0.822343 0.0367611 3.02382 -3.22729 -0.148071 -0.0686755 -0.651104 -4.6909 -8.00746 -0.693582 -0.392573 3.58059 -0.116567
internal_weight=3.66238e+06 22.1635 3.66235e+06 133.706 0.91659 0.733272 22.1278 0.285512 21.8423 0.0718342 3.66222e+06 2282.53 1.06975 1.06406 0.0284084 2281.46 42.0907 0.0244261 42.0663 0.080506 0.0793156 0.0183196 41.9858 41.7758 2239.37 68.6201 0.169519 68.4506 0.123131 0.168132 1.03565 0.0632373 2170.75 7.66393 0.00524643 7.65868 68.3275 132.79 0.284951 0.0122131 3.65994e+06 0.549954 132.505 0.58445 3.54914e+06 229.932 1.17773 0.146802 228.754 2.13224 1.03093 226.622 1.87994 1.92393 0.267689 21.7704 2163.08 3.91245 3.54891e+06 11886.5 121.893 8.90394 11764.7 1912.41 112.989 3.53702e+06 2.89683e+06 3679.82 640190 400073 2.89315e+06 2159.17 131.92 4.05198 127.868 1.37618 0.41857 110798 67021.7 66819.5 6632.37 43776.2 21.6597 224.742 60187.2 7189.99 43754.5 23984.1 3.90951 6430.15 240117 0.924735 202.153 23885.7 19770.4 19710.3 98.4727 158.238 60.0397 126.492 21.5192 0.499611 0.972414 0.122776 202.22 0.0257379 21.0196 52997.2 15.294 0.849638 122.11 9852.25 20.7698 1.24924 0.250426 3.70022 19.5205 143.685 43.9157
internal_count=39619892 110955 39508937 102473 93030 42494 9624 1363 8261 4292 39406464 219184 3858 1743 1149 215326 47226 14031 33195 3282 1536 752 29913 28796 168100 23608 4689 18919 1427 573 594 63 144492 77945 1783 76162 17492 9443 1691 417 39187280 978 7752 60 38577266 10129 1570 870 8559 209 700 8350 304 86 362 3969 66547 8590 38567137 1007737 125633 72380 882104 834458 53253 37559400 29783753 137709 7775647 5079959 29646044 57957 7692 726 6966 3122 3116 610014 80516 79360 31931 529498 245 8046 47429 16352 529253 99834 700 28867 2695688 629 1156 99295 429419 426065 539 391 3354 3844 2223 698 531 372 3064 53 1525 31077 153 159 2191 47646 1305 368 72 228 937 280 765
cat_boundaries=0 4 5 8 12 35 36 55 58 62 66 78
